digraph Tree {
node [shape=box, style="filled, rounded", color="black", fontname=helvetica] ;
edge [fontname=helvetica] ;
0 [label="xy_total_sales <= 11.5\ngini = 0.698\nsamples = 143293\nvalue = [38869, 41769, 9275, 53380]\nclass = other", fillcolor="#fae8fc"] ;
1 [label="xy_prev_sales <= 0.5\ngini = 0.565\nsamples = 72048\nvalue = [323, 41698, 9273, 20754]\nclass = detached", fillcolor="#b4f4ae"] ;
0 -> 1 [labeldistance=2.5, labelangle=45, headlabel="True"] ;
2 [label="DwelDens <= 821.914\ngini = 0.479\nsamples = 20024\nvalue = [44, 6304, 688, 12988]\nclass = other", fillcolor="#ec9ff2"] ;
1 -> 2 ;
3 [label="Dwel <= 345.5\ngini = 0.268\nsamples = 13910\nvalue = [6, 2129, 67, 11708]\nclass = other", fillcolor="#de5eea"] ;
2 -> 3 ;
4 [label="DwelDens <= 485.22\ngini = 0.447\nsamples = 5478\nvalue = [5, 1760, 39, 3674]\nclass = other", fillcolor="#ea99f2"] ;
3 -> 4 ;
5 [label="Avg_rent <= 234.35\ngini = 0.358\nsamples = 4151\nvalue = [2, 934, 22, 3193]\nclass = other", fillcolor="#e374ed"] ;
4 -> 5 ;
6 [label="Avg_HHsize <= 3.38\ngini = 0.503\nsamples = 898\nvalue = [0, 380, 12, 506]\nclass = other", fillcolor="#f5cff9"] ;
5 -> 6 ;
7 [label="DwelDens <= 156.5\ngini = 0.504\nsamples = 649\nvalue = [0, 357, 7, 285]\nclass = detached", fillcolor="#dbfad8"] ;
6 -> 7 ;
8 [label="med_price_xy <= 935399.094\ngini = 0.489\nsamples = 406\nvalue = [0, 157, 5, 244]\nclass = other", fillcolor="#f1baf6"] ;
7 -> 8 ;
9 [label="PopDens <= 147.357\ngini = 0.512\nsamples = 327\nvalue = [0, 149, 5, 173]\nclass = other", fillcolor="#fae4fb"] ;
8 -> 9 ;
10 [label="xy_price_cum_sum <= 242333.023\ngini = 0.5\nsamples = 228\nvalue = [0, 131, 3, 94]\nclass = detached", fillcolor="#ccf8c8"] ;
9 -> 10 ;
11 [label="Jobs <= 219.0\ngini = 0.393\nsamples = 52\nvalue = [0, 14, 0, 38]\nclass = other", fillcolor="#e682ef"] ;
10 -> 11 ;
12 [label="PopDens <= 18.336\ngini = 0.463\nsamples = 11\nvalue = [0, 7, 0, 4]\nclass = detached", fillcolor="#b0f4aa"] ;
11 -> 12 ;
13 [label="med_price_xy <= 227612.328\ngini = 0.32\nsamples = 5\nvalue = [0, 1, 0, 4]\nclass = other", fillcolor="#e16aec"] ;
12 -> 13 ;
14 [label="gini = 0.0\nsamples = 4\nvalue = [0, 0, 0, 4]\nclass = other", fillcolor="#d739e5"] ;
13 -> 14 ;
15 [label="gini = 0.0\nsamples = 1\nvalue = [0, 1, 0, 0]\nclass = detached", fillcolor="#47e539"] ;
13 -> 15 ;
16 [label="gini = 0.0\nsamples = 6\nvalue = [0, 6, 0, 0]\nclass = detached", fillcolor="#47e539"] ;
12 -> 16 ;
17 [label="Avg_rent <= 75.417\ngini = 0.283\nsamples = 41\nvalue = [0, 7, 0, 34]\nclass = other", fillcolor="#df62ea"] ;
11 -> 17 ;
18 [label="PT <= 5.0\ngini = 0.224\nsamples = 39\nvalue = [0, 5, 0, 34]\nclass = other", fillcolor="#dd56e9"] ;
17 -> 18 ;
19 [label="Sgl_det <= 232.0\ngini = 0.149\nsamples = 37\nvalue = [0, 3, 0, 34]\nclass = other", fillcolor="#db4ae7"] ;
18 -> 19 ;
20 [label="Cars <= 939.5\ngini = 0.059\nsamples = 33\nvalue = [0, 1, 0, 32]\nclass = other", fillcolor="#d83fe6"] ;
19 -> 20 ;
21 [label="gini = 0.278\nsamples = 6\nvalue = [0, 1, 0, 5]\nclass = other", fillcolor="#df61ea"] ;
20 -> 21 ;
22 [label="gini = 0.0\nsamples = 27\nvalue = [0, 0, 0, 27]\nclass = other", fillcolor="#d739e5"] ;
20 -> 22 ;
23 [label="PopDens <= 46.955\ngini = 0.5\nsamples = 4\nvalue = [0, 2, 0, 2]\nclass = detached", fillcolor="#ffffff"] ;
19 -> 23 ;
24 [label="gini = 0.0\nsamples = 2\nvalue = [0, 0, 0, 2]\nclass = other", fillcolor="#d739e5"] ;
23 -> 24 ;
25 [label="gini = 0.0\nsamples = 2\nvalue = [0, 2, 0, 0]\nclass = detached", fillcolor="#47e539"] ;
23 -> 25 ;
26 [label="gini = 0.0\nsamples = 2\nvalue = [0, 2, 0, 0]\nclass = detached", fillcolor="#47e539"] ;
18 -> 26 ;
27 [label="gini = 0.0\nsamples = 2\nvalue = [0, 2, 0, 0]\nclass = detached", fillcolor="#47e539"] ;
17 -> 27 ;
28 [label="PopDens <= 28.069\ngini = 0.457\nsamples = 176\nvalue = [0, 117, 3, 56]\nclass = detached", fillcolor="#a1f29a"] ;
10 -> 28 ;
29 [label="PopDens <= 24.591\ngini = 0.517\nsamples = 59\nvalue = [0, 29, 1, 29]\nclass = detached", fillcolor="#ffffff"] ;
28 -> 29 ;
30 [label="Sgl_det <= 177.5\ngini = 0.502\nsamples = 46\nvalue = [0, 27, 1, 18]\nclass = detached", fillcolor="#c4f7bf"] ;
29 -> 30 ;
31 [label="Sgl_att <= 7.5\ngini = 0.455\nsamples = 34\nvalue = [0, 23, 1, 10]\nclass = detached", fillcolor="#9bf194"] ;
30 -> 31 ;
32 [label="Dwel <= 157.5\ngini = 0.38\nsamples = 29\nvalue = [0, 22, 1, 6]\nclass = detached", fillcolor="#7fed75"] ;
31 -> 32 ;
33 [label="gini = 0.255\nsamples = 14\nvalue = [0, 12, 1, 1]\nclass = detached", fillcolor="#63e957"] ;
32 -> 33 ;
34 [label="gini = 0.444\nsamples = 15\nvalue = [0, 10, 0, 5]\nclass = detached", fillcolor="#a3f29c"] ;
32 -> 34 ;
35 [label="med_price_xy <= 356996.625\ngini = 0.32\nsamples = 5\nvalue = [0, 1, 0, 4]\nclass = other", fillcolor="#e16aec"] ;
31 -> 35 ;
36 [label="gini = 0.0\nsamples = 1\nvalue = [0, 1, 0, 0]\nclass = detached", fillcolor="#47e539"] ;
35 -> 36 ;
37 [label="gini = 0.0\nsamples = 4\nvalue = [0, 0, 0, 4]\nclass = other", fillcolor="#d739e5"] ;
35 -> 37 ;
38 [label="xy_price_cum_sum <= 773713.875\ngini = 0.444\nsamples = 12\nvalue = [0, 4, 0, 8]\nclass = other", fillcolor="#eb9cf2"] ;
30 -> 38 ;
39 [label="Jobs <= 152.5\ngini = 0.5\nsamples = 8\nvalue = [0, 4, 0, 4]\nclass = detached", fillcolor="#ffffff"] ;
38 -> 39 ;
40 [label="gini = 0.444\nsamples = 6\nvalue = [0, 2, 0, 4]\nclass = other", fillcolor="#eb9cf2"] ;
39 -> 40 ;
41 [label="gini = 0.0\nsamples = 2\nvalue = [0, 2, 0, 0]\nclass = detached", fillcolor="#47e539"] ;
39 -> 41 ;
42 [label="gini = 0.0\nsamples = 4\nvalue = [0, 0, 0, 4]\nclass = other", fillcolor="#d739e5"] ;
38 -> 42 ;
43 [label="xy_years_to_next_sale <= 3.064\ngini = 0.26\nsamples = 13\nvalue = [0, 2, 0, 11]\nclass = other", fillcolor="#de5dea"] ;
29 -> 43 ;
44 [label="gini = 0.0\nsamples = 1\nvalue = [0, 1, 0, 0]\nclass = detached", fillcolor="#47e539"] ;
43 -> 44 ;
45 [label="Jobs <= 726.0\ngini = 0.153\nsamples = 12\nvalue = [0, 1, 0, 11]\nclass = other", fillcolor="#db4be7"] ;
43 -> 45 ;
46 [label="gini = 0.0\nsamples = 10\nvalue = [0, 0, 0, 10]\nclass = other", fillcolor="#d739e5"] ;
45 -> 46 ;
47 [label="DwelDens <= 9.182\ngini = 0.5\nsamples = 2\nvalue = [0, 1, 0, 1]\nclass = detached", fillcolor="#ffffff"] ;
45 -> 47 ;
48 [label="gini = 0.0\nsamples = 1\nvalue = [0, 1, 0, 0]\nclass = detached", fillcolor="#47e539"] ;
47 -> 48 ;
49 [label="gini = 0.0\nsamples = 1\nvalue = [0, 0, 0, 1]\nclass = other", fillcolor="#d739e5"] ;
47 -> 49 ;
50 [label="Dwel <= 177.5\ngini = 0.381\nsamples = 117\nvalue = [0, 88, 2, 27]\nclass = detached", fillcolor="#82ed79"] ;
28 -> 50 ;
51 [label="Sgl_det <= 75.0\ngini = 0.148\nsamples = 38\nvalue = [0, 35, 1, 2]\nclass = detached", fillcolor="#56e74a"] ;
50 -> 51 ;
52 [label="gini = 0.0\nsamples = 1\nvalue = [0, 0, 1, 0]\nclass = duplex_townhouse", fillcolor="#399de5"] ;
51 -> 52 ;
53 [label="xy_price_cum_sum <= 265955.844\ngini = 0.102\nsamples = 37\nvalue = [0, 35, 0, 2]\nclass = detached", fillcolor="#52e644"] ;
51 -> 53 ;
54 [label="gini = 0.0\nsamples = 1\nvalue = [0, 0, 0, 1]\nclass = other", fillcolor="#d739e5"] ;
53 -> 54 ;
55 [label="Sgl_det <= 167.5\ngini = 0.054\nsamples = 36\nvalue = [0, 35, 0, 1]\nclass = detached", fillcolor="#4ce63f"] ;
53 -> 55 ;
56 [label="gini = 0.0\nsamples = 31\nvalue = [0, 31, 0, 0]\nclass = detached", fillcolor="#47e539"] ;
55 -> 56 ;
57 [label="gini = 0.32\nsamples = 5\nvalue = [0, 4, 0, 1]\nclass = detached", fillcolor="#75ec6a"] ;
55 -> 57 ;
58 [label="Sgl_det <= 198.0\ngini = 0.45\nsamples = 79\nvalue = [0, 53, 1, 25]\nclass = detached", fillcolor="#a0f298"] ;
50 -> 58 ;
59 [label="PopDens <= 31.14\ngini = 0.516\nsamples = 42\nvalue = [0, 23, 1, 18]\nclass = detached", fillcolor="#d9fad6"] ;
58 -> 59 ;
60 [label="PopDens <= 29.789\ngini = 0.18\nsamples = 10\nvalue = [0, 9, 0, 1]\nclass = detached", fillcolor="#5be84f"] ;
59 -> 60 ;
61 [label="gini = 0.444\nsamples = 3\nvalue = [0, 2, 0, 1]\nclass = detached", fillcolor="#a3f29c"] ;
60 -> 61 ;
62 [label="gini = 0.0\nsamples = 7\nvalue = [0, 7, 0, 0]\nclass = detached", fillcolor="#47e539"] ;
60 -> 62 ;
63 [label="Avg_HHsize <= 2.825\ngini = 0.525\nsamples = 32\nvalue = [0, 14, 1, 17]\nclass = other", fillcolor="#f8defb"] ;
59 -> 63 ;
64 [label="gini = 0.0\nsamples = 2\nvalue = [0, 2, 0, 0]\nclass = detached", fillcolor="#47e539"] ;
63 -> 64 ;
65 [label="gini = 0.518\nsamples = 30\nvalue = [0, 12, 1, 17]\nclass = other", fillcolor="#f4c8f8"] ;
63 -> 65 ;
66 [label="Avg_HHsize <= 2.954\ngini = 0.307\nsamples = 37\nvalue = [0, 30, 0, 7]\nclass = detached", fillcolor="#72eb67"] ;
58 -> 66 ;
67 [label="xy_years_to_next_sale <= 4.158\ngini = 0.444\nsamples = 21\nvalue = [0, 14, 0, 7]\nclass = detached", fillcolor="#a3f29c"] ;
66 -> 67 ;
68 [label="gini = 0.0\nsamples = 2\nvalue = [0, 0, 0, 2]\nclass = other", fillcolor="#d739e5"] ;
67 -> 68 ;
69 [label="gini = 0.388\nsamples = 19\nvalue = [0, 14, 0, 5]\nclass = detached", fillcolor="#89ee80"] ;
67 -> 69 ;
70 [label="gini = 0.0\nsamples = 16\nvalue = [0, 16, 0, 0]\nclass = detached", fillcolor="#47e539"] ;
66 -> 70 ;
71 [label="Avg_HHsize <= 2.958\ngini = 0.33\nsamples = 99\nvalue = [0, 18, 2, 79]\nclass = other", fillcolor="#e16aeb"] ;
9 -> 71 ;
72 [label="Sgl_att <= 12.5\ngini = 0.57\nsamples = 16\nvalue = [0, 9, 2, 5]\nclass = detached", fillcolor="#bcf6b7"] ;
71 -> 72 ;
73 [label="Sgl_det <= 254.0\ngini = 0.298\nsamples = 11\nvalue = [0, 9, 0, 2]\nclass = detached", fillcolor="#70eb65"] ;
72 -> 73 ;
74 [label="gini = 0.0\nsamples = 8\nvalue = [0, 8, 0, 0]\nclass = detached", fillcolor="#47e539"] ;
73 -> 74 ;
75 [label="xy_total_sales <= 1.5\ngini = 0.444\nsamples = 3\nvalue = [0, 1, 0, 2]\nclass = other", fillcolor="#eb9cf2"] ;
73 -> 75 ;
76 [label="gini = 0.0\nsamples = 1\nvalue = [0, 0, 0, 1]\nclass = other", fillcolor="#d739e5"] ;
75 -> 76 ;
77 [label="xy_years_to_next_sale <= 4.334\ngini = 0.5\nsamples = 2\nvalue = [0, 1, 0, 1]\nclass = detached", fillcolor="#ffffff"] ;
75 -> 77 ;
78 [label="gini = 0.0\nsamples = 1\nvalue = [0, 0, 0, 1]\nclass = other", fillcolor="#d739e5"] ;
77 -> 78 ;
79 [label="gini = 0.0\nsamples = 1\nvalue = [0, 1, 0, 0]\nclass = detached", fillcolor="#47e539"] ;
77 -> 79 ;
80 [label="Cars <= 3822.5\ngini = 0.48\nsamples = 5\nvalue = [0, 0, 2, 3]\nclass = other", fillcolor="#f2bdf6"] ;
72 -> 80 ;
81 [label="gini = 0.0\nsamples = 3\nvalue = [0, 0, 0, 3]\nclass = other", fillcolor="#d739e5"] ;
80 -> 81 ;
82 [label="gini = 0.0\nsamples = 2\nvalue = [0, 0, 2, 0]\nclass = duplex_townhouse", fillcolor="#399de5"] ;
80 -> 82 ;
83 [label="Dwel <= 251.5\ngini = 0.193\nsamples = 83\nvalue = [0, 9, 0, 74]\nclass = other", fillcolor="#dc51e8"] ;
71 -> 83 ;
84 [label="Cars <= 2909.5\ngini = 0.098\nsamples = 77\nvalue = [0, 4, 0, 73]\nclass = other", fillcolor="#d944e6"] ;
83 -> 84 ;
85 [label="med_price_xy <= 306263.797\ngini = 0.028\nsamples = 71\nvalue = [0, 1, 0, 70]\nclass = other", fillcolor="#d83ce5"] ;
84 -> 85 ;
86 [label="xy_years_to_next_sale <= 1.782\ngini = 0.32\nsamples = 5\nvalue = [0, 1, 0, 4]\nclass = other", fillcolor="#e16aec"] ;
85 -> 86 ;
87 [label="gini = 0.0\nsamples = 4\nvalue = [0, 0, 0, 4]\nclass = other", fillcolor="#d739e5"] ;
86 -> 87 ;
88 [label="gini = 0.0\nsamples = 1\nvalue = [0, 1, 0, 0]\nclass = detached", fillcolor="#47e539"] ;
86 -> 88 ;
89 [label="gini = 0.0\nsamples = 66\nvalue = [0, 0, 0, 66]\nclass = other", fillcolor="#d739e5"] ;
85 -> 89 ;
90 [label="xy_price_cum_sum <= 446975.703\ngini = 0.5\nsamples = 6\nvalue = [0, 3, 0, 3]\nclass = detached", fillcolor="#ffffff"] ;
84 -> 90 ;
91 [label="gini = 0.0\nsamples = 2\nvalue = [0, 2, 0, 0]\nclass = detached", fillcolor="#47e539"] ;
90 -> 91 ;
92 [label="xy_price_cum_sum <= 541467.0\ngini = 0.375\nsamples = 4\nvalue = [0, 1, 0, 3]\nclass = other", fillcolor="#e47bee"] ;
90 -> 92 ;
93 [label="gini = 0.5\nsamples = 2\nvalue = [0, 1, 0, 1]\nclass = detached", fillcolor="#ffffff"] ;
92 -> 93 ;
94 [label="gini = 0.0\nsamples = 2\nvalue = [0, 0, 0, 2]\nclass = other", fillcolor="#d739e5"] ;
92 -> 94 ;
95 [label="xy_price_cum_sum <= 423087.438\ngini = 0.278\nsamples = 6\nvalue = [0, 5, 0, 1]\nclass = detached", fillcolor="#6cea61"] ;
83 -> 95 ;
96 [label="gini = 0.0\nsamples = 1\nvalue = [0, 0, 0, 1]\nclass = other", fillcolor="#d739e5"] ;
95 -> 96 ;
97 [label="gini = 0.0\nsamples = 5\nvalue = [0, 5, 0, 0]\nclass = detached", fillcolor="#47e539"] ;
95 -> 97 ;
98 [label="Avg_rent <= 197.0\ngini = 0.182\nsamples = 79\nvalue = [0, 8, 0, 71]\nclass = other", fillcolor="#dc4fe8"] ;
8 -> 98 ;
99 [label="Cars <= 4369.5\ngini = 0.144\nsamples = 77\nvalue = [0, 6, 0, 71]\nclass = other", fillcolor="#da4ae7"] ;
98 -> 99 ;
100 [label="Sgl_att <= 2.5\ngini = 0.123\nsamples = 76\nvalue = [0, 5, 0, 71]\nclass = other", fillcolor="#da47e7"] ;
99 -> 100 ;
101 [label="DwelDens <= 11.124\ngini = 0.355\nsamples = 13\nvalue = [0, 3, 0, 10]\nclass = other", fillcolor="#e374ed"] ;
100 -> 101 ;
102 [label="gini = 0.0\nsamples = 9\nvalue = [0, 0, 0, 9]\nclass = other", fillcolor="#d739e5"] ;
101 -> 102 ;
103 [label="Cars <= 676.0\ngini = 0.375\nsamples = 4\nvalue = [0, 3, 0, 1]\nclass = detached", fillcolor="#84ee7b"] ;
101 -> 103 ;
104 [label="xy_price_cum_sum <= 1247232.062\ngini = 0.5\nsamples = 2\nvalue = [0, 1, 0, 1]\nclass = detached", fillcolor="#ffffff"] ;
103 -> 104 ;
105 [label="gini = 0.0\nsamples = 1\nvalue = [0, 1, 0, 0]\nclass = detached", fillcolor="#47e539"] ;
104 -> 105 ;
106 [label="gini = 0.0\nsamples = 1\nvalue = [0, 0, 0, 1]\nclass = other", fillcolor="#d739e5"] ;
104 -> 106 ;
107 [label="gini = 0.0\nsamples = 2\nvalue = [0, 2, 0, 0]\nclass = detached", fillcolor="#47e539"] ;
103 -> 107 ;
108 [label="Sgl_det <= 172.5\ngini = 0.061\nsamples = 63\nvalue = [0, 2, 0, 61]\nclass = other", fillcolor="#d83fe6"] ;
100 -> 108 ;
109 [label="gini = 0.0\nsamples = 47\nvalue = [0, 0, 0, 47]\nclass = other", fillcolor="#d739e5"] ;
108 -> 109 ;
110 [label="med_price_xy <= 2117812.5\ngini = 0.219\nsamples = 16\nvalue = [0, 2, 0, 14]\nclass = other", fillcolor="#dd55e9"] ;
108 -> 110 ;
111 [label="gini = 0.0\nsamples = 9\nvalue = [0, 0, 0, 9]\nclass = other", fillcolor="#d739e5"] ;
110 -> 111 ;
112 [label="med_price_xy <= 3450525.0\ngini = 0.408\nsamples = 7\nvalue = [0, 2, 0, 5]\nclass = other", fillcolor="#e788ef"] ;
110 -> 112 ;
113 [label="gini = 0.0\nsamples = 2\nvalue = [0, 2, 0, 0]\nclass = detached", fillcolor="#47e539"] ;
112 -> 113 ;
114 [label="gini = 0.0\nsamples = 5\nvalue = [0, 0, 0, 5]\nclass = other", fillcolor="#d739e5"] ;
112 -> 114 ;
115 [label="gini = 0.0\nsamples = 1\nvalue = [0, 1, 0, 0]\nclass = detached", fillcolor="#47e539"] ;
99 -> 115 ;
116 [label="gini = 0.0\nsamples = 2\nvalue = [0, 2, 0, 0]\nclass = detached", fillcolor="#47e539"] ;
98 -> 116 ;
117 [label="Walk <= 35.0\ngini = 0.294\nsamples = 243\nvalue = [0, 200, 2, 41]\nclass = detached", fillcolor="#6eeb63"] ;
7 -> 117 ;
118 [label="med_price_xy <= 234044.867\ngini = 0.218\nsamples = 227\nvalue = [0, 199, 2, 26]\nclass = detached", fillcolor="#61e955"] ;
117 -> 118 ;
119 [label="Cars <= 1717.0\ngini = 0.375\nsamples = 8\nvalue = [0, 2, 0, 6]\nclass = other", fillcolor="#e47bee"] ;
118 -> 119 ;
120 [label="Jobs <= 624.5\ngini = 0.444\nsamples = 3\nvalue = [0, 2, 0, 1]\nclass = detached", fillcolor="#a3f29c"] ;
119 -> 120 ;
121 [label="gini = 0.0\nsamples = 1\nvalue = [0, 0, 0, 1]\nclass = other", fillcolor="#d739e5"] ;
120 -> 121 ;
122 [label="gini = 0.0\nsamples = 2\nvalue = [0, 2, 0, 0]\nclass = detached", fillcolor="#47e539"] ;
120 -> 122 ;
123 [label="gini = 0.0\nsamples = 5\nvalue = [0, 0, 0, 5]\nclass = other", fillcolor="#d739e5"] ;
119 -> 123 ;
124 [label="xy_price_cum_sum <= 3157495.75\ngini = 0.182\nsamples = 219\nvalue = [0, 197, 2, 20]\nclass = detached", fillcolor="#5be84f"] ;
118 -> 124 ;
125 [label="Jobs <= 311.5\ngini = 0.148\nsamples = 213\nvalue = [0, 196, 2, 15]\nclass = detached", fillcolor="#57e74a"] ;
124 -> 125 ;
126 [label="xy_price_cum_sum <= 716647.5\ngini = 0.49\nsamples = 7\nvalue = [0, 4, 0, 3]\nclass = detached", fillcolor="#d1f8ce"] ;
125 -> 126 ;
127 [label="gini = 0.0\nsamples = 2\nvalue = [0, 0, 0, 2]\nclass = other", fillcolor="#d739e5"] ;
126 -> 127 ;
128 [label="Jobs <= 269.5\ngini = 0.32\nsamples = 5\nvalue = [0, 4, 0, 1]\nclass = detached", fillcolor="#75ec6a"] ;
126 -> 128 ;
129 [label="gini = 0.0\nsamples = 3\nvalue = [0, 3, 0, 0]\nclass = detached", fillcolor="#47e539"] ;
128 -> 129 ;
130 [label="med_price_xy <= 1020293.688\ngini = 0.5\nsamples = 2\nvalue = [0, 1, 0, 1]\nclass = detached", fillcolor="#ffffff"] ;
128 -> 130 ;
131 [label="gini = 0.0\nsamples = 1\nvalue = [0, 1, 0, 0]\nclass = detached", fillcolor="#47e539"] ;
130 -> 131 ;
132 [label="gini = 0.0\nsamples = 1\nvalue = [0, 0, 0, 1]\nclass = other", fillcolor="#d739e5"] ;
130 -> 132 ;
133 [label="DwelDens <= 481.613\ngini = 0.128\nsamples = 206\nvalue = [0, 192, 2, 12]\nclass = detached", fillcolor="#54e747"] ;
125 -> 133 ;
134 [label="Sgl_att <= 37.5\ngini = 0.12\nsamples = 205\nvalue = [0, 192, 2, 11]\nclass = detached", fillcolor="#53e746"] ;
133 -> 134 ;
135 [label="DwelDens <= 231.166\ngini = 0.069\nsamples = 167\nvalue = [0, 161, 0, 6]\nclass = detached", fillcolor="#4ee640"] ;
134 -> 135 ;
136 [label="Avg_HHsize <= 3.193\ngini = 0.291\nsamples = 17\nvalue = [0, 14, 0, 3]\nclass = detached", fillcolor="#6eeb63"] ;
135 -> 136 ;
137 [label="gini = 0.124\nsamples = 15\nvalue = [0, 14, 0, 1]\nclass = detached", fillcolor="#54e747"] ;
136 -> 137 ;
138 [label="gini = 0.0\nsamples = 2\nvalue = [0, 0, 0, 2]\nclass = other", fillcolor="#d739e5"] ;
136 -> 138 ;
139 [label="Dwel <= 302.5\ngini = 0.039\nsamples = 150\nvalue = [0, 147, 0, 3]\nclass = detached", fillcolor="#4be63d"] ;
135 -> 139 ;
140 [label="gini = 0.027\nsamples = 147\nvalue = [0, 145, 0, 2]\nclass = detached", fillcolor="#4ae53c"] ;
139 -> 140 ;
141 [label="gini = 0.444\nsamples = 3\nvalue = [0, 2, 0, 1]\nclass = detached", fillcolor="#a3f29c"] ;
139 -> 141 ;
142 [label="Sgl_att <= 42.5\ngini = 0.314\nsamples = 38\nvalue = [0, 31, 2, 5]\nclass = detached", fillcolor="#6eeb63"] ;
134 -> 142 ;
143 [label="Avg_HHsize <= 2.9\ngini = 0.494\nsamples = 9\nvalue = [0, 4, 0, 5]\nclass = other", fillcolor="#f7d7fa"] ;
142 -> 143 ;
144 [label="gini = 0.0\nsamples = 4\nvalue = [0, 4, 0, 0]\nclass = detached", fillcolor="#47e539"] ;
143 -> 144 ;
145 [label="gini = 0.0\nsamples = 5\nvalue = [0, 0, 0, 5]\nclass = other", fillcolor="#d739e5"] ;
143 -> 145 ;
146 [label="xy_years_to_next_sale <= 0.497\ngini = 0.128\nsamples = 29\nvalue = [0, 27, 2, 0]\nclass = detached", fillcolor="#55e748"] ;
142 -> 146 ;
147 [label="gini = 0.0\nsamples = 1\nvalue = [0, 0, 1, 0]\nclass = duplex_townhouse", fillcolor="#399de5"] ;
146 -> 147 ;
148 [label="gini = 0.069\nsamples = 28\nvalue = [0, 27, 1, 0]\nclass = detached", fillcolor="#4ee640"] ;
146 -> 148 ;
149 [label="gini = 0.0\nsamples = 1\nvalue = [0, 0, 0, 1]\nclass = other", fillcolor="#d739e5"] ;
133 -> 149 ;
150 [label="Dwel <= 150.0\ngini = 0.278\nsamples = 6\nvalue = [0, 1, 0, 5]\nclass = other", fillcolor="#df61ea"] ;
124 -> 150 ;
151 [label="gini = 0.0\nsamples = 1\nvalue = [0, 1, 0, 0]\nclass = detached", fillcolor="#47e539"] ;
150 -> 151 ;
152 [label="gini = 0.0\nsamples = 5\nvalue = [0, 0, 0, 5]\nclass = other", fillcolor="#d739e5"] ;
150 -> 152 ;
153 [label="PT <= 40.0\ngini = 0.117\nsamples = 16\nvalue = [0, 1, 0, 15]\nclass = other", fillcolor="#da46e7"] ;
117 -> 153 ;
154 [label="gini = 0.0\nsamples = 1\nvalue = [0, 1, 0, 0]\nclass = detached", fillcolor="#47e539"] ;
153 -> 154 ;
155 [label="gini = 0.0\nsamples = 15\nvalue = [0, 0, 0, 15]\nclass = other", fillcolor="#d739e5"] ;
153 -> 155 ;
156 [label="DwelDens <= 477.026\ngini = 0.203\nsamples = 249\nvalue = [0, 23, 5, 221]\nclass = other", fillcolor="#dc52e8"] ;
6 -> 156 ;
157 [label="Avg_HHsize <= 3.475\ngini = 0.14\nsamples = 239\nvalue = [0, 17, 1, 221]\nclass = other", fillcolor="#da49e7"] ;
156 -> 157 ;
158 [label="Avg_HHsize <= 3.417\ngini = 0.053\nsamples = 184\nvalue = [0, 5, 0, 179]\nclass = other", fillcolor="#d83fe6"] ;
157 -> 158 ;
159 [label="DwelDens <= 233.656\ngini = 0.187\nsamples = 48\nvalue = [0, 5, 0, 43]\nclass = other", fillcolor="#dc50e8"] ;
158 -> 159 ;
160 [label="Jobs <= 154.5\ngini = 0.122\nsamples = 46\nvalue = [0, 3, 0, 43]\nclass = other", fillcolor="#da47e7"] ;
159 -> 160 ;
161 [label="gini = 0.0\nsamples = 1\nvalue = [0, 1, 0, 0]\nclass = detached", fillcolor="#47e539"] ;
160 -> 161 ;
162 [label="xy_years_to_next_sale <= 4.6\ngini = 0.085\nsamples = 45\nvalue = [0, 2, 0, 43]\nclass = other", fillcolor="#d942e6"] ;
160 -> 162 ;
163 [label="xy_years_to_next_sale <= 4.389\ngini = 0.159\nsamples = 23\nvalue = [0, 2, 0, 21]\nclass = other", fillcolor="#db4ce7"] ;
162 -> 163 ;
164 [label="xy_price_cum_sum <= 1064354.25\ngini = 0.087\nsamples = 22\nvalue = [0, 1, 0, 21]\nclass = other", fillcolor="#d942e6"] ;
163 -> 164 ;
165 [label="gini = 0.0\nsamples = 20\nvalue = [0, 0, 0, 20]\nclass = other", fillcolor="#d739e5"] ;
164 -> 165 ;
166 [label="Dwel <= 287.5\ngini = 0.5\nsamples = 2\nvalue = [0, 1, 0, 1]\nclass = detached", fillcolor="#ffffff"] ;
164 -> 166 ;
167 [label="gini = 0.0\nsamples = 1\nvalue = [0, 0, 0, 1]\nclass = other", fillcolor="#d739e5"] ;
166 -> 167 ;
168 [label="gini = 0.0\nsamples = 1\nvalue = [0, 1, 0, 0]\nclass = detached", fillcolor="#47e539"] ;
166 -> 168 ;
169 [label="gini = 0.0\nsamples = 1\nvalue = [0, 1, 0, 0]\nclass = detached", fillcolor="#47e539"] ;
163 -> 169 ;
170 [label="gini = 0.0\nsamples = 22\nvalue = [0, 0, 0, 22]\nclass = other", fillcolor="#d739e5"] ;
162 -> 170 ;
171 [label="gini = 0.0\nsamples = 2\nvalue = [0, 2, 0, 0]\nclass = detached", fillcolor="#47e539"] ;
159 -> 171 ;
172 [label="gini = 0.0\nsamples = 136\nvalue = [0, 0, 0, 136]\nclass = other", fillcolor="#d739e5"] ;
158 -> 172 ;
173 [label="Jobs <= 918.5\ngini = 0.369\nsamples = 55\nvalue = [0, 12, 1, 42]\nclass = other", fillcolor="#e375ed"] ;
157 -> 173 ;
174 [label="xy_price_cum_sum <= 2362282.5\ngini = 0.551\nsamples = 15\nvalue = [0, 8, 1, 6]\nclass = detached", fillcolor="#d6f9d3"] ;
173 -> 174 ;
175 [label="med_price_xy <= 593865.875\ngini = 0.43\nsamples = 11\nvalue = [0, 8, 1, 2]\nclass = detached", fillcolor="#84ee7b"] ;
174 -> 175 ;
176 [label="xy_total_sales <= 1.5\ngini = 0.444\nsamples = 3\nvalue = [0, 0, 1, 2]\nclass = other", fillcolor="#eb9cf2"] ;
175 -> 176 ;
177 [label="gini = 0.0\nsamples = 2\nvalue = [0, 0, 0, 2]\nclass = other", fillcolor="#d739e5"] ;
176 -> 177 ;
178 [label="gini = 0.0\nsamples = 1\nvalue = [0, 0, 1, 0]\nclass = duplex_townhouse", fillcolor="#399de5"] ;
176 -> 178 ;
179 [label="gini = 0.0\nsamples = 8\nvalue = [0, 8, 0, 0]\nclass = detached", fillcolor="#47e539"] ;
175 -> 179 ;
180 [label="gini = 0.0\nsamples = 4\nvalue = [0, 0, 0, 4]\nclass = other", fillcolor="#d739e5"] ;
174 -> 180 ;
181 [label="xy_price_cum_sum <= 90543.367\ngini = 0.18\nsamples = 40\nvalue = [0, 4, 0, 36]\nclass = other", fillcolor="#db4fe8"] ;
173 -> 181 ;
182 [label="med_price_xy <= 210664.203\ngini = 0.444\nsamples = 3\nvalue = [0, 2, 0, 1]\nclass = detached", fillcolor="#a3f29c"] ;
181 -> 182 ;
183 [label="gini = 0.0\nsamples = 1\nvalue = [0, 0, 0, 1]\nclass = other", fillcolor="#d739e5"] ;
182 -> 183 ;
184 [label="gini = 0.0\nsamples = 2\nvalue = [0, 2, 0, 0]\nclass = detached", fillcolor="#47e539"] ;
182 -> 184 ;
185 [label="Sgl_det <= 42.5\ngini = 0.102\nsamples = 37\nvalue = [0, 2, 0, 35]\nclass = other", fillcolor="#d944e6"] ;
181 -> 185 ;
186 [label="gini = 0.0\nsamples = 1\nvalue = [0, 1, 0, 0]\nclass = detached", fillcolor="#47e539"] ;
185 -> 186 ;
187 [label="med_price_xy <= 430279.406\ngini = 0.054\nsamples = 36\nvalue = [0, 1, 0, 35]\nclass = other", fillcolor="#d83fe6"] ;
185 -> 187 ;
188 [label="xy_price_cum_sum <= 410743.594\ngini = 0.142\nsamples = 13\nvalue = [0, 1, 0, 12]\nclass = other", fillcolor="#da49e7"] ;
187 -> 188 ;
189 [label="gini = 0.0\nsamples = 12\nvalue = [0, 0, 0, 12]\nclass = other", fillcolor="#d739e5"] ;
188 -> 189 ;
190 [label="gini = 0.0\nsamples = 1\nvalue = [0, 1, 0, 0]\nclass = detached", fillcolor="#47e539"] ;
188 -> 190 ;
191 [label="gini = 0.0\nsamples = 23\nvalue = [0, 0, 0, 23]\nclass = other", fillcolor="#d739e5"] ;
187 -> 191 ;
192 [label="med_price_xy <= 414434.594\ngini = 0.48\nsamples = 10\nvalue = [0, 6, 4, 0]\nclass = detached", fillcolor="#c2f6bd"] ;
156 -> 192 ;
193 [label="gini = 0.0\nsamples = 4\nvalue = [0, 0, 4, 0]\nclass = duplex_townhouse", fillcolor="#399de5"] ;
192 -> 193 ;
194 [label="gini = 0.0\nsamples = 6\nvalue = [0, 6, 0, 0]\nclass = detached", fillcolor="#47e539"] ;
192 -> 194 ;
195 [label="Sgl_det <= 224.5\ngini = 0.289\nsamples = 3253\nvalue = [2, 554, 10, 2687]\nclass = other", fillcolor="#df63ea"] ;
5 -> 195 ;
196 [label="Avg_HHsize <= 2.906\ngini = 0.244\nsamples = 2923\nvalue = [2, 403, 9, 2509]\nclass = other", fillcolor="#de5ae9"] ;
195 -> 196 ;
197 [label="DwelDens <= 201.585\ngini = 0.39\nsamples = 975\nvalue = [2, 248, 5, 720]\nclass = other", fillcolor="#e57eee"] ;
196 -> 197 ;
198 [label="Cars <= 1806.0\ngini = 0.283\nsamples = 829\nvalue = [0, 140, 1, 688]\nclass = other", fillcolor="#df62ea"] ;
197 -> 198 ;
199 [label="Sgl_att <= 7.5\ngini = 0.228\nsamples = 779\nvalue = [0, 102, 0, 677]\nclass = other", fillcolor="#dd57e9"] ;
198 -> 199 ;
200 [label="Dwel <= 156.0\ngini = 0.481\nsamples = 102\nvalue = [0, 41, 0, 61]\nclass = other", fillcolor="#f2bef6"] ;
199 -> 200 ;
201 [label="Sgl_det <= 115.0\ngini = 0.346\nsamples = 45\nvalue = [0, 10, 0, 35]\nclass = other", fillcolor="#e272ec"] ;
200 -> 201 ;
202 [label="med_price_xy <= 434729.281\ngini = 0.408\nsamples = 7\nvalue = [0, 5, 0, 2]\nclass = detached", fillcolor="#91ef88"] ;
201 -> 202 ;
203 [label="gini = 0.0\nsamples = 4\nvalue = [0, 4, 0, 0]\nclass = detached", fillcolor="#47e539"] ;
202 -> 203 ;
204 [label="med_price_xy <= 806892.0\ngini = 0.444\nsamples = 3\nvalue = [0, 1, 0, 2]\nclass = other", fillcolor="#eb9cf2"] ;
202 -> 204 ;
205 [label="gini = 0.0\nsamples = 2\nvalue = [0, 0, 0, 2]\nclass = other", fillcolor="#d739e5"] ;
204 -> 205 ;
206 [label="gini = 0.0\nsamples = 1\nvalue = [0, 1, 0, 0]\nclass = detached", fillcolor="#47e539"] ;
204 -> 206 ;
207 [label="PT <= 7.5\ngini = 0.229\nsamples = 38\nvalue = [0, 5, 0, 33]\nclass = other", fillcolor="#dd57e9"] ;
201 -> 207 ;
208 [label="Dwel <= 145.5\ngini = 0.193\nsamples = 37\nvalue = [0, 4, 0, 33]\nclass = other", fillcolor="#dc51e8"] ;
207 -> 208 ;
209 [label="gini = 0.0\nsamples = 20\nvalue = [0, 0, 0, 20]\nclass = other", fillcolor="#d739e5"] ;
208 -> 209 ;
210 [label="Dwel <= 148.0\ngini = 0.36\nsamples = 17\nvalue = [0, 4, 0, 13]\nclass = other", fillcolor="#e376ed"] ;
208 -> 210 ;
211 [label="gini = 0.0\nsamples = 1\nvalue = [0, 1, 0, 0]\nclass = detached", fillcolor="#47e539"] ;
210 -> 211 ;
212 [label="gini = 0.305\nsamples = 16\nvalue = [0, 3, 0, 13]\nclass = other", fillcolor="#e067eb"] ;
210 -> 212 ;
213 [label="gini = 0.0\nsamples = 1\nvalue = [0, 1, 0, 0]\nclass = detached", fillcolor="#47e539"] ;
207 -> 213 ;
214 [label="DwelDens <= 38.691\ngini = 0.496\nsamples = 57\nvalue = [0, 31, 0, 26]\nclass = detached", fillcolor="#e1fbdf"] ;
200 -> 214 ;
215 [label="Avg_HHsize <= 2.886\ngini = 0.499\nsamples = 50\nvalue = [0, 24, 0, 26]\nclass = other", fillcolor="#fcf0fd"] ;
214 -> 215 ;
216 [label="Sgl_det <= 179.5\ngini = 0.487\nsamples = 43\nvalue = [0, 18, 0, 25]\nclass = other", fillcolor="#f4c8f8"] ;
215 -> 216 ;
217 [label="Cars <= 673.0\ngini = 0.494\nsamples = 27\nvalue = [0, 15, 0, 12]\nclass = detached", fillcolor="#dafad7"] ;
216 -> 217 ;
218 [label="gini = 0.375\nsamples = 8\nvalue = [0, 2, 0, 6]\nclass = other", fillcolor="#e47bee"] ;
217 -> 218 ;
219 [label="gini = 0.432\nsamples = 19\nvalue = [0, 13, 0, 6]\nclass = detached", fillcolor="#9cf194"] ;
217 -> 219 ;
220 [label="med_price_xy <= 576768.531\ngini = 0.305\nsamples = 16\nvalue = [0, 3, 0, 13]\nclass = other", fillcolor="#e067eb"] ;
216 -> 220 ;
221 [label="gini = 0.0\nsamples = 10\nvalue = [0, 0, 0, 10]\nclass = other", fillcolor="#d739e5"] ;
220 -> 221 ;
222 [label="gini = 0.5\nsamples = 6\nvalue = [0, 3, 0, 3]\nclass = detached", fillcolor="#ffffff"] ;
220 -> 222 ;
223 [label="Avg_rent <= 412.722\ngini = 0.245\nsamples = 7\nvalue = [0, 6, 0, 1]\nclass = detached", fillcolor="#66e95a"] ;
215 -> 223 ;
224 [label="med_price_xy <= 511358.797\ngini = 0.5\nsamples = 2\nvalue = [0, 1, 0, 1]\nclass = detached", fillcolor="#ffffff"] ;
223 -> 224 ;
225 [label="gini = 0.0\nsamples = 1\nvalue = [0, 1, 0, 0]\nclass = detached", fillcolor="#47e539"] ;
224 -> 225 ;
226 [label="gini = 0.0\nsamples = 1\nvalue = [0, 0, 0, 1]\nclass = other", fillcolor="#d739e5"] ;
224 -> 226 ;
227 [label="gini = 0.0\nsamples = 5\nvalue = [0, 5, 0, 0]\nclass = detached", fillcolor="#47e539"] ;
223 -> 227 ;
228 [label="gini = 0.0\nsamples = 7\nvalue = [0, 7, 0, 0]\nclass = detached", fillcolor="#47e539"] ;
214 -> 228 ;
229 [label="Dwel <= 169.5\ngini = 0.164\nsamples = 677\nvalue = [0, 61, 0, 616]\nclass = other", fillcolor="#db4de8"] ;
199 -> 229 ;
230 [label="PopDens <= 47.382\ngini = 0.057\nsamples = 477\nvalue = [0, 14, 0, 463]\nclass = other", fillcolor="#d83fe6"] ;
229 -> 230 ;
231 [label="xy_years_to_next_sale <= 0.012\ngini = 0.026\nsamples = 464\nvalue = [0, 6, 0, 458]\nclass = other", fillcolor="#d83ce5"] ;
230 -> 231 ;
232 [label="gini = 0.0\nsamples = 1\nvalue = [0, 1, 0, 0]\nclass = detached", fillcolor="#47e539"] ;
231 -> 232 ;
233 [label="Sgl_det <= 130.5\ngini = 0.021\nsamples = 463\nvalue = [0, 5, 0, 458]\nclass = other", fillcolor="#d73be5"] ;
231 -> 233 ;
234 [label="med_price_xy <= 1093551.0\ngini = 0.408\nsamples = 7\nvalue = [0, 2, 0, 5]\nclass = other", fillcolor="#e788ef"] ;
233 -> 234 ;
235 [label="gini = 0.444\nsamples = 3\nvalue = [0, 2, 0, 1]\nclass = detached", fillcolor="#a3f29c"] ;
234 -> 235 ;
236 [label="gini = 0.0\nsamples = 4\nvalue = [0, 0, 0, 4]\nclass = other", fillcolor="#d739e5"] ;
234 -> 236 ;
237 [label="Sgl_att <= 19.0\ngini = 0.013\nsamples = 456\nvalue = [0, 3, 0, 453]\nclass = other", fillcolor="#d73ae5"] ;
233 -> 237 ;
238 [label="gini = 0.009\nsamples = 452\nvalue = [0, 2, 0, 450]\nclass = other", fillcolor="#d73ae5"] ;
237 -> 238 ;
239 [label="gini = 0.375\nsamples = 4\nvalue = [0, 1, 0, 3]\nclass = other", fillcolor="#e47bee"] ;
237 -> 239 ;
240 [label="xy_price_cum_sum <= 427334.25\ngini = 0.473\nsamples = 13\nvalue = [0, 8, 0, 5]\nclass = detached", fillcolor="#baf5b5"] ;
230 -> 240 ;
241 [label="xy_total_sales <= 3.0\ngini = 0.198\nsamples = 9\nvalue = [0, 8, 0, 1]\nclass = detached", fillcolor="#5ee852"] ;
240 -> 241 ;
242 [label="gini = 0.0\nsamples = 8\nvalue = [0, 8, 0, 0]\nclass = detached", fillcolor="#47e539"] ;
241 -> 242 ;
243 [label="gini = 0.0\nsamples = 1\nvalue = [0, 0, 0, 1]\nclass = other", fillcolor="#d739e5"] ;
241 -> 243 ;
244 [label="gini = 0.0\nsamples = 4\nvalue = [0, 0, 0, 4]\nclass = other", fillcolor="#d739e5"] ;
240 -> 244 ;
245 [label="Jobs <= 1128.5\ngini = 0.36\nsamples = 200\nvalue = [0, 47, 0, 153]\nclass = other", fillcolor="#e376ed"] ;
229 -> 245 ;
246 [label="xy_price_cum_sum <= 77627.789\ngini = 0.482\nsamples = 64\nvalue = [0, 38, 0, 26]\nclass = detached", fillcolor="#c5f7c0"] ;
245 -> 246 ;
247 [label="Jobs <= 424.0\ngini = 0.198\nsamples = 9\nvalue = [0, 1, 0, 8]\nclass = other", fillcolor="#dc52e8"] ;
246 -> 247 ;
248 [label="gini = 0.0\nsamples = 7\nvalue = [0, 0, 0, 7]\nclass = other", fillcolor="#d739e5"] ;
247 -> 248 ;
249 [label="xy_price_cum_sum <= 47600.259\ngini = 0.5\nsamples = 2\nvalue = [0, 1, 0, 1]\nclass = detached", fillcolor="#ffffff"] ;
247 -> 249 ;
250 [label="gini = 0.0\nsamples = 1\nvalue = [0, 0, 0, 1]\nclass = other", fillcolor="#d739e5"] ;
249 -> 250 ;
251 [label="gini = 0.0\nsamples = 1\nvalue = [0, 1, 0, 0]\nclass = detached", fillcolor="#47e539"] ;
249 -> 251 ;
252 [label="Avg_rent <= 356.243\ngini = 0.44\nsamples = 55\nvalue = [0, 37, 0, 18]\nclass = detached", fillcolor="#a1f299"] ;
246 -> 252 ;
253 [label="gini = 0.0\nsamples = 6\nvalue = [0, 0, 0, 6]\nclass = other", fillcolor="#d739e5"] ;
252 -> 253 ;
254 [label="xy_price_cum_sum <= 543324.969\ngini = 0.37\nsamples = 49\nvalue = [0, 37, 0, 12]\nclass = detached", fillcolor="#83ed79"] ;
252 -> 254 ;
255 [label="gini = 0.198\nsamples = 36\nvalue = [0, 32, 0, 4]\nclass = detached", fillcolor="#5ee852"] ;
254 -> 255 ;
256 [label="gini = 0.473\nsamples = 13\nvalue = [0, 5, 0, 8]\nclass = other", fillcolor="#f0b5f5"] ;
254 -> 256 ;
257 [label="Sgl_att <= 57.5\ngini = 0.124\nsamples = 136\nvalue = [0, 9, 0, 127]\nclass = other", fillcolor="#da47e7"] ;
245 -> 257 ;
258 [label="xy_price_cum_sum <= 775034.625\ngini = 0.475\nsamples = 18\nvalue = [0, 7, 0, 11]\nclass = other", fillcolor="#f0b7f6"] ;
257 -> 258 ;
259 [label="med_price_xy <= 93435.807\ngini = 0.42\nsamples = 10\nvalue = [0, 7, 0, 3]\nclass = detached", fillcolor="#96f08e"] ;
258 -> 259 ;
260 [label="gini = 0.0\nsamples = 2\nvalue = [0, 0, 0, 2]\nclass = other", fillcolor="#d739e5"] ;
259 -> 260 ;
261 [label="gini = 0.219\nsamples = 8\nvalue = [0, 7, 0, 1]\nclass = detached", fillcolor="#61e955"] ;
259 -> 261 ;
262 [label="gini = 0.0\nsamples = 8\nvalue = [0, 0, 0, 8]\nclass = other", fillcolor="#d739e5"] ;
258 -> 262 ;
263 [label="PT <= 0.5\ngini = 0.033\nsamples = 118\nvalue = [0, 2, 0, 116]\nclass = other", fillcolor="#d83ce5"] ;
257 -> 263 ;
264 [label="Cars <= 631.0\ngini = 0.375\nsamples = 4\nvalue = [0, 1, 0, 3]\nclass = other", fillcolor="#e47bee"] ;
263 -> 264 ;
265 [label="gini = 0.0\nsamples = 3\nvalue = [0, 0, 0, 3]\nclass = other", fillcolor="#d739e5"] ;
264 -> 265 ;
266 [label="gini = 0.0\nsamples = 1\nvalue = [0, 1, 0, 0]\nclass = detached", fillcolor="#47e539"] ;
264 -> 266 ;
267 [label="Walk <= 30.0\ngini = 0.017\nsamples = 114\nvalue = [0, 1, 0, 113]\nclass = other", fillcolor="#d73be5"] ;
263 -> 267 ;
268 [label="gini = 0.0\nsamples = 74\nvalue = [0, 0, 0, 74]\nclass = other", fillcolor="#d739e5"] ;
267 -> 268 ;
269 [label="gini = 0.049\nsamples = 40\nvalue = [0, 1, 0, 39]\nclass = other", fillcolor="#d83ee6"] ;
267 -> 269 ;
270 [label="med_price_xy <= 192119.922\ngini = 0.374\nsamples = 50\nvalue = [0, 38, 1, 11]\nclass = detached", fillcolor="#80ed76"] ;
198 -> 270 ;
271 [label="gini = 0.0\nsamples = 3\nvalue = [0, 0, 0, 3]\nclass = other", fillcolor="#d739e5"] ;
270 -> 271 ;
272 [label="med_price_xy <= 1244628.25\ngini = 0.317\nsamples = 47\nvalue = [0, 38, 1, 8]\nclass = detached", fillcolor="#71eb67"] ;
270 -> 272 ;
273 [label="Dwel <= 317.5\ngini = 0.251\nsamples = 42\nvalue = [0, 36, 1, 5]\nclass = detached", fillcolor="#65e959"] ;
272 -> 273 ;
274 [label="Avg_rent <= 350.467\ngini = 0.188\nsamples = 39\nvalue = [0, 35, 1, 3]\nclass = detached", fillcolor="#5be84f"] ;
273 -> 274 ;
275 [label="xy_price_cum_sum <= 552880.281\ngini = 0.531\nsamples = 8\nvalue = [0, 5, 1, 2]\nclass = detached", fillcolor="#a3f29c"] ;
274 -> 275 ;
276 [label="Avg_HHsize <= 2.1\ngini = 0.625\nsamples = 4\nvalue = [0, 1, 1, 2]\nclass = other", fillcolor="#f2bdf6"] ;
275 -> 276 ;
277 [label="gini = 0.5\nsamples = 2\nvalue = [0, 1, 1, 0]\nclass = detached", fillcolor="#ffffff"] ;
276 -> 277 ;
278 [label="gini = 0.0\nsamples = 2\nvalue = [0, 0, 0, 2]\nclass = other", fillcolor="#d739e5"] ;
276 -> 278 ;
279 [label="gini = 0.0\nsamples = 4\nvalue = [0, 4, 0, 0]\nclass = detached", fillcolor="#47e539"] ;
275 -> 279 ;
280 [label="xy_price_cum_sum <= 783003.75\ngini = 0.062\nsamples = 31\nvalue = [0, 30, 0, 1]\nclass = detached", fillcolor="#4de640"] ;
274 -> 280 ;
281 [label="gini = 0.0\nsamples = 28\nvalue = [0, 28, 0, 0]\nclass = detached", fillcolor="#47e539"] ;
280 -> 281 ;
282 [label="Jobs <= 1307.0\ngini = 0.444\nsamples = 3\nvalue = [0, 2, 0, 1]\nclass = detached", fillcolor="#a3f29c"] ;
280 -> 282 ;
283 [label="gini = 0.0\nsamples = 2\nvalue = [0, 2, 0, 0]\nclass = detached", fillcolor="#47e539"] ;
282 -> 283 ;
284 [label="gini = 0.0\nsamples = 1\nvalue = [0, 0, 0, 1]\nclass = other", fillcolor="#d739e5"] ;
282 -> 284 ;
285 [label="xy_total_sales <= 2.5\ngini = 0.444\nsamples = 3\nvalue = [0, 1, 0, 2]\nclass = other", fillcolor="#eb9cf2"] ;
273 -> 285 ;
286 [label="gini = 0.0\nsamples = 2\nvalue = [0, 0, 0, 2]\nclass = other", fillcolor="#d739e5"] ;
285 -> 286 ;
287 [label="gini = 0.0\nsamples = 1\nvalue = [0, 1, 0, 0]\nclass = detached", fillcolor="#47e539"] ;
285 -> 287 ;
288 [label="Avg_rent <= 1000.0\ngini = 0.48\nsamples = 5\nvalue = [0, 2, 0, 3]\nclass = other", fillcolor="#f2bdf6"] ;
272 -> 288 ;
289 [label="Cars <= 1893.0\ngini = 0.375\nsamples = 4\nvalue = [0, 1, 0, 3]\nclass = other", fillcolor="#e47bee"] ;
288 -> 289 ;
290 [label="gini = 0.5\nsamples = 2\nvalue = [0, 1, 0, 1]\nclass = detached", fillcolor="#ffffff"] ;
289 -> 290 ;
291 [label="gini = 0.0\nsamples = 2\nvalue = [0, 0, 0, 2]\nclass = other", fillcolor="#d739e5"] ;
289 -> 291 ;
292 [label="gini = 0.0\nsamples = 1\nvalue = [0, 1, 0, 0]\nclass = detached", fillcolor="#47e539"] ;
288 -> 292 ;
293 [label="med_price_xy <= 2108770.875\ngini = 0.404\nsamples = 146\nvalue = [2, 108, 4, 32]\nclass = detached", fillcolor="#84ee7b"] ;
197 -> 293 ;
294 [label="Sgl_att <= 70.0\ngini = 0.369\nsamples = 140\nvalue = [2, 108, 4, 26]\nclass = detached", fillcolor="#7bec71"] ;
293 -> 294 ;
295 [label="med_price_xy <= 95022.148\ngini = 0.24\nsamples = 103\nvalue = [1, 89, 1, 12]\nclass = detached", fillcolor="#63e957"] ;
294 -> 295 ;
296 [label="gini = 0.0\nsamples = 2\nvalue = [0, 0, 0, 2]\nclass = other", fillcolor="#d739e5"] ;
295 -> 296 ;
297 [label="PT <= 2.5\ngini = 0.214\nsamples = 101\nvalue = [1, 89, 1, 10]\nclass = detached", fillcolor="#5fe853"] ;
295 -> 297 ;
298 [label="PopDens <= 719.965\ngini = 0.411\nsamples = 38\nvalue = [1, 28, 1, 8]\nclass = detached", fillcolor="#84ee7b"] ;
297 -> 298 ;
299 [label="gini = 0.0\nsamples = 15\nvalue = [0, 15, 0, 0]\nclass = detached", fillcolor="#47e539"] ;
298 -> 299 ;
300 [label="Avg_rent <= 784.25\ngini = 0.556\nsamples = 23\nvalue = [1, 13, 1, 8]\nclass = detached", fillcolor="#c2f6bd"] ;
298 -> 300 ;
301 [label="xy_years_to_next_sale <= 4.242\ngini = 0.51\nsamples = 20\nvalue = [1, 13, 1, 5]\nclass = detached", fillcolor="#9df195"] ;
300 -> 301 ;
302 [label="gini = 0.0\nsamples = 6\nvalue = [0, 6, 0, 0]\nclass = detached", fillcolor="#47e539"] ;
301 -> 302 ;
303 [label="gini = 0.612\nsamples = 14\nvalue = [1, 7, 1, 5]\nclass = detached", fillcolor="#d6f9d3"] ;
301 -> 303 ;
304 [label="gini = 0.0\nsamples = 3\nvalue = [0, 0, 0, 3]\nclass = other", fillcolor="#d739e5"] ;
300 -> 304 ;
305 [label="PopDens <= 1281.881\ngini = 0.061\nsamples = 63\nvalue = [0, 61, 0, 2]\nclass = detached", fillcolor="#4de63f"] ;
297 -> 305 ;
306 [label="PT <= 7.0\ngini = 0.033\nsamples = 59\nvalue = [0, 58, 0, 1]\nclass = detached", fillcolor="#4ae53c"] ;
305 -> 306 ;
307 [label="med_price_xy <= 595209.625\ngini = 0.18\nsamples = 10\nvalue = [0, 9, 0, 1]\nclass = detached", fillcolor="#5be84f"] ;
306 -> 307 ;
308 [label="gini = 0.0\nsamples = 9\nvalue = [0, 9, 0, 0]\nclass = detached", fillcolor="#47e539"] ;
307 -> 308 ;
309 [label="gini = 0.0\nsamples = 1\nvalue = [0, 0, 0, 1]\nclass = other", fillcolor="#d739e5"] ;
307 -> 309 ;
310 [label="gini = 0.0\nsamples = 49\nvalue = [0, 49, 0, 0]\nclass = detached", fillcolor="#47e539"] ;
306 -> 310 ;
311 [label="xy_price_cum_sum <= 606761.547\ngini = 0.375\nsamples = 4\nvalue = [0, 3, 0, 1]\nclass = detached", fillcolor="#84ee7b"] ;
305 -> 311 ;
312 [label="gini = 0.0\nsamples = 1\nvalue = [0, 0, 0, 1]\nclass = other", fillcolor="#d739e5"] ;
311 -> 312 ;
313 [label="gini = 0.0\nsamples = 3\nvalue = [0, 3, 0, 0]\nclass = detached", fillcolor="#47e539"] ;
311 -> 313 ;
314 [label="med_price_xy <= 849455.719\ngini = 0.586\nsamples = 37\nvalue = [1, 19, 3, 14]\nclass = detached", fillcolor="#d7f9d4"] ;
294 -> 314 ;
315 [label="Dwel <= 180.0\ngini = 0.547\nsamples = 31\nvalue = [1, 19, 3, 8]\nclass = detached", fillcolor="#a7f3a0"] ;
314 -> 315 ;
316 [label="med_price_xy <= 446975.703\ngini = 0.56\nsamples = 5\nvalue = [1, 1, 3, 0]\nclass = duplex_townhouse", fillcolor="#9ccef2"] ;
315 -> 316 ;
317 [label="Jobs <= 3476.5\ngini = 0.375\nsamples = 4\nvalue = [0, 1, 3, 0]\nclass = duplex_townhouse", fillcolor="#7bbeee"] ;
316 -> 317 ;
318 [label="gini = 0.0\nsamples = 3\nvalue = [0, 0, 3, 0]\nclass = duplex_townhouse", fillcolor="#399de5"] ;
317 -> 318 ;
319 [label="gini = 0.0\nsamples = 1\nvalue = [0, 1, 0, 0]\nclass = detached", fillcolor="#47e539"] ;
317 -> 319 ;
320 [label="gini = 0.0\nsamples = 1\nvalue = [1, 0, 0, 0]\nclass = condo", fillcolor="#e58139"] ;
316 -> 320 ;
321 [label="xy_price_cum_sum <= 446710.281\ngini = 0.426\nsamples = 26\nvalue = [0, 18, 0, 8]\nclass = detached", fillcolor="#99f191"] ;
315 -> 321 ;
322 [label="Sgl_att <= 132.0\ngini = 0.5\nsamples = 14\nvalue = [0, 7, 0, 7]\nclass = detached", fillcolor="#ffffff"] ;
321 -> 322 ;
323 [label="Avg_HHsize <= 2.65\ngini = 0.463\nsamples = 11\nvalue = [0, 4, 0, 7]\nclass = other", fillcolor="#eeaaf4"] ;
322 -> 323 ;
324 [label="gini = 0.278\nsamples = 6\nvalue = [0, 1, 0, 5]\nclass = other", fillcolor="#df61ea"] ;
323 -> 324 ;
325 [label="gini = 0.48\nsamples = 5\nvalue = [0, 3, 0, 2]\nclass = detached", fillcolor="#c2f6bd"] ;
323 -> 325 ;
326 [label="gini = 0.0\nsamples = 3\nvalue = [0, 3, 0, 0]\nclass = detached", fillcolor="#47e539"] ;
322 -> 326 ;
327 [label="Cars <= 5272.5\ngini = 0.153\nsamples = 12\nvalue = [0, 11, 0, 1]\nclass = detached", fillcolor="#58e74b"] ;
321 -> 327 ;
328 [label="gini = 0.0\nsamples = 11\nvalue = [0, 11, 0, 0]\nclass = detached", fillcolor="#47e539"] ;
327 -> 328 ;
329 [label="gini = 0.0\nsamples = 1\nvalue = [0, 0, 0, 1]\nclass = other", fillcolor="#d739e5"] ;
327 -> 329 ;
330 [label="gini = 0.0\nsamples = 6\nvalue = [0, 0, 0, 6]\nclass = other", fillcolor="#d739e5"] ;
314 -> 330 ;
331 [label="gini = 0.0\nsamples = 6\nvalue = [0, 0, 0, 6]\nclass = other", fillcolor="#d739e5"] ;
293 -> 331 ;
332 [label="xy_price_cum_sum <= 589641.625\ngini = 0.15\nsamples = 1948\nvalue = [0, 155, 4, 1789]\nclass = other", fillcolor="#db4be7"] ;
196 -> 332 ;
333 [label="DwelDens <= 16.382\ngini = 0.092\nsamples = 1610\nvalue = [0, 74, 4, 1532]\nclass = other", fillcolor="#d943e6"] ;
332 -> 333 ;
334 [label="Sgl_det <= 146.0\ngini = 0.499\nsamples = 38\nvalue = [0, 20, 0, 18]\nclass = detached", fillcolor="#edfceb"] ;
333 -> 334 ;
335 [label="Avg_rent <= 306.05\ngini = 0.219\nsamples = 16\nvalue = [0, 2, 0, 14]\nclass = other", fillcolor="#dd55e9"] ;
334 -> 335 ;
336 [label="gini = 0.0\nsamples = 2\nvalue = [0, 2, 0, 0]\nclass = detached", fillcolor="#47e539"] ;
335 -> 336 ;
337 [label="gini = 0.0\nsamples = 14\nvalue = [0, 0, 0, 14]\nclass = other", fillcolor="#d739e5"] ;
335 -> 337 ;
338 [label="PopDens <= 28.474\ngini = 0.298\nsamples = 22\nvalue = [0, 18, 0, 4]\nclass = detached", fillcolor="#70eb65"] ;
334 -> 338 ;
339 [label="Jobs <= 694.5\ngini = 0.494\nsamples = 9\nvalue = [0, 5, 0, 4]\nclass = detached", fillcolor="#dafad7"] ;
338 -> 339 ;
340 [label="gini = 0.0\nsamples = 5\nvalue = [0, 5, 0, 0]\nclass = detached", fillcolor="#47e539"] ;
339 -> 340 ;
341 [label="gini = 0.0\nsamples = 4\nvalue = [0, 0, 0, 4]\nclass = other", fillcolor="#d739e5"] ;
339 -> 341 ;
342 [label="gini = 0.0\nsamples = 13\nvalue = [0, 13, 0, 0]\nclass = detached", fillcolor="#47e539"] ;
338 -> 342 ;
343 [label="Jobs <= 2830.5\ngini = 0.071\nsamples = 1572\nvalue = [0, 54, 4, 1514]\nclass = other", fillcolor="#d941e6"] ;
333 -> 343 ;
344 [label="Sgl_det <= 4.0\ngini = 0.057\nsamples = 1558\nvalue = [0, 42, 4, 1512]\nclass = other", fillcolor="#d83fe6"] ;
343 -> 344 ;
345 [label="gini = 0.0\nsamples = 2\nvalue = [0, 0, 2, 0]\nclass = duplex_townhouse", fillcolor="#399de5"] ;
344 -> 345 ;
346 [label="Jobs <= 58.0\ngini = 0.055\nsamples = 1556\nvalue = [0, 42, 2, 1512]\nclass = other", fillcolor="#d83fe6"] ;
344 -> 346 ;
347 [label="gini = 0.0\nsamples = 2\nvalue = [0, 2, 0, 0]\nclass = detached", fillcolor="#47e539"] ;
346 -> 347 ;
348 [label="PT <= 114.5\ngini = 0.053\nsamples = 1554\nvalue = [0, 40, 2, 1512]\nclass = other", fillcolor="#d83ee6"] ;
346 -> 348 ;
349 [label="med_price_xy <= 207296.922\ngini = 0.05\nsamples = 1552\nvalue = [0, 38, 2, 1512]\nclass = other", fillcolor="#d83ee6"] ;
348 -> 349 ;
350 [label="xy_price_cum_sum <= 103515.75\ngini = 0.388\nsamples = 19\nvalue = [0, 5, 0, 14]\nclass = other", fillcolor="#e580ee"] ;
349 -> 350 ;
351 [label="gini = 0.0\nsamples = 14\nvalue = [0, 0, 0, 14]\nclass = other", fillcolor="#d739e5"] ;
350 -> 351 ;
352 [label="gini = 0.0\nsamples = 5\nvalue = [0, 5, 0, 0]\nclass = detached", fillcolor="#47e539"] ;
350 -> 352 ;
353 [label="Jobs <= 1271.0\ngini = 0.045\nsamples = 1533\nvalue = [0, 33, 2, 1498]\nclass = other", fillcolor="#d83ee6"] ;
349 -> 353 ;
354 [label="gini = 0.034\nsamples = 1401\nvalue = [0, 23, 1, 1377]\nclass = other", fillcolor="#d83ce5"] ;
353 -> 354 ;
355 [label="gini = 0.154\nsamples = 132\nvalue = [0, 10, 1, 121]\nclass = other", fillcolor="#db4be7"] ;
353 -> 355 ;
356 [label="gini = 0.0\nsamples = 2\nvalue = [0, 2, 0, 0]\nclass = detached", fillcolor="#47e539"] ;
348 -> 356 ;
357 [label="Jobs <= 5118.0\ngini = 0.245\nsamples = 14\nvalue = [0, 12, 0, 2]\nclass = detached", fillcolor="#66e95a"] ;
343 -> 357 ;
358 [label="gini = 0.0\nsamples = 11\nvalue = [0, 11, 0, 0]\nclass = detached", fillcolor="#47e539"] ;
357 -> 358 ;
359 [label="PT <= 100.0\ngini = 0.444\nsamples = 3\nvalue = [0, 1, 0, 2]\nclass = other", fillcolor="#eb9cf2"] ;
357 -> 359 ;
360 [label="gini = 0.0\nsamples = 2\nvalue = [0, 0, 0, 2]\nclass = other", fillcolor="#d739e5"] ;
359 -> 360 ;
361 [label="gini = 0.0\nsamples = 1\nvalue = [0, 1, 0, 0]\nclass = detached", fillcolor="#47e539"] ;
359 -> 361 ;
362 [label="Sgl_att <= 56.0\ngini = 0.364\nsamples = 338\nvalue = [0, 81, 0, 257]\nclass = other", fillcolor="#e477ed"] ;
332 -> 362 ;
363 [label="DwelDens <= 197.284\ngini = 0.453\nsamples = 208\nvalue = [0, 72, 0, 136]\nclass = other", fillcolor="#eca2f3"] ;
362 -> 363 ;
364 [label="xy_price_cum_sum <= 821224.938\ngini = 0.346\nsamples = 166\nvalue = [0, 37, 0, 129]\nclass = other", fillcolor="#e272ec"] ;
363 -> 364 ;
365 [label="PopDens <= 466.866\ngini = 0.5\nsamples = 43\nvalue = [0, 22, 0, 21]\nclass = detached", fillcolor="#f7fef6"] ;
364 -> 365 ;
366 [label="DwelDens <= 9.04\ngini = 0.458\nsamples = 31\nvalue = [0, 20, 0, 11]\nclass = detached", fillcolor="#acf3a6"] ;
365 -> 366 ;
367 [label="med_price_xy <= 610477.5\ngini = 0.245\nsamples = 7\nvalue = [0, 1, 0, 6]\nclass = other", fillcolor="#de5ae9"] ;
366 -> 367 ;
368 [label="gini = 0.0\nsamples = 1\nvalue = [0, 1, 0, 0]\nclass = detached", fillcolor="#47e539"] ;
367 -> 368 ;
369 [label="gini = 0.0\nsamples = 6\nvalue = [0, 0, 0, 6]\nclass = other", fillcolor="#d739e5"] ;
367 -> 369 ;
370 [label="Sgl_det <= 79.5\ngini = 0.33\nsamples = 24\nvalue = [0, 19, 0, 5]\nclass = detached", fillcolor="#77ec6d"] ;
366 -> 370 ;
371 [label="gini = 0.0\nsamples = 2\nvalue = [0, 0, 0, 2]\nclass = other", fillcolor="#d739e5"] ;
370 -> 371 ;
372 [label="Jobs <= 1784.0\ngini = 0.236\nsamples = 22\nvalue = [0, 19, 0, 3]\nclass = detached", fillcolor="#64e958"] ;
370 -> 372 ;
373 [label="gini = 0.172\nsamples = 21\nvalue = [0, 19, 0, 2]\nclass = detached", fillcolor="#5ae84e"] ;
372 -> 373 ;
374 [label="gini = 0.0\nsamples = 1\nvalue = [0, 0, 0, 1]\nclass = other", fillcolor="#d739e5"] ;
372 -> 374 ;
375 [label="xy_price_cum_sum <= 807953.688\ngini = 0.278\nsamples = 12\nvalue = [0, 2, 0, 10]\nclass = other", fillcolor="#df61ea"] ;
365 -> 375 ;
376 [label="PT <= 77.5\ngini = 0.165\nsamples = 11\nvalue = [0, 1, 0, 10]\nclass = other", fillcolor="#db4de8"] ;
375 -> 376 ;
377 [label="gini = 0.0\nsamples = 10\nvalue = [0, 0, 0, 10]\nclass = other", fillcolor="#d739e5"] ;
376 -> 377 ;
378 [label="gini = 0.0\nsamples = 1\nvalue = [0, 1, 0, 0]\nclass = detached", fillcolor="#47e539"] ;
376 -> 378 ;
379 [label="gini = 0.0\nsamples = 1\nvalue = [0, 1, 0, 0]\nclass = detached", fillcolor="#47e539"] ;
375 -> 379 ;
380 [label="Avg_HHsize <= 3.181\ngini = 0.214\nsamples = 123\nvalue = [0, 15, 0, 108]\nclass = other", fillcolor="#dd54e9"] ;
364 -> 380 ;
381 [label="Dwel <= 57.5\ngini = 0.086\nsamples = 89\nvalue = [0, 4, 0, 85]\nclass = other", fillcolor="#d942e6"] ;
380 -> 381 ;
382 [label="gini = 0.0\nsamples = 1\nvalue = [0, 1, 0, 0]\nclass = detached", fillcolor="#47e539"] ;
381 -> 382 ;
383 [label="Walk <= 30.0\ngini = 0.066\nsamples = 88\nvalue = [0, 3, 0, 85]\nclass = other", fillcolor="#d840e6"] ;
381 -> 383 ;
384 [label="Sgl_det <= 209.5\ngini = 0.045\nsamples = 86\nvalue = [0, 2, 0, 84]\nclass = other", fillcolor="#d83ee6"] ;
383 -> 384 ;
385 [label="gini = 0.0\nsamples = 72\nvalue = [0, 0, 0, 72]\nclass = other", fillcolor="#d739e5"] ;
384 -> 385 ;
386 [label="gini = 0.245\nsamples = 14\nvalue = [0, 2, 0, 12]\nclass = other", fillcolor="#de5ae9"] ;
384 -> 386 ;
387 [label="med_price_xy <= 5859522.25\ngini = 0.5\nsamples = 2\nvalue = [0, 1, 0, 1]\nclass = detached", fillcolor="#ffffff"] ;
383 -> 387 ;
388 [label="gini = 0.0\nsamples = 1\nvalue = [0, 1, 0, 0]\nclass = detached", fillcolor="#47e539"] ;
387 -> 388 ;
389 [label="gini = 0.0\nsamples = 1\nvalue = [0, 0, 0, 1]\nclass = other", fillcolor="#d739e5"] ;
387 -> 389 ;
390 [label="med_price_xy <= 1210338.0\ngini = 0.438\nsamples = 34\nvalue = [0, 11, 0, 23]\nclass = other", fillcolor="#ea98f1"] ;
380 -> 390 ;
391 [label="Jobs <= 360.5\ngini = 0.346\nsamples = 9\nvalue = [0, 7, 0, 2]\nclass = detached", fillcolor="#7cec72"] ;
390 -> 391 ;
392 [label="gini = 0.0\nsamples = 6\nvalue = [0, 6, 0, 0]\nclass = detached", fillcolor="#47e539"] ;
391 -> 392 ;
393 [label="med_price_xy <= 873543.0\ngini = 0.444\nsamples = 3\nvalue = [0, 1, 0, 2]\nclass = other", fillcolor="#eb9cf2"] ;
391 -> 393 ;
394 [label="gini = 0.0\nsamples = 1\nvalue = [0, 1, 0, 0]\nclass = detached", fillcolor="#47e539"] ;
393 -> 394 ;
395 [label="gini = 0.0\nsamples = 2\nvalue = [0, 0, 0, 2]\nclass = other", fillcolor="#d739e5"] ;
393 -> 395 ;
396 [label="Cars <= 352.5\ngini = 0.269\nsamples = 25\nvalue = [0, 4, 0, 21]\nclass = other", fillcolor="#df5fea"] ;
390 -> 396 ;
397 [label="Cars <= 150.5\ngini = 0.159\nsamples = 23\nvalue = [0, 2, 0, 21]\nclass = other", fillcolor="#db4ce7"] ;
396 -> 397 ;
398 [label="gini = 0.0\nsamples = 14\nvalue = [0, 0, 0, 14]\nclass = other", fillcolor="#d739e5"] ;
397 -> 398 ;
399 [label="gini = 0.346\nsamples = 9\nvalue = [0, 2, 0, 7]\nclass = other", fillcolor="#e272ec"] ;
397 -> 399 ;
400 [label="gini = 0.0\nsamples = 2\nvalue = [0, 2, 0, 0]\nclass = detached", fillcolor="#47e539"] ;
396 -> 400 ;
401 [label="PopDens <= 1378.382\ngini = 0.278\nsamples = 42\nvalue = [0, 35, 0, 7]\nclass = detached", fillcolor="#6cea61"] ;
363 -> 401 ;
402 [label="med_price_xy <= 3926676.125\ngini = 0.108\nsamples = 35\nvalue = [0, 33, 0, 2]\nclass = detached", fillcolor="#52e745"] ;
401 -> 402 ;
403 [label="gini = 0.0\nsamples = 33\nvalue = [0, 33, 0, 0]\nclass = detached", fillcolor="#47e539"] ;
402 -> 403 ;
404 [label="gini = 0.0\nsamples = 2\nvalue = [0, 0, 0, 2]\nclass = other", fillcolor="#d739e5"] ;
402 -> 404 ;
405 [label="Walk <= 0.5\ngini = 0.408\nsamples = 7\nvalue = [0, 2, 0, 5]\nclass = other", fillcolor="#e788ef"] ;
401 -> 405 ;
406 [label="xy_total_sales <= 1.5\ngini = 0.5\nsamples = 4\nvalue = [0, 2, 0, 2]\nclass = detached", fillcolor="#ffffff"] ;
405 -> 406 ;
407 [label="xy_price_cum_sum <= 1758315.375\ngini = 0.444\nsamples = 3\nvalue = [0, 1, 0, 2]\nclass = other", fillcolor="#eb9cf2"] ;
406 -> 407 ;
408 [label="gini = 0.0\nsamples = 1\nvalue = [0, 0, 0, 1]\nclass = other", fillcolor="#d739e5"] ;
407 -> 408 ;
409 [label="gini = 0.5\nsamples = 2\nvalue = [0, 1, 0, 1]\nclass = detached", fillcolor="#ffffff"] ;
407 -> 409 ;
410 [label="gini = 0.0\nsamples = 1\nvalue = [0, 1, 0, 0]\nclass = detached", fillcolor="#47e539"] ;
406 -> 410 ;
411 [label="gini = 0.0\nsamples = 3\nvalue = [0, 0, 0, 3]\nclass = other", fillcolor="#d739e5"] ;
405 -> 411 ;
412 [label="Sgl_det <= 130.0\ngini = 0.129\nsamples = 130\nvalue = [0, 9, 0, 121]\nclass = other", fillcolor="#da48e7"] ;
362 -> 412 ;
413 [label="xy_price_cum_sum <= 1340714.719\ngini = 0.472\nsamples = 21\nvalue = [0, 8, 0, 13]\nclass = other", fillcolor="#f0b3f5"] ;
412 -> 413 ;
414 [label="xy_years_to_next_sale <= 3.049\ngini = 0.397\nsamples = 11\nvalue = [0, 8, 0, 3]\nclass = detached", fillcolor="#8cef83"] ;
413 -> 414 ;
415 [label="PopDens <= 1250.238\ngini = 0.444\nsamples = 3\nvalue = [0, 1, 0, 2]\nclass = other", fillcolor="#eb9cf2"] ;
414 -> 415 ;
416 [label="gini = 0.0\nsamples = 2\nvalue = [0, 0, 0, 2]\nclass = other", fillcolor="#d739e5"] ;
415 -> 416 ;
417 [label="gini = 0.0\nsamples = 1\nvalue = [0, 1, 0, 0]\nclass = detached", fillcolor="#47e539"] ;
415 -> 417 ;
418 [label="Avg_HHsize <= 2.96\ngini = 0.219\nsamples = 8\nvalue = [0, 7, 0, 1]\nclass = detached", fillcolor="#61e955"] ;
414 -> 418 ;
419 [label="gini = 0.0\nsamples = 1\nvalue = [0, 0, 0, 1]\nclass = other", fillcolor="#d739e5"] ;
418 -> 419 ;
420 [label="gini = 0.0\nsamples = 7\nvalue = [0, 7, 0, 0]\nclass = detached", fillcolor="#47e539"] ;
418 -> 420 ;
421 [label="gini = 0.0\nsamples = 10\nvalue = [0, 0, 0, 10]\nclass = other", fillcolor="#d739e5"] ;
413 -> 421 ;
422 [label="Dwel <= 287.5\ngini = 0.018\nsamples = 109\nvalue = [0, 1, 0, 108]\nclass = other", fillcolor="#d73be5"] ;
412 -> 422 ;
423 [label="gini = 0.0\nsamples = 106\nvalue = [0, 0, 0, 106]\nclass = other", fillcolor="#d739e5"] ;
422 -> 423 ;
424 [label="Cars <= 2676.5\ngini = 0.444\nsamples = 3\nvalue = [0, 1, 0, 2]\nclass = other", fillcolor="#eb9cf2"] ;
422 -> 424 ;
425 [label="gini = 0.0\nsamples = 1\nvalue = [0, 0, 0, 1]\nclass = other", fillcolor="#d739e5"] ;
424 -> 425 ;
426 [label="med_price_xy <= 1778347.5\ngini = 0.5\nsamples = 2\nvalue = [0, 1, 0, 1]\nclass = detached", fillcolor="#ffffff"] ;
424 -> 426 ;
427 [label="gini = 0.0\nsamples = 1\nvalue = [0, 0, 0, 1]\nclass = other", fillcolor="#d739e5"] ;
426 -> 427 ;
428 [label="gini = 0.0\nsamples = 1\nvalue = [0, 1, 0, 0]\nclass = detached", fillcolor="#47e539"] ;
426 -> 428 ;
429 [label="Jobs <= 694.0\ngini = 0.5\nsamples = 330\nvalue = [0, 151, 1, 178]\nclass = other", fillcolor="#f9e1fb"] ;
195 -> 429 ;
430 [label="Avg_HHsize <= 2.914\ngini = 0.426\nsamples = 237\nvalue = [0, 73, 0, 164]\nclass = other", fillcolor="#e991f1"] ;
429 -> 430 ;
431 [label="xy_years_to_next_sale <= 1.034\ngini = 0.366\nsamples = 58\nvalue = [0, 44, 0, 14]\nclass = detached", fillcolor="#82ed78"] ;
430 -> 431 ;
432 [label="Avg_HHsize <= 2.513\ngini = 0.408\nsamples = 7\nvalue = [0, 2, 0, 5]\nclass = other", fillcolor="#e788ef"] ;
431 -> 432 ;
433 [label="gini = 0.0\nsamples = 1\nvalue = [0, 1, 0, 0]\nclass = detached", fillcolor="#47e539"] ;
432 -> 433 ;
434 [label="xy_price_cum_sum <= 68479.65\ngini = 0.278\nsamples = 6\nvalue = [0, 1, 0, 5]\nclass = other", fillcolor="#df61ea"] ;
432 -> 434 ;
435 [label="xy_years_to_next_sale <= 0.76\ngini = 0.5\nsamples = 2\nvalue = [0, 1, 0, 1]\nclass = detached", fillcolor="#ffffff"] ;
434 -> 435 ;
436 [label="gini = 0.0\nsamples = 1\nvalue = [0, 0, 0, 1]\nclass = other", fillcolor="#d739e5"] ;
435 -> 436 ;
437 [label="gini = 0.0\nsamples = 1\nvalue = [0, 1, 0, 0]\nclass = detached", fillcolor="#47e539"] ;
435 -> 437 ;
438 [label="gini = 0.0\nsamples = 4\nvalue = [0, 0, 0, 4]\nclass = other", fillcolor="#d739e5"] ;
434 -> 438 ;
439 [label="Dwel <= 244.5\ngini = 0.291\nsamples = 51\nvalue = [0, 42, 0, 9]\nclass = detached", fillcolor="#6eeb63"] ;
431 -> 439 ;
440 [label="xy_price_cum_sum <= 556319.656\ngini = 0.375\nsamples = 4\nvalue = [0, 1, 0, 3]\nclass = other", fillcolor="#e47bee"] ;
439 -> 440 ;
441 [label="gini = 0.0\nsamples = 3\nvalue = [0, 0, 0, 3]\nclass = other", fillcolor="#d739e5"] ;
440 -> 441 ;
442 [label="gini = 0.0\nsamples = 1\nvalue = [0, 1, 0, 0]\nclass = detached", fillcolor="#47e539"] ;
440 -> 442 ;
443 [label="Avg_HHsize <= 2.562\ngini = 0.223\nsamples = 47\nvalue = [0, 41, 0, 6]\nclass = detached", fillcolor="#62e956"] ;
439 -> 443 ;
444 [label="Jobs <= 285.0\ngini = 0.486\nsamples = 12\nvalue = [0, 7, 0, 5]\nclass = detached", fillcolor="#caf8c6"] ;
443 -> 444 ;
445 [label="xy_years_to_next_sale <= 5.781\ngini = 0.444\nsamples = 6\nvalue = [0, 2, 0, 4]\nclass = other", fillcolor="#eb9cf2"] ;
444 -> 445 ;
446 [label="gini = 0.0\nsamples = 1\nvalue = [0, 1, 0, 0]\nclass = detached", fillcolor="#47e539"] ;
445 -> 446 ;
447 [label="med_price_xy <= 186009.844\ngini = 0.32\nsamples = 5\nvalue = [0, 1, 0, 4]\nclass = other", fillcolor="#e16aec"] ;
445 -> 447 ;
448 [label="gini = 0.5\nsamples = 2\nvalue = [0, 1, 0, 1]\nclass = detached", fillcolor="#ffffff"] ;
447 -> 448 ;
449 [label="gini = 0.0\nsamples = 3\nvalue = [0, 0, 0, 3]\nclass = other", fillcolor="#d739e5"] ;
447 -> 449 ;
450 [label="xy_total_sales <= 1.5\ngini = 0.278\nsamples = 6\nvalue = [0, 5, 0, 1]\nclass = detached", fillcolor="#6cea61"] ;
444 -> 450 ;
451 [label="gini = 0.0\nsamples = 5\nvalue = [0, 5, 0, 0]\nclass = detached", fillcolor="#47e539"] ;
450 -> 451 ;
452 [label="gini = 0.0\nsamples = 1\nvalue = [0, 0, 0, 1]\nclass = other", fillcolor="#d739e5"] ;
450 -> 452 ;
453 [label="med_price_xy <= 610477.5\ngini = 0.056\nsamples = 35\nvalue = [0, 34, 0, 1]\nclass = detached", fillcolor="#4ce63f"] ;
443 -> 453 ;
454 [label="gini = 0.0\nsamples = 33\nvalue = [0, 33, 0, 0]\nclass = detached", fillcolor="#47e539"] ;
453 -> 454 ;
455 [label="PopDens <= 708.647\ngini = 0.5\nsamples = 2\nvalue = [0, 1, 0, 1]\nclass = detached", fillcolor="#ffffff"] ;
453 -> 455 ;
456 [label="gini = 0.0\nsamples = 1\nvalue = [0, 0, 0, 1]\nclass = other", fillcolor="#d739e5"] ;
455 -> 456 ;
457 [label="gini = 0.0\nsamples = 1\nvalue = [0, 1, 0, 0]\nclass = detached", fillcolor="#47e539"] ;
455 -> 457 ;
458 [label="med_price_xy <= 663720.75\ngini = 0.272\nsamples = 179\nvalue = [0, 29, 0, 150]\nclass = other", fillcolor="#df5fea"] ;
430 -> 458 ;
459 [label="PopDens <= 206.838\ngini = 0.148\nsamples = 149\nvalue = [0, 12, 0, 137]\nclass = other", fillcolor="#db4ae7"] ;
458 -> 459 ;
460 [label="PopDens <= 38.539\ngini = 0.498\nsamples = 15\nvalue = [0, 7, 0, 8]\nclass = other", fillcolor="#fae6fc"] ;
459 -> 460 ;
461 [label="gini = 0.0\nsamples = 5\nvalue = [0, 0, 0, 5]\nclass = other", fillcolor="#d739e5"] ;
460 -> 461 ;
462 [label="xy_price_cum_sum <= 479681.906\ngini = 0.42\nsamples = 10\nvalue = [0, 7, 0, 3]\nclass = detached", fillcolor="#96f08e"] ;
460 -> 462 ;
463 [label="Avg_rent <= 421.036\ngini = 0.245\nsamples = 7\nvalue = [0, 6, 0, 1]\nclass = detached", fillcolor="#66e95a"] ;
462 -> 463 ;
464 [label="Cars <= 235.5\ngini = 0.444\nsamples = 3\nvalue = [0, 2, 0, 1]\nclass = detached", fillcolor="#a3f29c"] ;
463 -> 464 ;
465 [label="gini = 0.0\nsamples = 1\nvalue = [0, 1, 0, 0]\nclass = detached", fillcolor="#47e539"] ;
464 -> 465 ;
466 [label="xy_price_cum_sum <= 366551.922\ngini = 0.5\nsamples = 2\nvalue = [0, 1, 0, 1]\nclass = detached", fillcolor="#ffffff"] ;
464 -> 466 ;
467 [label="gini = 0.0\nsamples = 1\nvalue = [0, 0, 0, 1]\nclass = other", fillcolor="#d739e5"] ;
466 -> 467 ;
468 [label="gini = 0.0\nsamples = 1\nvalue = [0, 1, 0, 0]\nclass = detached", fillcolor="#47e539"] ;
466 -> 468 ;
469 [label="gini = 0.0\nsamples = 4\nvalue = [0, 4, 0, 0]\nclass = detached", fillcolor="#47e539"] ;
463 -> 469 ;
470 [label="DwelDens <= 29.221\ngini = 0.444\nsamples = 3\nvalue = [0, 1, 0, 2]\nclass = other", fillcolor="#eb9cf2"] ;
462 -> 470 ;
471 [label="gini = 0.0\nsamples = 2\nvalue = [0, 0, 0, 2]\nclass = other", fillcolor="#d739e5"] ;
470 -> 471 ;
472 [label="gini = 0.0\nsamples = 1\nvalue = [0, 1, 0, 0]\nclass = detached", fillcolor="#47e539"] ;
470 -> 472 ;
473 [label="xy_price_cum_sum <= 332452.25\ngini = 0.072\nsamples = 134\nvalue = [0, 5, 0, 129]\nclass = other", fillcolor="#d941e6"] ;
459 -> 473 ;
474 [label="xy_price_cum_sum <= 317644.719\ngini = 0.401\nsamples = 18\nvalue = [0, 5, 0, 13]\nclass = other", fillcolor="#e685ef"] ;
473 -> 474 ;
475 [label="gini = 0.0\nsamples = 11\nvalue = [0, 0, 0, 11]\nclass = other", fillcolor="#d739e5"] ;
474 -> 475 ;
476 [label="Walk <= 5.0\ngini = 0.408\nsamples = 7\nvalue = [0, 5, 0, 2]\nclass = detached", fillcolor="#91ef88"] ;
474 -> 476 ;
477 [label="gini = 0.0\nsamples = 1\nvalue = [0, 0, 0, 1]\nclass = other", fillcolor="#d739e5"] ;
476 -> 477 ;
478 [label="med_price_xy <= 323393.812\ngini = 0.278\nsamples = 6\nvalue = [0, 5, 0, 1]\nclass = detached", fillcolor="#6cea61"] ;
476 -> 478 ;
479 [label="xy_price_cum_sum <= 320686.484\ngini = 0.5\nsamples = 2\nvalue = [0, 1, 0, 1]\nclass = detached", fillcolor="#ffffff"] ;
478 -> 479 ;
480 [label="gini = 0.0\nsamples = 1\nvalue = [0, 1, 0, 0]\nclass = detached", fillcolor="#47e539"] ;
479 -> 480 ;
481 [label="gini = 0.0\nsamples = 1\nvalue = [0, 0, 0, 1]\nclass = other", fillcolor="#d739e5"] ;
479 -> 481 ;
482 [label="gini = 0.0\nsamples = 4\nvalue = [0, 4, 0, 0]\nclass = detached", fillcolor="#47e539"] ;
478 -> 482 ;
483 [label="gini = 0.0\nsamples = 116\nvalue = [0, 0, 0, 116]\nclass = other", fillcolor="#d739e5"] ;
473 -> 483 ;
484 [label="Jobs <= 435.5\ngini = 0.491\nsamples = 30\nvalue = [0, 17, 0, 13]\nclass = detached", fillcolor="#d4f9d0"] ;
458 -> 484 ;
485 [label="PopDens <= 89.149\ngini = 0.305\nsamples = 16\nvalue = [0, 13, 0, 3]\nclass = detached", fillcolor="#71eb67"] ;
484 -> 485 ;
486 [label="xy_price_cum_sum <= 822286.656\ngini = 0.444\nsamples = 3\nvalue = [0, 1, 0, 2]\nclass = other", fillcolor="#eb9cf2"] ;
485 -> 486 ;
487 [label="gini = 0.0\nsamples = 1\nvalue = [0, 1, 0, 0]\nclass = detached", fillcolor="#47e539"] ;
486 -> 487 ;
488 [label="gini = 0.0\nsamples = 2\nvalue = [0, 0, 0, 2]\nclass = other", fillcolor="#d739e5"] ;
486 -> 488 ;
489 [label="xy_price_cum_sum <= 1053737.25\ngini = 0.142\nsamples = 13\nvalue = [0, 12, 0, 1]\nclass = detached", fillcolor="#56e749"] ;
485 -> 489 ;
490 [label="gini = 0.0\nsamples = 7\nvalue = [0, 7, 0, 0]\nclass = detached", fillcolor="#47e539"] ;
489 -> 490 ;
491 [label="Cars <= 1387.0\ngini = 0.278\nsamples = 6\nvalue = [0, 5, 0, 1]\nclass = detached", fillcolor="#6cea61"] ;
489 -> 491 ;
492 [label="gini = 0.0\nsamples = 4\nvalue = [0, 4, 0, 0]\nclass = detached", fillcolor="#47e539"] ;
491 -> 492 ;
493 [label="gini = 0.5\nsamples = 2\nvalue = [0, 1, 0, 1]\nclass = detached", fillcolor="#ffffff"] ;
491 -> 493 ;
494 [label="PT <= 54.5\ngini = 0.408\nsamples = 14\nvalue = [0, 4, 0, 10]\nclass = other", fillcolor="#e788ef"] ;
484 -> 494 ;
495 [label="med_price_xy <= 703534.5\ngini = 0.278\nsamples = 12\nvalue = [0, 2, 0, 10]\nclass = other", fillcolor="#df61ea"] ;
494 -> 495 ;
496 [label="gini = 0.0\nsamples = 1\nvalue = [0, 1, 0, 0]\nclass = detached", fillcolor="#47e539"] ;
495 -> 496 ;
497 [label="med_price_xy <= 839103.781\ngini = 0.165\nsamples = 11\nvalue = [0, 1, 0, 10]\nclass = other", fillcolor="#db4de8"] ;
495 -> 497 ;
498 [label="med_price_xy <= 817368.75\ngini = 0.444\nsamples = 3\nvalue = [0, 1, 0, 2]\nclass = other", fillcolor="#eb9cf2"] ;
497 -> 498 ;
499 [label="gini = 0.0\nsamples = 2\nvalue = [0, 0, 0, 2]\nclass = other", fillcolor="#d739e5"] ;
498 -> 499 ;
500 [label="gini = 0.0\nsamples = 1\nvalue = [0, 1, 0, 0]\nclass = detached", fillcolor="#47e539"] ;
498 -> 500 ;
501 [label="gini = 0.0\nsamples = 8\nvalue = [0, 0, 0, 8]\nclass = other", fillcolor="#d739e5"] ;
497 -> 501 ;
502 [label="gini = 0.0\nsamples = 2\nvalue = [0, 2, 0, 0]\nclass = detached", fillcolor="#47e539"] ;
494 -> 502 ;
503 [label="xy_price_cum_sum <= 183143.25\ngini = 0.274\nsamples = 93\nvalue = [0, 78, 1, 14]\nclass = detached", fillcolor="#6aea5f"] ;
429 -> 503 ;
504 [label="Dwel <= 337.0\ngini = 0.245\nsamples = 7\nvalue = [0, 1, 0, 6]\nclass = other", fillcolor="#de5ae9"] ;
503 -> 504 ;
505 [label="gini = 0.0\nsamples = 6\nvalue = [0, 0, 0, 6]\nclass = other", fillcolor="#d739e5"] ;
504 -> 505 ;
506 [label="gini = 0.0\nsamples = 1\nvalue = [0, 1, 0, 0]\nclass = detached", fillcolor="#47e539"] ;
504 -> 506 ;
507 [label="Jobs <= 2914.5\ngini = 0.19\nsamples = 86\nvalue = [0, 77, 1, 8]\nclass = detached", fillcolor="#5ce850"] ;
503 -> 507 ;
508 [label="Avg_rent <= 1522.0\ngini = 0.116\nsamples = 82\nvalue = [0, 77, 1, 4]\nclass = detached", fillcolor="#53e746"] ;
507 -> 508 ;
509 [label="xy_years_to_next_sale <= 0.929\ngini = 0.094\nsamples = 81\nvalue = [0, 77, 0, 4]\nclass = detached", fillcolor="#51e643"] ;
508 -> 509 ;
510 [label="gini = 0.0\nsamples = 1\nvalue = [0, 0, 0, 1]\nclass = other", fillcolor="#d739e5"] ;
509 -> 510 ;
511 [label="Avg_HHsize <= 3.364\ngini = 0.072\nsamples = 80\nvalue = [0, 77, 0, 3]\nclass = detached", fillcolor="#4ee641"] ;
509 -> 511 ;
512 [label="med_price_xy <= 254759.688\ngini = 0.049\nsamples = 79\nvalue = [0, 77, 0, 2]\nclass = detached", fillcolor="#4ce63e"] ;
511 -> 512 ;
513 [label="Cars <= 6092.5\ngini = 0.346\nsamples = 9\nvalue = [0, 7, 0, 2]\nclass = detached", fillcolor="#7cec72"] ;
512 -> 513 ;
514 [label="gini = 0.0\nsamples = 7\nvalue = [0, 7, 0, 0]\nclass = detached", fillcolor="#47e539"] ;
513 -> 514 ;
515 [label="gini = 0.0\nsamples = 2\nvalue = [0, 0, 0, 2]\nclass = other", fillcolor="#d739e5"] ;
513 -> 515 ;
516 [label="gini = 0.0\nsamples = 70\nvalue = [0, 70, 0, 0]\nclass = detached", fillcolor="#47e539"] ;
512 -> 516 ;
517 [label="gini = 0.0\nsamples = 1\nvalue = [0, 0, 0, 1]\nclass = other", fillcolor="#d739e5"] ;
511 -> 517 ;
518 [label="gini = 0.0\nsamples = 1\nvalue = [0, 0, 1, 0]\nclass = duplex_townhouse", fillcolor="#399de5"] ;
508 -> 518 ;
519 [label="gini = 0.0\nsamples = 4\nvalue = [0, 0, 0, 4]\nclass = other", fillcolor="#d739e5"] ;
507 -> 519 ;
520 [label="PopDens <= 2420.928\ngini = 0.481\nsamples = 1327\nvalue = [3, 826, 17, 481]\nclass = detached", fillcolor="#b4f4ae"] ;
4 -> 520 ;
521 [label="Cars <= 9048.5\ngini = 0.375\nsamples = 926\nvalue = [3, 701, 12, 210]\nclass = detached", fillcolor="#81ed77"] ;
520 -> 521 ;
522 [label="xy_price_cum_sum <= 3264727.5\ngini = 0.348\nsamples = 891\nvalue = [3, 697, 12, 179]\nclass = detached", fillcolor="#79ec6f"] ;
521 -> 522 ;
523 [label="Sgl_att <= 12.0\ngini = 0.324\nsamples = 869\nvalue = [3, 697, 12, 157]\nclass = detached", fillcolor="#73eb69"] ;
522 -> 523 ;
524 [label="Dwel <= 292.5\ngini = 0.116\nsamples = 325\nvalue = [0, 305, 1, 19]\nclass = detached", fillcolor="#53e746"] ;
523 -> 524 ;
525 [label="xy_price_cum_sum <= 22826.55\ngini = 0.101\nsamples = 319\nvalue = [0, 302, 1, 16]\nclass = detached", fillcolor="#51e644"] ;
524 -> 525 ;
526 [label="gini = 0.0\nsamples = 1\nvalue = [0, 0, 0, 1]\nclass = other", fillcolor="#d739e5"] ;
525 -> 526 ;
527 [label="Sgl_det <= 109.5\ngini = 0.096\nsamples = 318\nvalue = [0, 302, 1, 15]\nclass = detached", fillcolor="#51e643"] ;
525 -> 527 ;
528 [label="xy_years_to_next_sale <= 3.537\ngini = 0.381\nsamples = 25\nvalue = [0, 19, 1, 5]\nclass = detached", fillcolor="#7eed74"] ;
527 -> 528 ;
529 [label="xy_years_to_next_sale <= 0.911\ngini = 0.469\nsamples = 8\nvalue = [0, 3, 0, 5]\nclass = other", fillcolor="#efb0f5"] ;
528 -> 529 ;
530 [label="gini = 0.0\nsamples = 3\nvalue = [0, 3, 0, 0]\nclass = detached", fillcolor="#47e539"] ;
529 -> 530 ;
531 [label="gini = 0.0\nsamples = 5\nvalue = [0, 0, 0, 5]\nclass = other", fillcolor="#d739e5"] ;
529 -> 531 ;
532 [label="Cars <= 2138.0\ngini = 0.111\nsamples = 17\nvalue = [0, 16, 1, 0]\nclass = detached", fillcolor="#52e745"] ;
528 -> 532 ;
533 [label="Avg_rent <= 224.333\ngini = 0.5\nsamples = 2\nvalue = [0, 1, 1, 0]\nclass = detached", fillcolor="#ffffff"] ;
532 -> 533 ;
534 [label="gini = 0.0\nsamples = 1\nvalue = [0, 0, 1, 0]\nclass = duplex_townhouse", fillcolor="#399de5"] ;
533 -> 534 ;
535 [label="gini = 0.0\nsamples = 1\nvalue = [0, 1, 0, 0]\nclass = detached", fillcolor="#47e539"] ;
533 -> 535 ;
536 [label="gini = 0.0\nsamples = 15\nvalue = [0, 15, 0, 0]\nclass = detached", fillcolor="#47e539"] ;
532 -> 536 ;
537 [label="Cars <= 6823.5\ngini = 0.066\nsamples = 293\nvalue = [0, 283, 0, 10]\nclass = detached", fillcolor="#4ee640"] ;
527 -> 537 ;
538 [label="Avg_rent <= 812.2\ngini = 0.06\nsamples = 290\nvalue = [0, 281, 0, 9]\nclass = detached", fillcolor="#4de63f"] ;
537 -> 538 ;
539 [label="Avg_HHsize <= 2.333\ngini = 0.044\nsamples = 268\nvalue = [0, 262, 0, 6]\nclass = detached", fillcolor="#4be63e"] ;
538 -> 539 ;
540 [label="med_price_xy <= 212470.516\ngini = 0.375\nsamples = 4\nvalue = [0, 3, 0, 1]\nclass = detached", fillcolor="#84ee7b"] ;
539 -> 540 ;
541 [label="gini = 0.0\nsamples = 2\nvalue = [0, 2, 0, 0]\nclass = detached", fillcolor="#47e539"] ;
540 -> 541 ;
542 [label="gini = 0.5\nsamples = 2\nvalue = [0, 1, 0, 1]\nclass = detached", fillcolor="#ffffff"] ;
540 -> 542 ;
543 [label="xy_price_cum_sum <= 814854.75\ngini = 0.037\nsamples = 264\nvalue = [0, 259, 0, 5]\nclass = detached", fillcolor="#4be63d"] ;
539 -> 543 ;
544 [label="gini = 0.011\nsamples = 185\nvalue = [0, 184, 0, 1]\nclass = detached", fillcolor="#48e53a"] ;
543 -> 544 ;
545 [label="gini = 0.096\nsamples = 79\nvalue = [0, 75, 0, 4]\nclass = detached", fillcolor="#51e644"] ;
543 -> 545 ;
546 [label="Avg_rent <= 1042.75\ngini = 0.236\nsamples = 22\nvalue = [0, 19, 0, 3]\nclass = detached", fillcolor="#64e958"] ;
538 -> 546 ;
547 [label="med_price_xy <= 650004.062\ngini = 0.469\nsamples = 8\nvalue = [0, 5, 0, 3]\nclass = detached", fillcolor="#b5f5b0"] ;
546 -> 547 ;
548 [label="gini = 0.278\nsamples = 6\nvalue = [0, 5, 0, 1]\nclass = detached", fillcolor="#6cea61"] ;
547 -> 548 ;
549 [label="gini = 0.0\nsamples = 2\nvalue = [0, 0, 0, 2]\nclass = other", fillcolor="#d739e5"] ;
547 -> 549 ;
550 [label="gini = 0.0\nsamples = 14\nvalue = [0, 14, 0, 0]\nclass = detached", fillcolor="#47e539"] ;
546 -> 550 ;
551 [label="med_price_xy <= 1648137.5\ngini = 0.444\nsamples = 3\nvalue = [0, 2, 0, 1]\nclass = detached", fillcolor="#a3f29c"] ;
537 -> 551 ;
552 [label="gini = 0.0\nsamples = 2\nvalue = [0, 2, 0, 0]\nclass = detached", fillcolor="#47e539"] ;
551 -> 552 ;
553 [label="gini = 0.0\nsamples = 1\nvalue = [0, 0, 0, 1]\nclass = other", fillcolor="#d739e5"] ;
551 -> 553 ;
554 [label="xy_years_to_next_sale <= 4.575\ngini = 0.5\nsamples = 6\nvalue = [0, 3, 0, 3]\nclass = detached", fillcolor="#ffffff"] ;
524 -> 554 ;
555 [label="gini = 0.0\nsamples = 3\nvalue = [0, 0, 0, 3]\nclass = other", fillcolor="#d739e5"] ;
554 -> 555 ;
556 [label="gini = 0.0\nsamples = 3\nvalue = [0, 3, 0, 0]\nclass = detached", fillcolor="#47e539"] ;
554 -> 556 ;
557 [label="Avg_HHsize <= 3.008\ngini = 0.416\nsamples = 544\nvalue = [3, 392, 11, 138]\nclass = detached", fillcolor="#8cef83"] ;
523 -> 557 ;
558 [label="Sgl_det <= 72.0\ngini = 0.309\nsamples = 340\nvalue = [2, 278, 10, 50]\nclass = detached", fillcolor="#6eeb63"] ;
557 -> 558 ;
559 [label="Sgl_att <= 201.0\ngini = 0.628\nsamples = 29\nvalue = [0, 9, 6, 14]\nclass = other", fillcolor="#f5cef8"] ;
558 -> 559 ;
560 [label="PopDens <= 1567.672\ngini = 0.476\nsamples = 23\nvalue = [0, 9, 0, 14]\nclass = other", fillcolor="#f1b8f6"] ;
559 -> 560 ;
561 [label="xy_years_to_next_sale <= 2.449\ngini = 0.231\nsamples = 15\nvalue = [0, 2, 0, 13]\nclass = other", fillcolor="#dd57e9"] ;
560 -> 561 ;
562 [label="Cars <= 3466.0\ngini = 0.444\nsamples = 3\nvalue = [0, 2, 0, 1]\nclass = detached", fillcolor="#a3f29c"] ;
561 -> 562 ;
563 [label="gini = 0.0\nsamples = 2\nvalue = [0, 2, 0, 0]\nclass = detached", fillcolor="#47e539"] ;
562 -> 563 ;
564 [label="gini = 0.0\nsamples = 1\nvalue = [0, 0, 0, 1]\nclass = other", fillcolor="#d739e5"] ;
562 -> 564 ;
565 [label="gini = 0.0\nsamples = 12\nvalue = [0, 0, 0, 12]\nclass = other", fillcolor="#d739e5"] ;
561 -> 565 ;
566 [label="Jobs <= 605.0\ngini = 0.219\nsamples = 8\nvalue = [0, 7, 0, 1]\nclass = detached", fillcolor="#61e955"] ;
560 -> 566 ;
567 [label="gini = 0.0\nsamples = 1\nvalue = [0, 0, 0, 1]\nclass = other", fillcolor="#d739e5"] ;
566 -> 567 ;
568 [label="gini = 0.0\nsamples = 7\nvalue = [0, 7, 0, 0]\nclass = detached", fillcolor="#47e539"] ;
566 -> 568 ;
569 [label="gini = 0.0\nsamples = 6\nvalue = [0, 0, 6, 0]\nclass = duplex_townhouse", fillcolor="#399de5"] ;
559 -> 569 ;
570 [label="med_price_xy <= 1373730.0\ngini = 0.238\nsamples = 311\nvalue = [2, 269, 4, 36]\nclass = detached", fillcolor="#63e957"] ;
558 -> 570 ;
571 [label="xy_price_cum_sum <= 96746.352\ngini = 0.197\nsamples = 293\nvalue = [0, 261, 4, 28]\nclass = detached", fillcolor="#5de851"] ;
570 -> 571 ;
572 [label="PopDens <= 2046.138\ngini = 0.58\nsamples = 10\nvalue = [0, 5, 1, 4]\nclass = detached", fillcolor="#e0fbde"] ;
571 -> 572 ;
573 [label="DwelDens <= 580.06\ngini = 0.571\nsamples = 7\nvalue = [0, 2, 1, 4]\nclass = other", fillcolor="#efb0f5"] ;
572 -> 573 ;
574 [label="Avg_rent <= 1097.333\ngini = 0.444\nsamples = 3\nvalue = [0, 2, 1, 0]\nclass = detached", fillcolor="#a3f29c"] ;
573 -> 574 ;
575 [label="gini = 0.0\nsamples = 2\nvalue = [0, 2, 0, 0]\nclass = detached", fillcolor="#47e539"] ;
574 -> 575 ;
576 [label="gini = 0.0\nsamples = 1\nvalue = [0, 0, 1, 0]\nclass = duplex_townhouse", fillcolor="#399de5"] ;
574 -> 576 ;
577 [label="gini = 0.0\nsamples = 4\nvalue = [0, 0, 0, 4]\nclass = other", fillcolor="#d739e5"] ;
573 -> 577 ;
578 [label="gini = 0.0\nsamples = 3\nvalue = [0, 3, 0, 0]\nclass = detached", fillcolor="#47e539"] ;
572 -> 578 ;
579 [label="Cars <= 924.0\ngini = 0.174\nsamples = 283\nvalue = [0, 256, 3, 24]\nclass = detached", fillcolor="#5ae84e"] ;
571 -> 579 ;
580 [label="xy_price_cum_sum <= 212870.852\ngini = 0.5\nsamples = 8\nvalue = [0, 4, 0, 4]\nclass = detached", fillcolor="#ffffff"] ;
579 -> 580 ;
581 [label="gini = 0.0\nsamples = 2\nvalue = [0, 0, 0, 2]\nclass = other", fillcolor="#d739e5"] ;
580 -> 581 ;
582 [label="med_price_xy <= 424763.625\ngini = 0.444\nsamples = 6\nvalue = [0, 4, 0, 2]\nclass = detached", fillcolor="#a3f29c"] ;
580 -> 582 ;
583 [label="gini = 0.0\nsamples = 3\nvalue = [0, 3, 0, 0]\nclass = detached", fillcolor="#47e539"] ;
582 -> 583 ;
584 [label="gini = 0.444\nsamples = 3\nvalue = [0, 1, 0, 2]\nclass = other", fillcolor="#eb9cf2"] ;
582 -> 584 ;
585 [label="Cars <= 8588.0\ngini = 0.155\nsamples = 275\nvalue = [0, 252, 3, 20]\nclass = detached", fillcolor="#58e74b"] ;
579 -> 585 ;
586 [label="DwelDens <= 563.069\ngini = 0.149\nsamples = 274\nvalue = [0, 252, 2, 20]\nclass = detached", fillcolor="#57e74a"] ;
585 -> 586 ;
587 [label="gini = 0.332\nsamples = 49\nvalue = [0, 39, 1, 9]\nclass = detached", fillcolor="#75ec6a"] ;
586 -> 587 ;
588 [label="gini = 0.101\nsamples = 225\nvalue = [0, 213, 1, 11]\nclass = detached", fillcolor="#51e644"] ;
586 -> 588 ;
589 [label="gini = 0.0\nsamples = 1\nvalue = [0, 0, 1, 0]\nclass = duplex_townhouse", fillcolor="#399de5"] ;
585 -> 589 ;
590 [label="PT <= 7.5\ngini = 0.593\nsamples = 18\nvalue = [2, 8, 0, 8]\nclass = detached", fillcolor="#ffffff"] ;
570 -> 590 ;
591 [label="gini = 0.0\nsamples = 2\nvalue = [2, 0, 0, 0]\nclass = condo", fillcolor="#e58139"] ;
590 -> 591 ;
592 [label="Dwel <= 197.5\ngini = 0.5\nsamples = 16\nvalue = [0, 8, 0, 8]\nclass = detached", fillcolor="#ffffff"] ;
590 -> 592 ;
593 [label="gini = 0.0\nsamples = 4\nvalue = [0, 0, 0, 4]\nclass = other", fillcolor="#d739e5"] ;
592 -> 593 ;
594 [label="PopDens <= 1574.531\ngini = 0.444\nsamples = 12\nvalue = [0, 8, 0, 4]\nclass = detached", fillcolor="#a3f29c"] ;
592 -> 594 ;
595 [label="gini = 0.0\nsamples = 5\nvalue = [0, 5, 0, 0]\nclass = detached", fillcolor="#47e539"] ;
594 -> 595 ;
596 [label="xy_price_cum_sum <= 1888498.875\ngini = 0.49\nsamples = 7\nvalue = [0, 3, 0, 4]\nclass = other", fillcolor="#f5cef8"] ;
594 -> 596 ;
597 [label="gini = 0.32\nsamples = 5\nvalue = [0, 1, 0, 4]\nclass = other", fillcolor="#e16aec"] ;
596 -> 597 ;
598 [label="gini = 0.0\nsamples = 2\nvalue = [0, 2, 0, 0]\nclass = detached", fillcolor="#47e539"] ;
596 -> 598 ;
599 [label="Avg_HHsize <= 3.027\ngini = 0.502\nsamples = 204\nvalue = [1, 114, 1, 88]\nclass = detached", fillcolor="#d6f9d3"] ;
557 -> 599 ;
600 [label="Jobs <= 1886.0\ngini = 0.124\nsamples = 30\nvalue = [0, 2, 0, 28]\nclass = other", fillcolor="#da47e7"] ;
599 -> 600 ;
601 [label="med_price_xy <= 1039184.562\ngini = 0.067\nsamples = 29\nvalue = [0, 1, 0, 28]\nclass = other", fillcolor="#d840e6"] ;
600 -> 601 ;
602 [label="Cars <= 3113.5\ngini = 0.142\nsamples = 13\nvalue = [0, 1, 0, 12]\nclass = other", fillcolor="#da49e7"] ;
601 -> 602 ;
603 [label="gini = 0.0\nsamples = 1\nvalue = [0, 1, 0, 0]\nclass = detached", fillcolor="#47e539"] ;
602 -> 603 ;
604 [label="gini = 0.0\nsamples = 12\nvalue = [0, 0, 0, 12]\nclass = other", fillcolor="#d739e5"] ;
602 -> 604 ;
605 [label="gini = 0.0\nsamples = 16\nvalue = [0, 0, 0, 16]\nclass = other", fillcolor="#d739e5"] ;
601 -> 605 ;
606 [label="gini = 0.0\nsamples = 1\nvalue = [0, 1, 0, 0]\nclass = detached", fillcolor="#47e539"] ;
600 -> 606 ;
607 [label="Cars <= 2221.0\ngini = 0.467\nsamples = 174\nvalue = [1, 112, 1, 60]\nclass = detached", fillcolor="#abf3a5"] ;
599 -> 607 ;
608 [label="Sgl_att <= 24.5\ngini = 0.495\nsamples = 84\nvalue = [0, 38, 0, 46]\nclass = other", fillcolor="#f8ddfa"] ;
607 -> 608 ;
609 [label="med_price_xy <= 1494342.75\ngini = 0.185\nsamples = 29\nvalue = [0, 3, 0, 26]\nclass = other", fillcolor="#dc50e8"] ;
608 -> 609 ;
610 [label="xy_price_cum_sum <= 1032714.0\ngini = 0.071\nsamples = 27\nvalue = [0, 1, 0, 26]\nclass = other", fillcolor="#d941e6"] ;
609 -> 610 ;
611 [label="gini = 0.0\nsamples = 23\nvalue = [0, 0, 0, 23]\nclass = other", fillcolor="#d739e5"] ;
610 -> 611 ;
612 [label="xy_price_cum_sum <= 1071201.125\ngini = 0.375\nsamples = 4\nvalue = [0, 1, 0, 3]\nclass = other", fillcolor="#e47bee"] ;
610 -> 612 ;
613 [label="gini = 0.0\nsamples = 1\nvalue = [0, 1, 0, 0]\nclass = detached", fillcolor="#47e539"] ;
612 -> 613 ;
614 [label="gini = 0.0\nsamples = 3\nvalue = [0, 0, 0, 3]\nclass = other", fillcolor="#d739e5"] ;
612 -> 614 ;
615 [label="gini = 0.0\nsamples = 2\nvalue = [0, 2, 0, 0]\nclass = detached", fillcolor="#47e539"] ;
609 -> 615 ;
616 [label="xy_price_cum_sum <= 162970.953\ngini = 0.463\nsamples = 55\nvalue = [0, 35, 0, 20]\nclass = detached", fillcolor="#b0f4aa"] ;
608 -> 616 ;
617 [label="med_price_xy <= 288552.672\ngini = 0.498\nsamples = 34\nvalue = [0, 16, 0, 18]\nclass = other", fillcolor="#fbe9fc"] ;
616 -> 617 ;
618 [label="med_price_xy <= 285005.453\ngini = 0.444\nsamples = 12\nvalue = [0, 8, 0, 4]\nclass = detached", fillcolor="#a3f29c"] ;
617 -> 618 ;
619 [label="gini = 0.5\nsamples = 8\nvalue = [0, 4, 0, 4]\nclass = detached", fillcolor="#ffffff"] ;
618 -> 619 ;
620 [label="gini = 0.0\nsamples = 4\nvalue = [0, 4, 0, 0]\nclass = detached", fillcolor="#47e539"] ;
618 -> 620 ;
621 [label="xy_years_to_next_sale <= 0.716\ngini = 0.463\nsamples = 22\nvalue = [0, 8, 0, 14]\nclass = other", fillcolor="#eeaaf4"] ;
617 -> 621 ;
622 [label="gini = 0.219\nsamples = 8\nvalue = [0, 1, 0, 7]\nclass = other", fillcolor="#dd55e9"] ;
621 -> 622 ;
623 [label="gini = 0.5\nsamples = 14\nvalue = [0, 7, 0, 7]\nclass = detached", fillcolor="#ffffff"] ;
621 -> 623 ;
624 [label="DwelDens <= 505.858\ngini = 0.172\nsamples = 21\nvalue = [0, 19, 0, 2]\nclass = detached", fillcolor="#5ae84e"] ;
616 -> 624 ;
625 [label="gini = 0.0\nsamples = 2\nvalue = [0, 0, 0, 2]\nclass = other", fillcolor="#d739e5"] ;
624 -> 625 ;
626 [label="gini = 0.0\nsamples = 19\nvalue = [0, 19, 0, 0]\nclass = detached", fillcolor="#47e539"] ;
624 -> 626 ;
627 [label="xy_price_cum_sum <= 1292619.75\ngini = 0.3\nsamples = 90\nvalue = [1, 74, 1, 14]\nclass = detached", fillcolor="#6eea63"] ;
607 -> 627 ;
628 [label="med_price_xy <= 355877.375\ngini = 0.215\nsamples = 83\nvalue = [0, 73, 1, 9]\nclass = detached", fillcolor="#60e954"] ;
627 -> 628 ;
629 [label="Dwel <= 222.0\ngini = 0.5\nsamples = 2\nvalue = [0, 0, 1, 1]\nclass = duplex_townhouse", fillcolor="#ffffff"] ;
628 -> 629 ;
630 [label="gini = 0.0\nsamples = 1\nvalue = [0, 0, 0, 1]\nclass = other", fillcolor="#d739e5"] ;
629 -> 630 ;
631 [label="gini = 0.0\nsamples = 1\nvalue = [0, 0, 1, 0]\nclass = duplex_townhouse", fillcolor="#399de5"] ;
629 -> 631 ;
632 [label="med_price_xy <= 933810.969\ngini = 0.178\nsamples = 81\nvalue = [0, 73, 0, 8]\nclass = detached", fillcolor="#5be84f"] ;
628 -> 632 ;
633 [label="xy_years_to_next_sale <= 1.267\ngini = 0.062\nsamples = 62\nvalue = [0, 60, 0, 2]\nclass = detached", fillcolor="#4de640"] ;
632 -> 633 ;
634 [label="gini = 0.375\nsamples = 8\nvalue = [0, 6, 0, 2]\nclass = detached", fillcolor="#84ee7b"] ;
633 -> 634 ;
635 [label="gini = 0.0\nsamples = 54\nvalue = [0, 54, 0, 0]\nclass = detached", fillcolor="#47e539"] ;
633 -> 635 ;
636 [label="Jobs <= 1905.0\ngini = 0.432\nsamples = 19\nvalue = [0, 13, 0, 6]\nclass = detached", fillcolor="#9cf194"] ;
632 -> 636 ;
637 [label="gini = 0.165\nsamples = 11\nvalue = [0, 10, 0, 1]\nclass = detached", fillcolor="#59e84d"] ;
636 -> 637 ;
638 [label="gini = 0.469\nsamples = 8\nvalue = [0, 3, 0, 5]\nclass = other", fillcolor="#efb0f5"] ;
636 -> 638 ;
639 [label="DwelDens <= 622.229\ngini = 0.449\nsamples = 7\nvalue = [1, 1, 0, 5]\nclass = other", fillcolor="#e47bee"] ;
627 -> 639 ;
640 [label="gini = 0.0\nsamples = 5\nvalue = [0, 0, 0, 5]\nclass = other", fillcolor="#d739e5"] ;
639 -> 640 ;
641 [label="Jobs <= 995.0\ngini = 0.5\nsamples = 2\nvalue = [1, 1, 0, 0]\nclass = condo", fillcolor="#ffffff"] ;
639 -> 641 ;
642 [label="gini = 0.0\nsamples = 1\nvalue = [0, 1, 0, 0]\nclass = detached", fillcolor="#47e539"] ;
641 -> 642 ;
643 [label="gini = 0.0\nsamples = 1\nvalue = [1, 0, 0, 0]\nclass = condo", fillcolor="#e58139"] ;
641 -> 643 ;
644 [label="gini = 0.0\nsamples = 22\nvalue = [0, 0, 0, 22]\nclass = other", fillcolor="#d739e5"] ;
522 -> 644 ;
645 [label="Cars <= 9140.5\ngini = 0.202\nsamples = 35\nvalue = [0, 4, 0, 31]\nclass = other", fillcolor="#dc53e8"] ;
521 -> 645 ;
646 [label="xy_price_cum_sum <= 403336.641\ngini = 0.061\nsamples = 32\nvalue = [0, 1, 0, 31]\nclass = other", fillcolor="#d83fe6"] ;
645 -> 646 ;
647 [label="gini = 0.0\nsamples = 24\nvalue = [0, 0, 0, 24]\nclass = other", fillcolor="#d739e5"] ;
646 -> 647 ;
648 [label="Sgl_det <= 183.5\ngini = 0.219\nsamples = 8\nvalue = [0, 1, 0, 7]\nclass = other", fillcolor="#dd55e9"] ;
646 -> 648 ;
649 [label="gini = 0.0\nsamples = 1\nvalue = [0, 1, 0, 0]\nclass = detached", fillcolor="#47e539"] ;
648 -> 649 ;
650 [label="gini = 0.0\nsamples = 7\nvalue = [0, 0, 0, 7]\nclass = other", fillcolor="#d739e5"] ;
648 -> 650 ;
651 [label="gini = 0.0\nsamples = 3\nvalue = [0, 3, 0, 0]\nclass = detached", fillcolor="#47e539"] ;
645 -> 651 ;
652 [label="Dwel <= 185.5\ngini = 0.446\nsamples = 401\nvalue = [0, 125, 5, 271]\nclass = other", fillcolor="#ea96f1"] ;
520 -> 652 ;
653 [label="med_price_xy <= 358969.875\ngini = 0.259\nsamples = 61\nvalue = [0, 52, 2, 7]\nclass = detached", fillcolor="#66e95a"] ;
652 -> 653 ;
654 [label="Cars <= 3694.5\ngini = 0.653\nsamples = 7\nvalue = [0, 2, 2, 3]\nclass = other", fillcolor="#f7d7fa"] ;
653 -> 654 ;
655 [label="xy_price_cum_sum <= 236228.25\ngini = 0.48\nsamples = 5\nvalue = [0, 0, 2, 3]\nclass = other", fillcolor="#f2bdf6"] ;
654 -> 655 ;
656 [label="gini = 0.0\nsamples = 3\nvalue = [0, 0, 0, 3]\nclass = other", fillcolor="#d739e5"] ;
655 -> 656 ;
657 [label="gini = 0.0\nsamples = 2\nvalue = [0, 0, 2, 0]\nclass = duplex_townhouse", fillcolor="#399de5"] ;
655 -> 657 ;
658 [label="gini = 0.0\nsamples = 2\nvalue = [0, 2, 0, 0]\nclass = detached", fillcolor="#47e539"] ;
654 -> 658 ;
659 [label="Dwel <= 84.5\ngini = 0.137\nsamples = 54\nvalue = [0, 50, 0, 4]\nclass = detached", fillcolor="#56e749"] ;
653 -> 659 ;
660 [label="PopDens <= 2766.122\ngini = 0.5\nsamples = 6\nvalue = [0, 3, 0, 3]\nclass = detached", fillcolor="#ffffff"] ;
659 -> 660 ;
661 [label="xy_total_sales <= 2.5\ngini = 0.375\nsamples = 4\nvalue = [0, 3, 0, 1]\nclass = detached", fillcolor="#84ee7b"] ;
660 -> 661 ;
662 [label="gini = 0.0\nsamples = 2\nvalue = [0, 2, 0, 0]\nclass = detached", fillcolor="#47e539"] ;
661 -> 662 ;
663 [label="gini = 0.5\nsamples = 2\nvalue = [0, 1, 0, 1]\nclass = detached", fillcolor="#ffffff"] ;
661 -> 663 ;
664 [label="gini = 0.0\nsamples = 2\nvalue = [0, 0, 0, 2]\nclass = other", fillcolor="#d739e5"] ;
660 -> 664 ;
665 [label="xy_price_cum_sum <= 2025192.75\ngini = 0.041\nsamples = 48\nvalue = [0, 47, 0, 1]\nclass = detached", fillcolor="#4be63d"] ;
659 -> 665 ;
666 [label="gini = 0.0\nsamples = 43\nvalue = [0, 43, 0, 0]\nclass = detached", fillcolor="#47e539"] ;
665 -> 666 ;
667 [label="xy_price_cum_sum <= 2226915.75\ngini = 0.32\nsamples = 5\nvalue = [0, 4, 0, 1]\nclass = detached", fillcolor="#75ec6a"] ;
665 -> 667 ;
668 [label="gini = 0.0\nsamples = 1\nvalue = [0, 0, 0, 1]\nclass = other", fillcolor="#d739e5"] ;
667 -> 668 ;
669 [label="gini = 0.0\nsamples = 4\nvalue = [0, 4, 0, 0]\nclass = detached", fillcolor="#47e539"] ;
667 -> 669 ;
670 [label="med_price_xy <= 694488.781\ngini = 0.351\nsamples = 340\nvalue = [0, 73, 3, 264]\nclass = other", fillcolor="#e271ec"] ;
652 -> 670 ;
671 [label="Avg_rent <= 1000.75\ngini = 0.215\nsamples = 265\nvalue = [0, 29, 3, 233]\nclass = other", fillcolor="#dc54e9"] ;
670 -> 671 ;
672 [label="Avg_HHsize <= 3.125\ngini = 0.154\nsamples = 252\nvalue = [0, 19, 2, 231]\nclass = other", fillcolor="#db4be7"] ;
671 -> 672 ;
673 [label="med_price_xy <= 575307.5\ngini = 0.32\nsamples = 10\nvalue = [0, 8, 0, 2]\nclass = detached", fillcolor="#75ec6a"] ;
672 -> 673 ;
674 [label="Avg_rent <= 627.167\ngini = 0.198\nsamples = 9\nvalue = [0, 8, 0, 1]\nclass = detached", fillcolor="#5ee852"] ;
673 -> 674 ;
675 [label="gini = 0.0\nsamples = 8\nvalue = [0, 8, 0, 0]\nclass = detached", fillcolor="#47e539"] ;
674 -> 675 ;
676 [label="gini = 0.0\nsamples = 1\nvalue = [0, 0, 0, 1]\nclass = other", fillcolor="#d739e5"] ;
674 -> 676 ;
677 [label="gini = 0.0\nsamples = 1\nvalue = [0, 0, 0, 1]\nclass = other", fillcolor="#d739e5"] ;
673 -> 677 ;
678 [label="Dwel <= 295.0\ngini = 0.102\nsamples = 242\nvalue = [0, 11, 2, 229]\nclass = other", fillcolor="#d944e6"] ;
672 -> 678 ;
679 [label="Jobs <= 378.5\ngini = 0.065\nsamples = 237\nvalue = [0, 8, 0, 229]\nclass = other", fillcolor="#d840e6"] ;
678 -> 679 ;
680 [label="gini = 0.0\nsamples = 2\nvalue = [0, 2, 0, 0]\nclass = detached", fillcolor="#47e539"] ;
679 -> 680 ;
681 [label="Jobs <= 2543.0\ngini = 0.05\nsamples = 235\nvalue = [0, 6, 0, 229]\nclass = other", fillcolor="#d83ee6"] ;
679 -> 681 ;
682 [label="med_price_xy <= 219346.477\ngini = 0.042\nsamples = 234\nvalue = [0, 5, 0, 229]\nclass = other", fillcolor="#d83de6"] ;
681 -> 682 ;
683 [label="PT <= 22.5\ngini = 0.208\nsamples = 17\nvalue = [0, 2, 0, 15]\nclass = other", fillcolor="#dc53e8"] ;
682 -> 683 ;
684 [label="gini = 0.0\nsamples = 15\nvalue = [0, 0, 0, 15]\nclass = other", fillcolor="#d739e5"] ;
683 -> 684 ;
685 [label="gini = 0.0\nsamples = 2\nvalue = [0, 2, 0, 0]\nclass = detached", fillcolor="#47e539"] ;
683 -> 685 ;
686 [label="DwelDens <= 778.41\ngini = 0.027\nsamples = 217\nvalue = [0, 3, 0, 214]\nclass = other", fillcolor="#d83ce5"] ;
682 -> 686 ;
687 [label="gini = 0.0\nsamples = 149\nvalue = [0, 0, 0, 149]\nclass = other", fillcolor="#d739e5"] ;
686 -> 687 ;
688 [label="Jobs <= 1488.5\ngini = 0.084\nsamples = 68\nvalue = [0, 3, 0, 65]\nclass = other", fillcolor="#d942e6"] ;
686 -> 688 ;
689 [label="gini = 0.0\nsamples = 2\nvalue = [0, 2, 0, 0]\nclass = detached", fillcolor="#47e539"] ;
688 -> 689 ;
690 [label="gini = 0.03\nsamples = 66\nvalue = [0, 1, 0, 65]\nclass = other", fillcolor="#d83ce5"] ;
688 -> 690 ;
691 [label="gini = 0.0\nsamples = 1\nvalue = [0, 1, 0, 0]\nclass = detached", fillcolor="#47e539"] ;
681 -> 691 ;
692 [label="Avg_HHsize <= 3.582\ngini = 0.48\nsamples = 5\nvalue = [0, 3, 2, 0]\nclass = detached", fillcolor="#c2f6bd"] ;
678 -> 692 ;
693 [label="gini = 0.0\nsamples = 3\nvalue = [0, 3, 0, 0]\nclass = detached", fillcolor="#47e539"] ;
692 -> 693 ;
694 [label="gini = 0.0\nsamples = 2\nvalue = [0, 0, 2, 0]\nclass = duplex_townhouse", fillcolor="#399de5"] ;
692 -> 694 ;
695 [label="xy_price_cum_sum <= 337089.75\ngini = 0.379\nsamples = 13\nvalue = [0, 10, 1, 2]\nclass = detached", fillcolor="#79ec6f"] ;
671 -> 695 ;
696 [label="xy_years_to_next_sale <= 0.9\ngini = 0.444\nsamples = 3\nvalue = [0, 0, 1, 2]\nclass = other", fillcolor="#eb9cf2"] ;
695 -> 696 ;
697 [label="gini = 0.0\nsamples = 1\nvalue = [0, 0, 1, 0]\nclass = duplex_townhouse", fillcolor="#399de5"] ;
696 -> 697 ;
698 [label="gini = 0.0\nsamples = 2\nvalue = [0, 0, 0, 2]\nclass = other", fillcolor="#d739e5"] ;
696 -> 698 ;
699 [label="gini = 0.0\nsamples = 10\nvalue = [0, 10, 0, 0]\nclass = detached", fillcolor="#47e539"] ;
695 -> 699 ;
700 [label="Sgl_att <= 42.5\ngini = 0.485\nsamples = 75\nvalue = [0, 44, 0, 31]\nclass = detached", fillcolor="#c9f7c4"] ;
670 -> 700 ;
701 [label="xy_price_cum_sum <= 640216.781\ngini = 0.366\nsamples = 54\nvalue = [0, 41, 0, 13]\nclass = detached", fillcolor="#81ed78"] ;
700 -> 701 ;
702 [label="med_price_xy <= 871164.281\ngini = 0.444\nsamples = 12\nvalue = [0, 4, 0, 8]\nclass = other", fillcolor="#eb9cf2"] ;
701 -> 702 ;
703 [label="gini = 0.0\nsamples = 7\nvalue = [0, 0, 0, 7]\nclass = other", fillcolor="#d739e5"] ;
702 -> 703 ;
704 [label="med_price_xy <= 1362327.562\ngini = 0.32\nsamples = 5\nvalue = [0, 4, 0, 1]\nclass = detached", fillcolor="#75ec6a"] ;
702 -> 704 ;
705 [label="gini = 0.0\nsamples = 4\nvalue = [0, 4, 0, 0]\nclass = detached", fillcolor="#47e539"] ;
704 -> 705 ;
706 [label="gini = 0.0\nsamples = 1\nvalue = [0, 0, 0, 1]\nclass = other", fillcolor="#d739e5"] ;
704 -> 706 ;
707 [label="Jobs <= 391.0\ngini = 0.21\nsamples = 42\nvalue = [0, 37, 0, 5]\nclass = detached", fillcolor="#60e954"] ;
701 -> 707 ;
708 [label="gini = 0.0\nsamples = 1\nvalue = [0, 0, 0, 1]\nclass = other", fillcolor="#d739e5"] ;
707 -> 708 ;
709 [label="Cars <= 7853.5\ngini = 0.176\nsamples = 41\nvalue = [0, 37, 0, 4]\nclass = detached", fillcolor="#5be84e"] ;
707 -> 709 ;
710 [label="xy_price_cum_sum <= 1425426.188\ngini = 0.139\nsamples = 40\nvalue = [0, 37, 0, 3]\nclass = detached", fillcolor="#56e749"] ;
709 -> 710 ;
711 [label="DwelDens <= 809.959\ngini = 0.057\nsamples = 34\nvalue = [0, 33, 0, 1]\nclass = detached", fillcolor="#4de63f"] ;
710 -> 711 ;
712 [label="gini = 0.0\nsamples = 31\nvalue = [0, 31, 0, 0]\nclass = detached", fillcolor="#47e539"] ;
711 -> 712 ;
713 [label="xy_price_cum_sum <= 934826.844\ngini = 0.444\nsamples = 3\nvalue = [0, 2, 0, 1]\nclass = detached", fillcolor="#a3f29c"] ;
711 -> 713 ;
714 [label="gini = 0.0\nsamples = 1\nvalue = [0, 0, 0, 1]\nclass = other", fillcolor="#d739e5"] ;
713 -> 714 ;
715 [label="gini = 0.0\nsamples = 2\nvalue = [0, 2, 0, 0]\nclass = detached", fillcolor="#47e539"] ;
713 -> 715 ;
716 [label="xy_years_to_next_sale <= 5.937\ngini = 0.444\nsamples = 6\nvalue = [0, 4, 0, 2]\nclass = detached", fillcolor="#a3f29c"] ;
710 -> 716 ;
717 [label="gini = 0.0\nsamples = 2\nvalue = [0, 0, 0, 2]\nclass = other", fillcolor="#d739e5"] ;
716 -> 717 ;
718 [label="gini = 0.0\nsamples = 4\nvalue = [0, 4, 0, 0]\nclass = detached", fillcolor="#47e539"] ;
716 -> 718 ;
719 [label="gini = 0.0\nsamples = 1\nvalue = [0, 0, 0, 1]\nclass = other", fillcolor="#d739e5"] ;
709 -> 719 ;
720 [label="med_price_xy <= 763248.875\ngini = 0.245\nsamples = 21\nvalue = [0, 3, 0, 18]\nclass = other", fillcolor="#de5ae9"] ;
700 -> 720 ;
721 [label="gini = 0.0\nsamples = 1\nvalue = [0, 1, 0, 0]\nclass = detached", fillcolor="#47e539"] ;
720 -> 721 ;
722 [label="med_price_xy <= 863251.812\ngini = 0.18\nsamples = 20\nvalue = [0, 2, 0, 18]\nclass = other", fillcolor="#db4fe8"] ;
720 -> 722 ;
723 [label="PopDens <= 2849.062\ngini = 0.444\nsamples = 3\nvalue = [0, 1, 0, 2]\nclass = other", fillcolor="#eb9cf2"] ;
722 -> 723 ;
724 [label="gini = 0.0\nsamples = 1\nvalue = [0, 1, 0, 0]\nclass = detached", fillcolor="#47e539"] ;
723 -> 724 ;
725 [label="gini = 0.0\nsamples = 2\nvalue = [0, 0, 0, 2]\nclass = other", fillcolor="#d739e5"] ;
723 -> 725 ;
726 [label="PopDens <= 2849.062\ngini = 0.111\nsamples = 17\nvalue = [0, 1, 0, 16]\nclass = other", fillcolor="#da45e7"] ;
722 -> 726 ;
727 [label="gini = 0.0\nsamples = 11\nvalue = [0, 0, 0, 11]\nclass = other", fillcolor="#d739e5"] ;
726 -> 727 ;
728 [label="xy_price_cum_sum <= 1010615.25\ngini = 0.278\nsamples = 6\nvalue = [0, 1, 0, 5]\nclass = other", fillcolor="#df61ea"] ;
726 -> 728 ;
729 [label="gini = 0.0\nsamples = 4\nvalue = [0, 0, 0, 4]\nclass = other", fillcolor="#d739e5"] ;
728 -> 729 ;
730 [label="gini = 0.5\nsamples = 2\nvalue = [0, 1, 0, 1]\nclass = detached", fillcolor="#ffffff"] ;
728 -> 730 ;
731 [label="Avg_HHsize <= 2.675\ngini = 0.09\nsamples = 8432\nvalue = [1, 369, 28, 8034]\nclass = other", fillcolor="#d943e6"] ;
3 -> 731 ;
732 [label="DwelDens <= 204.865\ngini = 0.46\nsamples = 221\nvalue = [1, 73, 2, 145]\nclass = other", fillcolor="#ec9ff2"] ;
731 -> 732 ;
733 [label="Avg_HHsize <= 2.581\ngini = 0.275\nsamples = 141\nvalue = [0, 22, 1, 118]\nclass = other", fillcolor="#df5fea"] ;
732 -> 733 ;
734 [label="Dwel <= 356.5\ngini = 0.155\nsamples = 119\nvalue = [0, 9, 1, 109]\nclass = other", fillcolor="#db4be7"] ;
733 -> 734 ;
735 [label="med_price_xy <= 225558.164\ngini = 0.375\nsamples = 4\nvalue = [0, 3, 1, 0]\nclass = detached", fillcolor="#84ee7b"] ;
734 -> 735 ;
736 [label="gini = 0.0\nsamples = 1\nvalue = [0, 0, 1, 0]\nclass = duplex_townhouse", fillcolor="#399de5"] ;
735 -> 736 ;
737 [label="gini = 0.0\nsamples = 3\nvalue = [0, 3, 0, 0]\nclass = detached", fillcolor="#47e539"] ;
735 -> 737 ;
738 [label="xy_price_cum_sum <= 186785.945\ngini = 0.099\nsamples = 115\nvalue = [0, 6, 0, 109]\nclass = other", fillcolor="#d944e6"] ;
734 -> 738 ;
739 [label="PT <= 137.5\ngini = 0.494\nsamples = 9\nvalue = [0, 5, 0, 4]\nclass = detached", fillcolor="#dafad7"] ;
738 -> 739 ;
740 [label="xy_price_cum_sum <= 101657.773\ngini = 0.278\nsamples = 6\nvalue = [0, 5, 0, 1]\nclass = detached", fillcolor="#6cea61"] ;
739 -> 740 ;
741 [label="xy_total_sales <= 2.0\ngini = 0.5\nsamples = 2\nvalue = [0, 1, 0, 1]\nclass = detached", fillcolor="#ffffff"] ;
740 -> 741 ;
742 [label="gini = 0.0\nsamples = 1\nvalue = [0, 1, 0, 0]\nclass = detached", fillcolor="#47e539"] ;
741 -> 742 ;
743 [label="gini = 0.0\nsamples = 1\nvalue = [0, 0, 0, 1]\nclass = other", fillcolor="#d739e5"] ;
741 -> 743 ;
744 [label="gini = 0.0\nsamples = 4\nvalue = [0, 4, 0, 0]\nclass = detached", fillcolor="#47e539"] ;
740 -> 744 ;
745 [label="gini = 0.0\nsamples = 3\nvalue = [0, 0, 0, 3]\nclass = other", fillcolor="#d739e5"] ;
739 -> 745 ;
746 [label="med_price_xy <= 246728.992\ngini = 0.019\nsamples = 106\nvalue = [0, 1, 0, 105]\nclass = other", fillcolor="#d73be5"] ;
738 -> 746 ;
747 [label="xy_years_to_next_sale <= 4.904\ngini = 0.32\nsamples = 5\nvalue = [0, 1, 0, 4]\nclass = other", fillcolor="#e16aec"] ;
746 -> 747 ;
748 [label="gini = 0.0\nsamples = 1\nvalue = [0, 1, 0, 0]\nclass = detached", fillcolor="#47e539"] ;
747 -> 748 ;
749 [label="gini = 0.0\nsamples = 4\nvalue = [0, 0, 0, 4]\nclass = other", fillcolor="#d739e5"] ;
747 -> 749 ;
750 [label="gini = 0.0\nsamples = 101\nvalue = [0, 0, 0, 101]\nclass = other", fillcolor="#d739e5"] ;
746 -> 750 ;
751 [label="Jobs <= 826.5\ngini = 0.483\nsamples = 22\nvalue = [0, 13, 0, 9]\nclass = detached", fillcolor="#c6f7c2"] ;
733 -> 751 ;
752 [label="med_price_xy <= 2487328.25\ngini = 0.219\nsamples = 8\nvalue = [0, 7, 0, 1]\nclass = detached", fillcolor="#61e955"] ;
751 -> 752 ;
753 [label="gini = 0.0\nsamples = 7\nvalue = [0, 7, 0, 0]\nclass = detached", fillcolor="#47e539"] ;
752 -> 753 ;
754 [label="gini = 0.0\nsamples = 1\nvalue = [0, 0, 0, 1]\nclass = other", fillcolor="#d739e5"] ;
752 -> 754 ;
755 [label="xy_total_sales <= 2.5\ngini = 0.49\nsamples = 14\nvalue = [0, 6, 0, 8]\nclass = other", fillcolor="#f5cef8"] ;
751 -> 755 ;
756 [label="xy_price_cum_sum <= 446109.359\ngini = 0.444\nsamples = 12\nvalue = [0, 4, 0, 8]\nclass = other", fillcolor="#eb9cf2"] ;
755 -> 756 ;
757 [label="gini = 0.0\nsamples = 4\nvalue = [0, 0, 0, 4]\nclass = other", fillcolor="#d739e5"] ;
756 -> 757 ;
758 [label="med_price_xy <= 480890.766\ngini = 0.5\nsamples = 8\nvalue = [0, 4, 0, 4]\nclass = detached", fillcolor="#ffffff"] ;
756 -> 758 ;
759 [label="gini = 0.0\nsamples = 2\nvalue = [0, 2, 0, 0]\nclass = detached", fillcolor="#47e539"] ;
758 -> 759 ;
760 [label="med_price_xy <= 698678.219\ngini = 0.444\nsamples = 6\nvalue = [0, 2, 0, 4]\nclass = other", fillcolor="#eb9cf2"] ;
758 -> 760 ;
761 [label="xy_price_cum_sum <= 498162.906\ngini = 0.5\nsamples = 4\nvalue = [0, 2, 0, 2]\nclass = detached", fillcolor="#ffffff"] ;
760 -> 761 ;
762 [label="gini = 0.0\nsamples = 2\nvalue = [0, 0, 0, 2]\nclass = other", fillcolor="#d739e5"] ;
761 -> 762 ;
763 [label="gini = 0.0\nsamples = 2\nvalue = [0, 2, 0, 0]\nclass = detached", fillcolor="#47e539"] ;
761 -> 763 ;
764 [label="gini = 0.0\nsamples = 2\nvalue = [0, 0, 0, 2]\nclass = other", fillcolor="#d739e5"] ;
760 -> 764 ;
765 [label="gini = 0.0\nsamples = 2\nvalue = [0, 2, 0, 0]\nclass = detached", fillcolor="#47e539"] ;
755 -> 765 ;
766 [label="Cars <= 1863.0\ngini = 0.479\nsamples = 80\nvalue = [1, 51, 1, 27]\nclass = detached", fillcolor="#acf3a5"] ;
732 -> 766 ;
767 [label="Jobs <= 1528.5\ngini = 0.513\nsamples = 37\nvalue = [1, 15, 0, 21]\nclass = other", fillcolor="#f4c9f8"] ;
766 -> 767 ;
768 [label="xy_years_to_next_sale <= 2.675\ngini = 0.493\nsamples = 25\nvalue = [0, 14, 0, 11]\nclass = detached", fillcolor="#d8f9d5"] ;
767 -> 768 ;
769 [label="gini = 0.0\nsamples = 5\nvalue = [0, 0, 0, 5]\nclass = other", fillcolor="#d739e5"] ;
768 -> 769 ;
770 [label="med_price_xy <= 310201.891\ngini = 0.42\nsamples = 20\nvalue = [0, 14, 0, 6]\nclass = detached", fillcolor="#96f08e"] ;
768 -> 770 ;
771 [label="gini = 0.0\nsamples = 5\nvalue = [0, 5, 0, 0]\nclass = detached", fillcolor="#47e539"] ;
770 -> 771 ;
772 [label="med_price_xy <= 358849.375\ngini = 0.48\nsamples = 15\nvalue = [0, 9, 0, 6]\nclass = detached", fillcolor="#c2f6bd"] ;
770 -> 772 ;
773 [label="med_price_xy <= 337623.25\ngini = 0.469\nsamples = 8\nvalue = [0, 3, 0, 5]\nclass = other", fillcolor="#efb0f5"] ;
772 -> 773 ;
774 [label="xy_years_to_next_sale <= 3.999\ngini = 0.444\nsamples = 3\nvalue = [0, 2, 0, 1]\nclass = detached", fillcolor="#a3f29c"] ;
773 -> 774 ;
775 [label="gini = 0.0\nsamples = 1\nvalue = [0, 0, 0, 1]\nclass = other", fillcolor="#d739e5"] ;
774 -> 775 ;
776 [label="gini = 0.0\nsamples = 2\nvalue = [0, 2, 0, 0]\nclass = detached", fillcolor="#47e539"] ;
774 -> 776 ;
777 [label="med_price_xy <= 347282.062\ngini = 0.32\nsamples = 5\nvalue = [0, 1, 0, 4]\nclass = other", fillcolor="#e16aec"] ;
773 -> 777 ;
778 [label="gini = 0.0\nsamples = 2\nvalue = [0, 0, 0, 2]\nclass = other", fillcolor="#d739e5"] ;
777 -> 778 ;
779 [label="med_price_xy <= 352602.25\ngini = 0.444\nsamples = 3\nvalue = [0, 1, 0, 2]\nclass = other", fillcolor="#eb9cf2"] ;
777 -> 779 ;
780 [label="gini = 0.0\nsamples = 1\nvalue = [0, 1, 0, 0]\nclass = detached", fillcolor="#47e539"] ;
779 -> 780 ;
781 [label="gini = 0.0\nsamples = 2\nvalue = [0, 0, 0, 2]\nclass = other", fillcolor="#d739e5"] ;
779 -> 781 ;
782 [label="xy_price_cum_sum <= 407213.969\ngini = 0.245\nsamples = 7\nvalue = [0, 6, 0, 1]\nclass = detached", fillcolor="#66e95a"] ;
772 -> 782 ;
783 [label="gini = 0.0\nsamples = 4\nvalue = [0, 4, 0, 0]\nclass = detached", fillcolor="#47e539"] ;
782 -> 783 ;
784 [label="Sgl_det <= 508.5\ngini = 0.444\nsamples = 3\nvalue = [0, 2, 0, 1]\nclass = detached", fillcolor="#a3f29c"] ;
782 -> 784 ;
785 [label="gini = 0.0\nsamples = 2\nvalue = [0, 2, 0, 0]\nclass = detached", fillcolor="#47e539"] ;
784 -> 785 ;
786 [label="gini = 0.0\nsamples = 1\nvalue = [0, 0, 0, 1]\nclass = other", fillcolor="#d739e5"] ;
784 -> 786 ;
787 [label="xy_years_to_next_sale <= 2.295\ngini = 0.292\nsamples = 12\nvalue = [1, 1, 0, 10]\nclass = other", fillcolor="#de5dea"] ;
767 -> 787 ;
788 [label="gini = 0.0\nsamples = 1\nvalue = [0, 1, 0, 0]\nclass = detached", fillcolor="#47e539"] ;
787 -> 788 ;
789 [label="Avg_HHsize <= 2.133\ngini = 0.165\nsamples = 11\nvalue = [1, 0, 0, 10]\nclass = other", fillcolor="#db4de8"] ;
787 -> 789 ;
790 [label="med_price_xy <= 1451874.75\ngini = 0.375\nsamples = 4\nvalue = [1, 0, 0, 3]\nclass = other", fillcolor="#e47bee"] ;
789 -> 790 ;
791 [label="gini = 0.0\nsamples = 1\nvalue = [1, 0, 0, 0]\nclass = condo", fillcolor="#e58139"] ;
