digraph Tree {
node [shape=box, style="filled, rounded", color="black", fontname=helvetica] ;
edge [fontname=helvetica] ;
0 [label="xy_total_sales <= 11.5\ngini = 0.691\nsamples = 288372\nvalue = [72662, 81742, 18053, 115915]\nclass = other", fillcolor="#f8defb"] ;
1 [label="DwelDens <= 634.885\ngini = 0.566\nsamples = 141555\nvalue = [569, 81619, 18040, 41327]\nclass = detached", fillcolor="#b5f5af"] ;
0 -> 1 [labeldistance=2.5, labelangle=45, headlabel="True"] ;
2 [label="xy_prev_sales <= 0.5\ngini = 0.533\nsamples = 57093\nvalue = [58, 21856, 2990, 32189]\nclass = other", fillcolor="#f3c5f7"] ;
1 -> 2 ;
3 [label="Dwel <= 361.0\ngini = 0.229\nsamples = 23561\nvalue = [4, 3002, 81, 20474]\nclass = other", fillcolor="#dd57e9"] ;
2 -> 3 ;
4 [label="Avg_HHsize <= 2.911\ngini = 0.387\nsamples = 9828\nvalue = [3, 2478, 65, 7282]\nclass = other", fillcolor="#e57eee"] ;
3 -> 4 ;
5 [label="DwelDens <= 15.574\ngini = 0.499\nsamples = 3252\nvalue = [3, 1343, 36, 1870]\nclass = other", fillcolor="#f4c8f8"] ;
4 -> 5 ;
6 [label="Sgl_att <= 6.5\ngini = 0.297\nsamples = 1088\nvalue = [0, 196, 1, 891]\nclass = other", fillcolor="#e065eb"] ;
5 -> 6 ;
7 [label="med_price_xy <= 1012688.625\ngini = 0.494\nsamples = 297\nvalue = [0, 128, 1, 168]\nclass = other", fillcolor="#f6d0f9"] ;
6 -> 7 ;
8 [label="Avg_rent <= 781.1\ngini = 0.502\nsamples = 271\nvalue = [0, 128, 1, 142]\nclass = other", fillcolor="#fbecfc"] ;
7 -> 8 ;
9 [label="Cars <= 1627.5\ngini = 0.496\nsamples = 245\nvalue = [0, 106, 1, 138]\nclass = other", fillcolor="#f6d1f9"] ;
8 -> 9 ;
10 [label="med_price_xy <= 128815.203\ngini = 0.479\nsamples = 221\nvalue = [0, 88, 0, 133]\nclass = other", fillcolor="#f1bcf6"] ;
9 -> 10 ;
11 [label="Cars <= 1089.5\ngini = 0.211\nsamples = 25\nvalue = [0, 3, 0, 22]\nclass = other", fillcolor="#dc54e9"] ;
10 -> 11 ;
12 [label="gini = 0.0\nsamples = 18\nvalue = [0, 0, 0, 18]\nclass = other", fillcolor="#d739e5"] ;
11 -> 12 ;
13 [label="PopDens <= 14.775\ngini = 0.49\nsamples = 7\nvalue = [0, 3, 0, 4]\nclass = other", fillcolor="#f5cef8"] ;
11 -> 13 ;
14 [label="gini = 0.0\nsamples = 3\nvalue = [0, 0, 0, 3]\nclass = other", fillcolor="#d739e5"] ;
13 -> 14 ;
15 [label="med_price_xy <= 26061.836\ngini = 0.375\nsamples = 4\nvalue = [0, 3, 0, 1]\nclass = detached", fillcolor="#84ee7b"] ;
13 -> 15 ;
16 [label="gini = 0.0\nsamples = 1\nvalue = [0, 0, 0, 1]\nclass = other", fillcolor="#d739e5"] ;
15 -> 16 ;
17 [label="gini = 0.0\nsamples = 3\nvalue = [0, 3, 0, 0]\nclass = detached", fillcolor="#47e539"] ;
15 -> 17 ;
18 [label="Cars <= 948.0\ngini = 0.491\nsamples = 196\nvalue = [0, 85, 0, 111]\nclass = other", fillcolor="#f6d1f9"] ;
10 -> 18 ;
19 [label="Cars <= 778.0\ngini = 0.5\nsamples = 134\nvalue = [0, 68, 0, 66]\nclass = detached", fillcolor="#fafef9"] ;
18 -> 19 ;
20 [label="Jobs <= 191.0\ngini = 0.496\nsamples = 112\nvalue = [0, 51, 0, 61]\nclass = other", fillcolor="#f8dffb"] ;
19 -> 20 ;
21 [label="Cars <= 316.5\ngini = 0.493\nsamples = 77\nvalue = [0, 43, 0, 34]\nclass = detached", fillcolor="#d8fad6"] ;
20 -> 21 ;
22 [label="med_price_xy <= 225554.641\ngini = 0.153\nsamples = 12\nvalue = [0, 11, 0, 1]\nclass = detached", fillcolor="#58e74b"] ;
21 -> 22 ;
23 [label="gini = 0.0\nsamples = 1\nvalue = [0, 0, 0, 1]\nclass = other", fillcolor="#d739e5"] ;
22 -> 23 ;
24 [label="gini = 0.0\nsamples = 11\nvalue = [0, 11, 0, 0]\nclass = detached", fillcolor="#47e539"] ;
22 -> 24 ;
25 [label="Dwel <= 177.5\ngini = 0.5\nsamples = 65\nvalue = [0, 32, 0, 33]\nclass = other", fillcolor="#fef9fe"] ;
21 -> 25 ;
26 [label="gini = 0.488\nsamples = 45\nvalue = [0, 26, 0, 19]\nclass = detached", fillcolor="#cdf8ca"] ;
25 -> 26 ;
27 [label="gini = 0.42\nsamples = 20\nvalue = [0, 6, 0, 14]\nclass = other", fillcolor="#e88ef0"] ;
25 -> 27 ;
28 [label="Cars <= 452.0\ngini = 0.353\nsamples = 35\nvalue = [0, 8, 0, 27]\nclass = other", fillcolor="#e374ed"] ;
20 -> 28 ;
29 [label="Avg_HHsize <= 2.858\ngini = 0.105\nsamples = 18\nvalue = [0, 1, 0, 17]\nclass = other", fillcolor="#d945e7"] ;
28 -> 29 ;
30 [label="gini = 0.0\nsamples = 15\nvalue = [0, 0, 0, 15]\nclass = other", fillcolor="#d739e5"] ;
29 -> 30 ;
31 [label="gini = 0.444\nsamples = 3\nvalue = [0, 1, 0, 2]\nclass = other", fillcolor="#eb9cf2"] ;
29 -> 31 ;
32 [label="xy_price_cum_sum <= 381792.0\ngini = 0.484\nsamples = 17\nvalue = [0, 7, 0, 10]\nclass = other", fillcolor="#f3c4f7"] ;
28 -> 32 ;
33 [label="gini = 0.0\nsamples = 4\nvalue = [0, 0, 0, 4]\nclass = other", fillcolor="#d739e5"] ;
32 -> 33 ;
34 [label="gini = 0.497\nsamples = 13\nvalue = [0, 7, 0, 6]\nclass = detached", fillcolor="#e5fbe3"] ;
32 -> 34 ;
35 [label="xy_price_cum_sum <= 139147.57\ngini = 0.351\nsamples = 22\nvalue = [0, 17, 0, 5]\nclass = detached", fillcolor="#7ded73"] ;
19 -> 35 ;
36 [label="Avg_HHsize <= 2.836\ngini = 0.444\nsamples = 3\nvalue = [0, 1, 0, 2]\nclass = other", fillcolor="#eb9cf2"] ;
35 -> 36 ;
37 [label="gini = 0.0\nsamples = 2\nvalue = [0, 0, 0, 2]\nclass = other", fillcolor="#d739e5"] ;
36 -> 37 ;
38 [label="gini = 0.0\nsamples = 1\nvalue = [0, 1, 0, 0]\nclass = detached", fillcolor="#47e539"] ;
36 -> 38 ;
39 [label="xy_years_to_next_sale <= 1.234\ngini = 0.266\nsamples = 19\nvalue = [0, 16, 0, 3]\nclass = detached", fillcolor="#6aea5e"] ;
35 -> 39 ;
40 [label="gini = 0.0\nsamples = 1\nvalue = [0, 0, 0, 1]\nclass = other", fillcolor="#d739e5"] ;
39 -> 40 ;
41 [label="Avg_HHsize <= 2.892\ngini = 0.198\nsamples = 18\nvalue = [0, 16, 0, 2]\nclass = detached", fillcolor="#5ee852"] ;
39 -> 41 ;
42 [label="gini = 0.0\nsamples = 14\nvalue = [0, 14, 0, 0]\nclass = detached", fillcolor="#47e539"] ;
41 -> 42 ;
43 [label="gini = 0.5\nsamples = 4\nvalue = [0, 2, 0, 2]\nclass = detached", fillcolor="#ffffff"] ;
41 -> 43 ;
44 [label="med_price_xy <= 492312.703\ngini = 0.398\nsamples = 62\nvalue = [0, 17, 0, 45]\nclass = other", fillcolor="#e684ef"] ;
18 -> 44 ;
45 [label="Cars <= 1390.0\ngini = 0.49\nsamples = 35\nvalue = [0, 15, 0, 20]\nclass = other", fillcolor="#f5cef8"] ;
44 -> 45 ;
46 [label="xy_years_to_next_sale <= 1.84\ngini = 0.386\nsamples = 23\nvalue = [0, 6, 0, 17]\nclass = other", fillcolor="#e57fee"] ;
45 -> 46 ;
47 [label="gini = 0.0\nsamples = 2\nvalue = [0, 2, 0, 0]\nclass = detached", fillcolor="#47e539"] ;
46 -> 47 ;
48 [label="xy_price_cum_sum <= 346771.953\ngini = 0.308\nsamples = 21\nvalue = [0, 4, 0, 17]\nclass = other", fillcolor="#e068eb"] ;
46 -> 48 ;
49 [label="gini = 0.0\nsamples = 10\nvalue = [0, 0, 0, 10]\nclass = other", fillcolor="#d739e5"] ;
48 -> 49 ;
50 [label="gini = 0.463\nsamples = 11\nvalue = [0, 4, 0, 7]\nclass = other", fillcolor="#eeaaf4"] ;
48 -> 50 ;
51 [label="Dwel <= 160.0\ngini = 0.375\nsamples = 12\nvalue = [0, 9, 0, 3]\nclass = detached", fillcolor="#84ee7b"] ;
45 -> 51 ;
52 [label="xy_total_sales <= 1.5\ngini = 0.48\nsamples = 5\nvalue = [0, 2, 0, 3]\nclass = other", fillcolor="#f2bdf6"] ;
51 -> 52 ;
53 [label="gini = 0.444\nsamples = 3\nvalue = [0, 2, 0, 1]\nclass = detached", fillcolor="#a3f29c"] ;
52 -> 53 ;
54 [label="gini = 0.0\nsamples = 2\nvalue = [0, 0, 0, 2]\nclass = other", fillcolor="#d739e5"] ;
52 -> 54 ;
55 [label="gini = 0.0\nsamples = 7\nvalue = [0, 7, 0, 0]\nclass = detached", fillcolor="#47e539"] ;
51 -> 55 ;
56 [label="PopDens <= 31.222\ngini = 0.137\nsamples = 27\nvalue = [0, 2, 0, 25]\nclass = other", fillcolor="#da49e7"] ;
44 -> 56 ;
57 [label="med_price_xy <= 525140.5\ngini = 0.08\nsamples = 24\nvalue = [0, 1, 0, 23]\nclass = other", fillcolor="#d942e6"] ;
56 -> 57 ;
58 [label="DwelDens <= 7.619\ngini = 0.32\nsamples = 5\nvalue = [0, 1, 0, 4]\nclass = other", fillcolor="#e16aec"] ;
57 -> 58 ;
59 [label="gini = 0.5\nsamples = 2\nvalue = [0, 1, 0, 1]\nclass = detached", fillcolor="#ffffff"] ;
58 -> 59 ;
60 [label="gini = 0.0\nsamples = 3\nvalue = [0, 0, 0, 3]\nclass = other", fillcolor="#d739e5"] ;
58 -> 60 ;
61 [label="gini = 0.0\nsamples = 19\nvalue = [0, 0, 0, 19]\nclass = other", fillcolor="#d739e5"] ;
57 -> 61 ;
62 [label="med_price_xy <= 599722.594\ngini = 0.444\nsamples = 3\nvalue = [0, 1, 0, 2]\nclass = other", fillcolor="#eb9cf2"] ;
56 -> 62 ;
63 [label="gini = 0.0\nsamples = 1\nvalue = [0, 0, 0, 1]\nclass = other", fillcolor="#d739e5"] ;
62 -> 63 ;
64 [label="med_price_xy <= 672068.438\ngini = 0.5\nsamples = 2\nvalue = [0, 1, 0, 1]\nclass = detached", fillcolor="#ffffff"] ;
62 -> 64 ;
65 [label="gini = 0.0\nsamples = 1\nvalue = [0, 1, 0, 0]\nclass = detached", fillcolor="#47e539"] ;
64 -> 65 ;
66 [label="gini = 0.0\nsamples = 1\nvalue = [0, 0, 0, 1]\nclass = other", fillcolor="#d739e5"] ;
64 -> 66 ;
67 [label="xy_price_cum_sum <= 220302.75\ngini = 0.392\nsamples = 24\nvalue = [0, 18, 1, 5]\nclass = detached", fillcolor="#81ed78"] ;
9 -> 67 ;
68 [label="gini = 0.0\nsamples = 2\nvalue = [0, 0, 0, 2]\nclass = other", fillcolor="#d739e5"] ;
67 -> 68 ;
69 [label="Avg_HHsize <= 2.295\ngini = 0.31\nsamples = 22\nvalue = [0, 18, 1, 3]\nclass = detached", fillcolor="#6eea63"] ;
67 -> 69 ;
70 [label="gini = 0.0\nsamples = 2\nvalue = [0, 0, 0, 2]\nclass = other", fillcolor="#d739e5"] ;
69 -> 70 ;
71 [label="xy_price_cum_sum <= 320633.406\ngini = 0.185\nsamples = 20\nvalue = [0, 18, 1, 1]\nclass = detached", fillcolor="#5ae84e"] ;
69 -> 71 ;
72 [label="xy_price_cum_sum <= 285025.5\ngini = 0.625\nsamples = 4\nvalue = [0, 2, 1, 1]\nclass = detached", fillcolor="#c2f6bd"] ;
71 -> 72 ;
73 [label="gini = 0.0\nsamples = 2\nvalue = [0, 2, 0, 0]\nclass = detached", fillcolor="#47e539"] ;
72 -> 73 ;
74 [label="med_price_xy <= 305261.172\ngini = 0.5\nsamples = 2\nvalue = [0, 0, 1, 1]\nclass = duplex_townhouse", fillcolor="#ffffff"] ;
72 -> 74 ;
75 [label="gini = 0.0\nsamples = 1\nvalue = [0, 0, 0, 1]\nclass = other", fillcolor="#d739e5"] ;
74 -> 75 ;
76 [label="gini = 0.0\nsamples = 1\nvalue = [0, 0, 1, 0]\nclass = duplex_townhouse", fillcolor="#399de5"] ;
74 -> 76 ;
77 [label="gini = 0.0\nsamples = 16\nvalue = [0, 16, 0, 0]\nclass = detached", fillcolor="#47e539"] ;
71 -> 77 ;
78 [label="xy_price_cum_sum <= 902611.0\ngini = 0.26\nsamples = 26\nvalue = [0, 22, 0, 4]\nclass = detached", fillcolor="#68ea5d"] ;
8 -> 78 ;
79 [label="PopDens <= 20.414\ngini = 0.211\nsamples = 25\nvalue = [0, 22, 0, 3]\nclass = detached", fillcolor="#60e954"] ;
78 -> 79 ;
80 [label="Jobs <= 121.5\ngini = 0.375\nsamples = 12\nvalue = [0, 9, 0, 3]\nclass = detached", fillcolor="#84ee7b"] ;
79 -> 80 ;
81 [label="xy_price_cum_sum <= 338496.0\ngini = 0.5\nsamples = 4\nvalue = [0, 2, 0, 2]\nclass = detached", fillcolor="#ffffff"] ;
80 -> 81 ;
82 [label="gini = 0.0\nsamples = 1\nvalue = [0, 0, 0, 1]\nclass = other", fillcolor="#d739e5"] ;
81 -> 82 ;
83 [label="Avg_HHsize <= 2.85\ngini = 0.444\nsamples = 3\nvalue = [0, 2, 0, 1]\nclass = detached", fillcolor="#a3f29c"] ;
81 -> 83 ;
84 [label="med_price_xy <= 722746.688\ngini = 0.5\nsamples = 2\nvalue = [0, 1, 0, 1]\nclass = detached", fillcolor="#ffffff"] ;
83 -> 84 ;
85 [label="gini = 0.0\nsamples = 1\nvalue = [0, 0, 0, 1]\nclass = other", fillcolor="#d739e5"] ;
84 -> 85 ;
86 [label="gini = 0.0\nsamples = 1\nvalue = [0, 1, 0, 0]\nclass = detached", fillcolor="#47e539"] ;
84 -> 86 ;
87 [label="gini = 0.0\nsamples = 1\nvalue = [0, 1, 0, 0]\nclass = detached", fillcolor="#47e539"] ;
83 -> 87 ;
88 [label="med_price_xy <= 733932.812\ngini = 0.219\nsamples = 8\nvalue = [0, 7, 0, 1]\nclass = detached", fillcolor="#61e955"] ;
80 -> 88 ;
89 [label="gini = 0.0\nsamples = 6\nvalue = [0, 6, 0, 0]\nclass = detached", fillcolor="#47e539"] ;
88 -> 89 ;
90 [label="med_price_xy <= 825772.812\ngini = 0.5\nsamples = 2\nvalue = [0, 1, 0, 1]\nclass = detached", fillcolor="#ffffff"] ;
88 -> 90 ;
91 [label="gini = 0.0\nsamples = 1\nvalue = [0, 0, 0, 1]\nclass = other", fillcolor="#d739e5"] ;
90 -> 91 ;
92 [label="gini = 0.0\nsamples = 1\nvalue = [0, 1, 0, 0]\nclass = detached", fillcolor="#47e539"] ;
90 -> 92 ;
93 [label="gini = 0.0\nsamples = 13\nvalue = [0, 13, 0, 0]\nclass = detached", fillcolor="#47e539"] ;
79 -> 93 ;
94 [label="gini = 0.0\nsamples = 1\nvalue = [0, 0, 0, 1]\nclass = other", fillcolor="#d739e5"] ;
78 -> 94 ;
95 [label="gini = 0.0\nsamples = 26\nvalue = [0, 0, 0, 26]\nclass = other", fillcolor="#d739e5"] ;
7 -> 95 ;
96 [label="Dwel <= 169.5\ngini = 0.157\nsamples = 791\nvalue = [0, 68, 0, 723]\nclass = other", fillcolor="#db4ce7"] ;
6 -> 96 ;
97 [label="Dwel <= 140.5\ngini = 0.063\nsamples = 680\nvalue = [0, 22, 0, 658]\nclass = other", fillcolor="#d840e6"] ;
96 -> 97 ;
98 [label="xy_total_sales <= 1.5\ngini = 0.36\nsamples = 34\nvalue = [0, 8, 0, 26]\nclass = other", fillcolor="#e376ed"] ;
97 -> 98 ;
99 [label="med_price_xy <= 925086.812\ngini = 0.494\nsamples = 18\nvalue = [0, 8, 0, 10]\nclass = other", fillcolor="#f7d7fa"] ;
98 -> 99 ;
100 [label="gini = 0.0\nsamples = 7\nvalue = [0, 7, 0, 0]\nclass = detached", fillcolor="#47e539"] ;
99 -> 100 ;
101 [label="PopDens <= 30.624\ngini = 0.165\nsamples = 11\nvalue = [0, 1, 0, 10]\nclass = other", fillcolor="#db4de8"] ;
99 -> 101 ;
102 [label="gini = 0.0\nsamples = 9\nvalue = [0, 0, 0, 9]\nclass = other", fillcolor="#d739e5"] ;
101 -> 102 ;
103 [label="xy_price_cum_sum <= 1384923.938\ngini = 0.5\nsamples = 2\nvalue = [0, 1, 0, 1]\nclass = detached", fillcolor="#ffffff"] ;
101 -> 103 ;
104 [label="gini = 0.0\nsamples = 1\nvalue = [0, 0, 0, 1]\nclass = other", fillcolor="#d739e5"] ;
103 -> 104 ;
105 [label="gini = 0.0\nsamples = 1\nvalue = [0, 1, 0, 0]\nclass = detached", fillcolor="#47e539"] ;
103 -> 105 ;
106 [label="gini = 0.0\nsamples = 16\nvalue = [0, 0, 0, 16]\nclass = other", fillcolor="#d739e5"] ;
98 -> 106 ;
107 [label="Cars <= 250.0\ngini = 0.042\nsamples = 646\nvalue = [0, 14, 0, 632]\nclass = other", fillcolor="#d83de6"] ;
97 -> 107 ;
108 [label="xy_years_to_next_sale <= 4.419\ngini = 0.32\nsamples = 30\nvalue = [0, 6, 0, 24]\nclass = other", fillcolor="#e16aec"] ;
107 -> 108 ;
109 [label="Sgl_det <= 140.0\ngini = 0.444\nsamples = 3\nvalue = [0, 2, 0, 1]\nclass = detached", fillcolor="#a3f29c"] ;
108 -> 109 ;
110 [label="gini = 0.0\nsamples = 1\nvalue = [0, 0, 0, 1]\nclass = other", fillcolor="#d739e5"] ;
109 -> 110 ;
111 [label="gini = 0.0\nsamples = 2\nvalue = [0, 2, 0, 0]\nclass = detached", fillcolor="#47e539"] ;
109 -> 111 ;
112 [label="Cars <= 80.0\ngini = 0.252\nsamples = 27\nvalue = [0, 4, 0, 23]\nclass = other", fillcolor="#de5bea"] ;
108 -> 112 ;
113 [label="Jobs <= 58.5\ngini = 0.153\nsamples = 24\nvalue = [0, 2, 0, 22]\nclass = other", fillcolor="#db4be7"] ;
112 -> 113 ;
114 [label="gini = 0.0\nsamples = 16\nvalue = [0, 0, 0, 16]\nclass = other", fillcolor="#d739e5"] ;
113 -> 114 ;
115 [label="Cars <= 12.0\ngini = 0.375\nsamples = 8\nvalue = [0, 2, 0, 6]\nclass = other", fillcolor="#e47bee"] ;
113 -> 115 ;
116 [label="gini = 0.0\nsamples = 4\nvalue = [0, 0, 0, 4]\nclass = other", fillcolor="#d739e5"] ;
115 -> 116 ;
117 [label="xy_price_cum_sum <= 410209.922\ngini = 0.5\nsamples = 4\nvalue = [0, 2, 0, 2]\nclass = detached", fillcolor="#ffffff"] ;
115 -> 117 ;
118 [label="gini = 0.0\nsamples = 1\nvalue = [0, 0, 0, 1]\nclass = other", fillcolor="#d739e5"] ;
117 -> 118 ;
119 [label="xy_price_cum_sum <= 4510131.125\ngini = 0.444\nsamples = 3\nvalue = [0, 2, 0, 1]\nclass = detached", fillcolor="#a3f29c"] ;
117 -> 119 ;
120 [label="gini = 0.0\nsamples = 2\nvalue = [0, 2, 0, 0]\nclass = detached", fillcolor="#47e539"] ;
119 -> 120 ;
121 [label="gini = 0.0\nsamples = 1\nvalue = [0, 0, 0, 1]\nclass = other", fillcolor="#d739e5"] ;
119 -> 121 ;
122 [label="DwelDens <= 14.695\ngini = 0.444\nsamples = 3\nvalue = [0, 2, 0, 1]\nclass = detached", fillcolor="#a3f29c"] ;
112 -> 122 ;
123 [label="gini = 0.0\nsamples = 2\nvalue = [0, 2, 0, 0]\nclass = detached", fillcolor="#47e539"] ;
122 -> 123 ;
124 [label="gini = 0.0\nsamples = 1\nvalue = [0, 0, 0, 1]\nclass = other", fillcolor="#d739e5"] ;
122 -> 124 ;
125 [label="xy_price_cum_sum <= 3016071.375\ngini = 0.026\nsamples = 616\nvalue = [0, 8, 0, 608]\nclass = other", fillcolor="#d83ce5"] ;
107 -> 125 ;
126 [label="Cars <= 1047.5\ngini = 0.023\nsamples = 613\nvalue = [0, 7, 0, 606]\nclass = other", fillcolor="#d73be5"] ;
125 -> 126 ;
127 [label="xy_price_cum_sum <= 1186729.0\ngini = 0.014\nsamples = 580\nvalue = [0, 4, 0, 576]\nclass = other", fillcolor="#d73ae5"] ;
126 -> 127 ;
128 [label="med_price_xy <= 198955.148\ngini = 0.01\nsamples = 579\nvalue = [0, 3, 0, 576]\nclass = other", fillcolor="#d73ae5"] ;
127 -> 128 ;
129 [label="xy_price_cum_sum <= 156932.371\ngini = 0.198\nsamples = 9\nvalue = [0, 1, 0, 8]\nclass = other", fillcolor="#dc52e8"] ;
128 -> 129 ;
130 [label="gini = 0.0\nsamples = 8\nvalue = [0, 0, 0, 8]\nclass = other", fillcolor="#d739e5"] ;
129 -> 130 ;
131 [label="gini = 0.0\nsamples = 1\nvalue = [0, 1, 0, 0]\nclass = detached", fillcolor="#47e539"] ;
129 -> 131 ;
132 [label="med_price_xy <= 523155.312\ngini = 0.007\nsamples = 570\nvalue = [0, 2, 0, 568]\nclass = other", fillcolor="#d73ae5"] ;
128 -> 132 ;
133 [label="gini = 0.0\nsamples = 261\nvalue = [0, 0, 0, 261]\nclass = other", fillcolor="#d739e5"] ;
132 -> 133 ;
134 [label="med_price_xy <= 524186.547\ngini = 0.013\nsamples = 309\nvalue = [0, 2, 0, 307]\nclass = other", fillcolor="#d73ae5"] ;
132 -> 134 ;
135 [label="gini = 0.0\nsamples = 1\nvalue = [0, 1, 0, 0]\nclass = detached", fillcolor="#47e539"] ;
134 -> 135 ;
136 [label="gini = 0.006\nsamples = 308\nvalue = [0, 1, 0, 307]\nclass = other", fillcolor="#d73ae5"] ;
134 -> 136 ;
137 [label="gini = 0.0\nsamples = 1\nvalue = [0, 1, 0, 0]\nclass = detached", fillcolor="#47e539"] ;
127 -> 137 ;
138 [label="Cars <= 1124.0\ngini = 0.165\nsamples = 33\nvalue = [0, 3, 0, 30]\nclass = other", fillcolor="#db4de8"] ;
126 -> 138 ;
139 [label="gini = 0.0\nsamples = 1\nvalue = [0, 1, 0, 0]\nclass = detached", fillcolor="#47e539"] ;
138 -> 139 ;
140 [label="xy_price_cum_sum <= 816019.0\ngini = 0.117\nsamples = 32\nvalue = [0, 2, 0, 30]\nclass = other", fillcolor="#da46e7"] ;
138 -> 140 ;
141 [label="Cars <= 1472.5\ngini = 0.408\nsamples = 7\nvalue = [0, 2, 0, 5]\nclass = other", fillcolor="#e788ef"] ;
140 -> 141 ;
142 [label="med_price_xy <= 569949.703\ngini = 0.444\nsamples = 3\nvalue = [0, 2, 0, 1]\nclass = detached", fillcolor="#a3f29c"] ;
141 -> 142 ;
143 [label="gini = 0.0\nsamples = 1\nvalue = [0, 1, 0, 0]\nclass = detached", fillcolor="#47e539"] ;
142 -> 143 ;
144 [label="gini = 0.5\nsamples = 2\nvalue = [0, 1, 0, 1]\nclass = detached", fillcolor="#ffffff"] ;
142 -> 144 ;
145 [label="gini = 0.0\nsamples = 4\nvalue = [0, 0, 0, 4]\nclass = other", fillcolor="#d739e5"] ;
141 -> 145 ;
146 [label="gini = 0.0\nsamples = 25\nvalue = [0, 0, 0, 25]\nclass = other", fillcolor="#d739e5"] ;
140 -> 146 ;
147 [label="xy_price_cum_sum <= 4635488.375\ngini = 0.444\nsamples = 3\nvalue = [0, 1, 0, 2]\nclass = other", fillcolor="#eb9cf2"] ;
125 -> 147 ;
148 [label="gini = 0.0\nsamples = 1\nvalue = [0, 1, 0, 0]\nclass = detached", fillcolor="#47e539"] ;
147 -> 148 ;
149 [label="gini = 0.0\nsamples = 2\nvalue = [0, 0, 0, 2]\nclass = other", fillcolor="#d739e5"] ;
147 -> 149 ;
150 [label="Jobs <= 370.0\ngini = 0.485\nsamples = 111\nvalue = [0, 46, 0, 65]\nclass = other", fillcolor="#f3c5f7"] ;
96 -> 150 ;
151 [label="xy_price_cum_sum <= 240266.25\ngini = 0.477\nsamples = 51\nvalue = [0, 31, 0, 20]\nclass = detached", fillcolor="#bef6b9"] ;
150 -> 151 ;
152 [label="Sgl_att <= 32.5\ngini = 0.42\nsamples = 10\nvalue = [0, 3, 0, 7]\nclass = other", fillcolor="#e88ef0"] ;
151 -> 152 ;
153 [label="gini = 0.0\nsamples = 5\nvalue = [0, 0, 0, 5]\nclass = other", fillcolor="#d739e5"] ;
152 -> 153 ;
154 [label="DwelDens <= 3.274\ngini = 0.48\nsamples = 5\nvalue = [0, 3, 0, 2]\nclass = detached", fillcolor="#c2f6bd"] ;
152 -> 154 ;
155 [label="xy_years_to_next_sale <= 0.856\ngini = 0.444\nsamples = 3\nvalue = [0, 1, 0, 2]\nclass = other", fillcolor="#eb9cf2"] ;
154 -> 155 ;
156 [label="gini = 0.0\nsamples = 1\nvalue = [0, 0, 0, 1]\nclass = other", fillcolor="#d739e5"] ;
155 -> 156 ;
157 [label="med_price_xy <= 143467.352\ngini = 0.5\nsamples = 2\nvalue = [0, 1, 0, 1]\nclass = detached", fillcolor="#ffffff"] ;
155 -> 157 ;
158 [label="gini = 0.0\nsamples = 1\nvalue = [0, 0, 0, 1]\nclass = other", fillcolor="#d739e5"] ;
157 -> 158 ;
159 [label="gini = 0.0\nsamples = 1\nvalue = [0, 1, 0, 0]\nclass = detached", fillcolor="#47e539"] ;
157 -> 159 ;
160 [label="gini = 0.0\nsamples = 2\nvalue = [0, 2, 0, 0]\nclass = detached", fillcolor="#47e539"] ;
154 -> 160 ;
161 [label="med_price_xy <= 1785497.625\ngini = 0.433\nsamples = 41\nvalue = [0, 28, 0, 13]\nclass = detached", fillcolor="#9cf195"] ;
151 -> 161 ;
162 [label="Jobs <= 50.0\ngini = 0.375\nsamples = 36\nvalue = [0, 27, 0, 9]\nclass = detached", fillcolor="#84ee7b"] ;
161 -> 162 ;
163 [label="gini = 0.0\nsamples = 7\nvalue = [0, 7, 0, 0]\nclass = detached", fillcolor="#47e539"] ;
162 -> 163 ;
164 [label="Cars <= 841.0\ngini = 0.428\nsamples = 29\nvalue = [0, 20, 0, 9]\nclass = detached", fillcolor="#9af192"] ;
162 -> 164 ;
165 [label="xy_price_cum_sum <= 518905.875\ngini = 0.498\nsamples = 15\nvalue = [0, 8, 0, 7]\nclass = detached", fillcolor="#e8fce6"] ;
164 -> 165 ;
166 [label="Jobs <= 72.0\ngini = 0.278\nsamples = 6\nvalue = [0, 5, 0, 1]\nclass = detached", fillcolor="#6cea61"] ;
165 -> 166 ;
167 [label="med_price_xy <= 375693.828\ngini = 0.5\nsamples = 2\nvalue = [0, 1, 0, 1]\nclass = detached", fillcolor="#ffffff"] ;
166 -> 167 ;
168 [label="gini = 0.0\nsamples = 1\nvalue = [0, 0, 0, 1]\nclass = other", fillcolor="#d739e5"] ;
167 -> 168 ;
169 [label="gini = 0.0\nsamples = 1\nvalue = [0, 1, 0, 0]\nclass = detached", fillcolor="#47e539"] ;
167 -> 169 ;
170 [label="gini = 0.0\nsamples = 4\nvalue = [0, 4, 0, 0]\nclass = detached", fillcolor="#47e539"] ;
166 -> 170 ;
171 [label="xy_price_cum_sum <= 696252.188\ngini = 0.444\nsamples = 9\nvalue = [0, 3, 0, 6]\nclass = other", fillcolor="#eb9cf2"] ;
165 -> 171 ;
172 [label="gini = 0.0\nsamples = 4\nvalue = [0, 0, 0, 4]\nclass = other", fillcolor="#d739e5"] ;
171 -> 172 ;
173 [label="xy_price_cum_sum <= 883486.75\ngini = 0.48\nsamples = 5\nvalue = [0, 3, 0, 2]\nclass = detached", fillcolor="#c2f6bd"] ;
171 -> 173 ;
174 [label="gini = 0.0\nsamples = 2\nvalue = [0, 2, 0, 0]\nclass = detached", fillcolor="#47e539"] ;
173 -> 174 ;
175 [label="gini = 0.444\nsamples = 3\nvalue = [0, 1, 0, 2]\nclass = other", fillcolor="#eb9cf2"] ;
173 -> 175 ;
176 [label="xy_price_cum_sum <= 404096.0\ngini = 0.245\nsamples = 14\nvalue = [0, 12, 0, 2]\nclass = detached", fillcolor="#66e95a"] ;
164 -> 176 ;
177 [label="xy_price_cum_sum <= 364169.0\ngini = 0.5\nsamples = 4\nvalue = [0, 2, 0, 2]\nclass = detached", fillcolor="#ffffff"] ;
176 -> 177 ;
178 [label="Sgl_att <= 22.5\ngini = 0.444\nsamples = 3\nvalue = [0, 2, 0, 1]\nclass = detached", fillcolor="#a3f29c"] ;
177 -> 178 ;
179 [label="gini = 0.5\nsamples = 2\nvalue = [0, 1, 0, 1]\nclass = detached", fillcolor="#ffffff"] ;
178 -> 179 ;
180 [label="gini = 0.0\nsamples = 1\nvalue = [0, 1, 0, 0]\nclass = detached", fillcolor="#47e539"] ;
178 -> 180 ;
181 [label="gini = 0.0\nsamples = 1\nvalue = [0, 0, 0, 1]\nclass = other", fillcolor="#d739e5"] ;
177 -> 181 ;
182 [label="gini = 0.0\nsamples = 10\nvalue = [0, 10, 0, 0]\nclass = detached", fillcolor="#47e539"] ;
176 -> 182 ;
183 [label="Cars <= 99.5\ngini = 0.32\nsamples = 5\nvalue = [0, 1, 0, 4]\nclass = other", fillcolor="#e16aec"] ;
161 -> 183 ;
184 [label="gini = 0.5\nsamples = 2\nvalue = [0, 1, 0, 1]\nclass = detached", fillcolor="#ffffff"] ;
183 -> 184 ;
185 [label="gini = 0.0\nsamples = 3\nvalue = [0, 0, 0, 3]\nclass = other", fillcolor="#d739e5"] ;
183 -> 185 ;
186 [label="PopDens <= 19.841\ngini = 0.375\nsamples = 60\nvalue = [0, 15, 0, 45]\nclass = other", fillcolor="#e47bee"] ;
150 -> 186 ;
187 [label="med_price_xy <= 408206.234\ngini = 0.32\nsamples = 5\nvalue = [0, 4, 0, 1]\nclass = detached", fillcolor="#75ec6a"] ;
186 -> 187 ;
188 [label="gini = 0.0\nsamples = 4\nvalue = [0, 4, 0, 0]\nclass = detached", fillcolor="#47e539"] ;
187 -> 188 ;
189 [label="gini = 0.0\nsamples = 1\nvalue = [0, 0, 0, 1]\nclass = other", fillcolor="#d739e5"] ;
187 -> 189 ;
190 [label="Cars <= 2005.0\ngini = 0.32\nsamples = 55\nvalue = [0, 11, 0, 44]\nclass = other", fillcolor="#e16aec"] ;
186 -> 190 ;
191 [label="med_price_xy <= 1131549.25\ngini = 0.282\nsamples = 53\nvalue = [0, 9, 0, 44]\nclass = other", fillcolor="#df61ea"] ;
190 -> 191 ;
192 [label="Cars <= 329.5\ngini = 0.375\nsamples = 36\nvalue = [0, 9, 0, 27]\nclass = other", fillcolor="#e47bee"] ;
191 -> 192 ;
193 [label="Jobs <= 1769.0\ngini = 0.444\nsamples = 6\nvalue = [0, 4, 0, 2]\nclass = detached", fillcolor="#a3f29c"] ;
192 -> 193 ;
194 [label="gini = 0.0\nsamples = 3\nvalue = [0, 3, 0, 0]\nclass = detached", fillcolor="#47e539"] ;
193 -> 194 ;
195 [label="Jobs <= 2880.0\ngini = 0.444\nsamples = 3\nvalue = [0, 1, 0, 2]\nclass = other", fillcolor="#eb9cf2"] ;
193 -> 195 ;
196 [label="gini = 0.0\nsamples = 1\nvalue = [0, 0, 0, 1]\nclass = other", fillcolor="#d739e5"] ;
195 -> 196 ;
197 [label="xy_price_cum_sum <= 394507.5\ngini = 0.5\nsamples = 2\nvalue = [0, 1, 0, 1]\nclass = detached", fillcolor="#ffffff"] ;
195 -> 197 ;
198 [label="gini = 0.0\nsamples = 1\nvalue = [0, 1, 0, 0]\nclass = detached", fillcolor="#47e539"] ;
197 -> 198 ;
199 [label="gini = 0.0\nsamples = 1\nvalue = [0, 0, 0, 1]\nclass = other", fillcolor="#d739e5"] ;
197 -> 199 ;
200 [label="xy_price_cum_sum <= 986053.875\ngini = 0.278\nsamples = 30\nvalue = [0, 5, 0, 25]\nclass = other", fillcolor="#df61ea"] ;
192 -> 200 ;
201 [label="Cars <= 1385.0\ngini = 0.238\nsamples = 29\nvalue = [0, 4, 0, 25]\nclass = other", fillcolor="#dd59e9"] ;
200 -> 201 ;
202 [label="gini = 0.0\nsamples = 10\nvalue = [0, 0, 0, 10]\nclass = other", fillcolor="#d739e5"] ;
201 -> 202 ;
203 [label="xy_price_cum_sum <= 435297.0\ngini = 0.332\nsamples = 19\nvalue = [0, 4, 0, 15]\nclass = other", fillcolor="#e26eec"] ;
201 -> 203 ;
204 [label="gini = 0.245\nsamples = 14\nvalue = [0, 2, 0, 12]\nclass = other", fillcolor="#de5ae9"] ;
203 -> 204 ;
205 [label="gini = 0.48\nsamples = 5\nvalue = [0, 2, 0, 3]\nclass = other", fillcolor="#f2bdf6"] ;
203 -> 205 ;
206 [label="gini = 0.0\nsamples = 1\nvalue = [0, 1, 0, 0]\nclass = detached", fillcolor="#47e539"] ;
200 -> 206 ;
207 [label="gini = 0.0\nsamples = 17\nvalue = [0, 0, 0, 17]\nclass = other", fillcolor="#d739e5"] ;
191 -> 207 ;
208 [label="gini = 0.0\nsamples = 2\nvalue = [0, 2, 0, 0]\nclass = detached", fillcolor="#47e539"] ;
190 -> 208 ;
209 [label="Sgl_att <= 40.5\ngini = 0.514\nsamples = 2164\nvalue = [3, 1147, 35, 979]\nclass = detached", fillcolor="#e5fbe3"] ;
5 -> 209 ;
210 [label="DwelDens <= 102.75\ngini = 0.427\nsamples = 1108\nvalue = [0, 771, 7, 330]\nclass = detached", fillcolor="#97f08f"] ;
209 -> 210 ;
211 [label="Avg_HHsize <= 2.763\ngini = 0.505\nsamples = 392\nvalue = [0, 196, 2, 194]\nclass = detached", fillcolor="#fdfffd"] ;
210 -> 211 ;
212 [label="xy_years_to_next_sale <= 0.847\ngini = 0.424\nsamples = 165\nvalue = [0, 116, 2, 47]\nclass = detached", fillcolor="#93f08b"] ;
211 -> 212 ;
213 [label="xy_price_cum_sum <= 86993.27\ngini = 0.379\nsamples = 13\nvalue = [0, 2, 1, 10]\nclass = other", fillcolor="#e26fec"] ;
212 -> 213 ;
214 [label="Avg_HHsize <= 1.85\ngini = 0.625\nsamples = 4\nvalue = [0, 2, 1, 1]\nclass = detached", fillcolor="#c2f6bd"] ;
213 -> 214 ;
215 [label="gini = 0.0\nsamples = 1\nvalue = [0, 0, 1, 0]\nclass = duplex_townhouse", fillcolor="#399de5"] ;
214 -> 215 ;
216 [label="xy_price_cum_sum <= 72195.6\ngini = 0.444\nsamples = 3\nvalue = [0, 2, 0, 1]\nclass = detached", fillcolor="#a3f29c"] ;
214 -> 216 ;
217 [label="med_price_xy <= 208721.734\ngini = 0.5\nsamples = 2\nvalue = [0, 1, 0, 1]\nclass = detached", fillcolor="#ffffff"] ;
216 -> 217 ;
218 [label="gini = 0.0\nsamples = 1\nvalue = [0, 0, 0, 1]\nclass = other", fillcolor="#d739e5"] ;
217 -> 218 ;
219 [label="gini = 0.0\nsamples = 1\nvalue = [0, 1, 0, 0]\nclass = detached", fillcolor="#47e539"] ;
217 -> 219 ;
220 [label="gini = 0.0\nsamples = 1\nvalue = [0, 1, 0, 0]\nclass = detached", fillcolor="#47e539"] ;
216 -> 220 ;
221 [label="gini = 0.0\nsamples = 9\nvalue = [0, 0, 0, 9]\nclass = other", fillcolor="#d739e5"] ;
213 -> 221 ;
222 [label="Cars <= 189.5\ngini = 0.378\nsamples = 152\nvalue = [0, 114, 1, 37]\nclass = detached", fillcolor="#84ee7a"] ;
212 -> 222 ;
223 [label="gini = 0.0\nsamples = 7\nvalue = [0, 0, 0, 7]\nclass = other", fillcolor="#d739e5"] ;
222 -> 223 ;
224 [label="xy_price_cum_sum <= 667592.75\ngini = 0.339\nsamples = 145\nvalue = [0, 114, 1, 30]\nclass = detached", fillcolor="#79ec6e"] ;
222 -> 224 ;
225 [label="PopDens <= 275.048\ngini = 0.28\nsamples = 126\nvalue = [0, 105, 1, 20]\nclass = detached", fillcolor="#6bea60"] ;
224 -> 225 ;
226 [label="med_price_xy <= 209898.094\ngini = 0.252\nsamples = 123\nvalue = [0, 105, 1, 17]\nclass = detached", fillcolor="#66e95b"] ;
225 -> 226 ;
227 [label="Cars <= 1820.0\ngini = 0.408\nsamples = 35\nvalue = [0, 25, 0, 10]\nclass = detached", fillcolor="#91ef88"] ;
226 -> 227 ;
228 [label="xy_price_cum_sum <= 158347.5\ngini = 0.342\nsamples = 32\nvalue = [0, 25, 0, 7]\nclass = detached", fillcolor="#7bec70"] ;
227 -> 228 ;
229 [label="gini = 0.095\nsamples = 20\nvalue = [0, 19, 0, 1]\nclass = detached", fillcolor="#51e643"] ;
228 -> 229 ;
230 [label="gini = 0.5\nsamples = 12\nvalue = [0, 6, 0, 6]\nclass = detached", fillcolor="#ffffff"] ;
228 -> 230 ;
231 [label="gini = 0.0\nsamples = 3\nvalue = [0, 0, 0, 3]\nclass = other", fillcolor="#d739e5"] ;
227 -> 231 ;
232 [label="Avg_HHsize <= 1.857\ngini = 0.167\nsamples = 88\nvalue = [0, 80, 1, 7]\nclass = detached", fillcolor="#59e84d"] ;
226 -> 232 ;
233 [label="gini = 0.0\nsamples = 1\nvalue = [0, 0, 1, 0]\nclass = duplex_townhouse", fillcolor="#399de5"] ;
232 -> 233 ;
234 [label="xy_years_to_next_sale <= 1.133\ngini = 0.148\nsamples = 87\nvalue = [0, 80, 0, 7]\nclass = detached", fillcolor="#57e74a"] ;
232 -> 234 ;
235 [label="gini = 0.48\nsamples = 5\nvalue = [0, 3, 0, 2]\nclass = detached", fillcolor="#c2f6bd"] ;
234 -> 235 ;
236 [label="gini = 0.115\nsamples = 82\nvalue = [0, 77, 0, 5]\nclass = detached", fillcolor="#53e746"] ;
234 -> 236 ;
237 [label="gini = 0.0\nsamples = 3\nvalue = [0, 0, 0, 3]\nclass = other", fillcolor="#d739e5"] ;
225 -> 237 ;
238 [label="xy_price_cum_sum <= 696439.5\ngini = 0.499\nsamples = 19\nvalue = [0, 9, 0, 10]\nclass = other", fillcolor="#fbebfc"] ;
224 -> 238 ;
239 [label="gini = 0.0\nsamples = 4\nvalue = [0, 0, 0, 4]\nclass = other", fillcolor="#d739e5"] ;
238 -> 239 ;
240 [label="med_price_xy <= 831196.281\ngini = 0.48\nsamples = 15\nvalue = [0, 9, 0, 6]\nclass = detached", fillcolor="#c2f6bd"] ;
238 -> 240 ;
241 [label="gini = 0.0\nsamples = 5\nvalue = [0, 5, 0, 0]\nclass = detached", fillcolor="#47e539"] ;
240 -> 241 ;
242 [label="PopDens <= 81.177\ngini = 0.48\nsamples = 10\nvalue = [0, 4, 0, 6]\nclass = other", fillcolor="#f2bdf6"] ;
240 -> 242 ;
243 [label="gini = 0.0\nsamples = 4\nvalue = [0, 0, 0, 4]\nclass = other", fillcolor="#d739e5"] ;
242 -> 243 ;
244 [label="Avg_rent <= 566.8\ngini = 0.444\nsamples = 6\nvalue = [0, 4, 0, 2]\nclass = detached", fillcolor="#a3f29c"] ;
242 -> 244 ;
245 [label="gini = 0.0\nsamples = 3\nvalue = [0, 3, 0, 0]\nclass = detached", fillcolor="#47e539"] ;
244 -> 245 ;
246 [label="gini = 0.444\nsamples = 3\nvalue = [0, 1, 0, 2]\nclass = other", fillcolor="#eb9cf2"] ;
244 -> 246 ;
247 [label="Cars <= 3856.0\ngini = 0.456\nsamples = 227\nvalue = [0, 80, 0, 147]\nclass = other", fillcolor="#eda5f3"] ;
211 -> 247 ;
248 [label="xy_price_cum_sum <= 209531.273\ngini = 0.49\nsamples = 172\nvalue = [0, 74, 0, 98]\nclass = other", fillcolor="#f5cff9"] ;
247 -> 248 ;
249 [label="Sgl_att <= 12.5\ngini = 0.201\nsamples = 44\nvalue = [0, 5, 0, 39]\nclass = other", fillcolor="#dc52e8"] ;
248 -> 249 ;
250 [label="Jobs <= 1252.5\ngini = 0.097\nsamples = 39\nvalue = [0, 2, 0, 37]\nclass = other", fillcolor="#d944e6"] ;
249 -> 250 ;
251 [label="med_price_xy <= 27983.8\ngini = 0.054\nsamples = 36\nvalue = [0, 1, 0, 35]\nclass = other", fillcolor="#d83fe6"] ;
250 -> 251 ;
252 [label="xy_price_cum_sum <= 22094.08\ngini = 0.5\nsamples = 2\nvalue = [0, 1, 0, 1]\nclass = detached", fillcolor="#ffffff"] ;
251 -> 252 ;
253 [label="gini = 0.0\nsamples = 1\nvalue = [0, 0, 0, 1]\nclass = other", fillcolor="#d739e5"] ;
252 -> 253 ;
254 [label="gini = 0.0\nsamples = 1\nvalue = [0, 1, 0, 0]\nclass = detached", fillcolor="#47e539"] ;
252 -> 254 ;
255 [label="gini = 0.0\nsamples = 34\nvalue = [0, 0, 0, 34]\nclass = other", fillcolor="#d739e5"] ;
251 -> 255 ;
256 [label="xy_price_cum_sum <= 109082.509\ngini = 0.444\nsamples = 3\nvalue = [0, 1, 0, 2]\nclass = other", fillcolor="#eb9cf2"] ;
250 -> 256 ;
257 [label="gini = 0.0\nsamples = 2\nvalue = [0, 0, 0, 2]\nclass = other", fillcolor="#d739e5"] ;
256 -> 257 ;
258 [label="gini = 0.0\nsamples = 1\nvalue = [0, 1, 0, 0]\nclass = detached", fillcolor="#47e539"] ;
256 -> 258 ;
259 [label="med_price_xy <= 161638.398\ngini = 0.48\nsamples = 5\nvalue = [0, 3, 0, 2]\nclass = detached", fillcolor="#c2f6bd"] ;
249 -> 259 ;
260 [label="med_price_xy <= 65189.922\ngini = 0.444\nsamples = 3\nvalue = [0, 1, 0, 2]\nclass = other", fillcolor="#eb9cf2"] ;
259 -> 260 ;
261 [label="gini = 0.0\nsamples = 1\nvalue = [0, 1, 0, 0]\nclass = detached", fillcolor="#47e539"] ;
260 -> 261 ;
262 [label="gini = 0.0\nsamples = 2\nvalue = [0, 0, 0, 2]\nclass = other", fillcolor="#d739e5"] ;
260 -> 262 ;
263 [label="gini = 0.0\nsamples = 2\nvalue = [0, 2, 0, 0]\nclass = detached", fillcolor="#47e539"] ;
259 -> 263 ;
264 [label="med_price_xy <= 499830.312\ngini = 0.497\nsamples = 128\nvalue = [0, 69, 0, 59]\nclass = detached", fillcolor="#e4fbe2"] ;
248 -> 264 ;
265 [label="Dwel <= 152.5\ngini = 0.399\nsamples = 69\nvalue = [0, 50, 0, 19]\nclass = detached", fillcolor="#8def84"] ;
264 -> 265 ;
266 [label="xy_years_to_next_sale <= 5.43\ngini = 0.463\nsamples = 11\nvalue = [0, 4, 0, 7]\nclass = other", fillcolor="#eeaaf4"] ;
265 -> 266 ;
267 [label="gini = 0.0\nsamples = 2\nvalue = [0, 2, 0, 0]\nclass = detached", fillcolor="#47e539"] ;
266 -> 267 ;
268 [label="Sgl_att <= 2.5\ngini = 0.346\nsamples = 9\nvalue = [0, 2, 0, 7]\nclass = other", fillcolor="#e272ec"] ;
266 -> 268 ;
269 [label="Avg_HHsize <= 2.808\ngini = 0.444\nsamples = 3\nvalue = [0, 2, 0, 1]\nclass = detached", fillcolor="#a3f29c"] ;
268 -> 269 ;
270 [label="gini = 0.5\nsamples = 2\nvalue = [0, 1, 0, 1]\nclass = detached", fillcolor="#ffffff"] ;
269 -> 270 ;
271 [label="gini = 0.0\nsamples = 1\nvalue = [0, 1, 0, 0]\nclass = detached", fillcolor="#47e539"] ;
269 -> 271 ;
272 [label="gini = 0.0\nsamples = 6\nvalue = [0, 0, 0, 6]\nclass = other", fillcolor="#d739e5"] ;
268 -> 272 ;
273 [label="Jobs <= 88.5\ngini = 0.328\nsamples = 58\nvalue = [0, 46, 0, 12]\nclass = detached", fillcolor="#77ec6d"] ;
265 -> 273 ;
274 [label="med_price_xy <= 411408.75\ngini = 0.48\nsamples = 5\nvalue = [0, 2, 0, 3]\nclass = other", fillcolor="#f2bdf6"] ;
273 -> 274 ;
275 [label="gini = 0.0\nsamples = 2\nvalue = [0, 2, 0, 0]\nclass = detached", fillcolor="#47e539"] ;
274 -> 275 ;
276 [label="gini = 0.0\nsamples = 3\nvalue = [0, 0, 0, 3]\nclass = other", fillcolor="#d739e5"] ;
274 -> 276 ;
277 [label="xy_price_cum_sum <= 216378.0\ngini = 0.282\nsamples = 53\nvalue = [0, 44, 0, 9]\nclass = detached", fillcolor="#6dea61"] ;
273 -> 277 ;
278 [label="DwelDens <= 55.163\ngini = 0.444\nsamples = 3\nvalue = [0, 1, 0, 2]\nclass = other", fillcolor="#eb9cf2"] ;
277 -> 278 ;
279 [label="gini = 0.0\nsamples = 1\nvalue = [0, 1, 0, 0]\nclass = detached", fillcolor="#47e539"] ;
278 -> 279 ;
280 [label="gini = 0.0\nsamples = 2\nvalue = [0, 0, 0, 2]\nclass = other", fillcolor="#d739e5"] ;
278 -> 280 ;
281 [label="Avg_rent <= 1201.292\ngini = 0.241\nsamples = 50\nvalue = [0, 43, 0, 7]\nclass = detached", fillcolor="#65e959"] ;
277 -> 281 ;
282 [label="gini = 0.215\nsamples = 49\nvalue = [0, 43, 0, 6]\nclass = detached", fillcolor="#61e955"] ;
281 -> 282 ;
283 [label="gini = 0.0\nsamples = 1\nvalue = [0, 0, 0, 1]\nclass = other", fillcolor="#d739e5"] ;
281 -> 283 ;
284 [label="med_price_xy <= 1244628.25\ngini = 0.437\nsamples = 59\nvalue = [0, 19, 0, 40]\nclass = other", fillcolor="#ea97f1"] ;
264 -> 284 ;
285 [label="Sgl_det <= 184.0\ngini = 0.491\nsamples = 44\nvalue = [0, 19, 0, 25]\nclass = other", fillcolor="#f5cff9"] ;
284 -> 285 ;
286 [label="Dwel <= 166.0\ngini = 0.491\nsamples = 30\nvalue = [0, 17, 0, 13]\nclass = detached", fillcolor="#d4f9d0"] ;
285 -> 286 ;
287 [label="med_price_xy <= 555018.219\ngini = 0.475\nsamples = 18\nvalue = [0, 7, 0, 11]\nclass = other", fillcolor="#f0b7f6"] ;
286 -> 287 ;
288 [label="gini = 0.0\nsamples = 2\nvalue = [0, 2, 0, 0]\nclass = detached", fillcolor="#47e539"] ;
287 -> 288 ;
289 [label="gini = 0.43\nsamples = 16\nvalue = [0, 5, 0, 11]\nclass = other", fillcolor="#e993f1"] ;
287 -> 289 ;
290 [label="med_price_xy <= 544851.938\ngini = 0.278\nsamples = 12\nvalue = [0, 10, 0, 2]\nclass = detached", fillcolor="#6cea61"] ;
286 -> 290 ;
291 [label="gini = 0.0\nsamples = 1\nvalue = [0, 0, 0, 1]\nclass = other", fillcolor="#d739e5"] ;
290 -> 291 ;
292 [label="gini = 0.165\nsamples = 11\nvalue = [0, 10, 0, 1]\nclass = detached", fillcolor="#59e84d"] ;
290 -> 292 ;
293 [label="Avg_HHsize <= 2.888\ngini = 0.245\nsamples = 14\nvalue = [0, 2, 0, 12]\nclass = other", fillcolor="#de5ae9"] ;
285 -> 293 ;
294 [label="gini = 0.0\nsamples = 8\nvalue = [0, 0, 0, 8]\nclass = other", fillcolor="#d739e5"] ;
293 -> 294 ;
295 [label="med_price_xy <= 605534.25\ngini = 0.444\nsamples = 6\nvalue = [0, 2, 0, 4]\nclass = other", fillcolor="#eb9cf2"] ;
293 -> 295 ;
296 [label="gini = 0.444\nsamples = 3\nvalue = [0, 2, 0, 1]\nclass = detached", fillcolor="#a3f29c"] ;
295 -> 296 ;
297 [label="gini = 0.0\nsamples = 3\nvalue = [0, 0, 0, 3]\nclass = other", fillcolor="#d739e5"] ;
295 -> 297 ;
298 [label="gini = 0.0\nsamples = 15\nvalue = [0, 0, 0, 15]\nclass = other", fillcolor="#d739e5"] ;
284 -> 298 ;
299 [label="xy_price_cum_sum <= 368489.891\ngini = 0.194\nsamples = 55\nvalue = [0, 6, 0, 49]\nclass = other", fillcolor="#dc51e8"] ;
247 -> 299 ;
300 [label="med_price_xy <= 502232.125\ngini = 0.077\nsamples = 50\nvalue = [0, 2, 0, 48]\nclass = other", fillcolor="#d941e6"] ;
299 -> 300 ;
301 [label="xy_years_to_next_sale <= 1.37\ngini = 0.04\nsamples = 49\nvalue = [0, 1, 0, 48]\nclass = other", fillcolor="#d83de6"] ;
300 -> 301 ;
302 [label="xy_years_to_next_sale <= 1.325\ngini = 0.278\nsamples = 6\nvalue = [0, 1, 0, 5]\nclass = other", fillcolor="#df61ea"] ;
301 -> 302 ;
303 [label="gini = 0.0\nsamples = 5\nvalue = [0, 0, 0, 5]\nclass = other", fillcolor="#d739e5"] ;
302 -> 303 ;
304 [label="gini = 0.0\nsamples = 1\nvalue = [0, 1, 0, 0]\nclass = detached", fillcolor="#47e539"] ;
302 -> 304 ;
305 [label="gini = 0.0\nsamples = 43\nvalue = [0, 0, 0, 43]\nclass = other", fillcolor="#d739e5"] ;
301 -> 305 ;
306 [label="gini = 0.0\nsamples = 1\nvalue = [0, 1, 0, 0]\nclass = detached", fillcolor="#47e539"] ;
300 -> 306 ;
307 [label="xy_price_cum_sum <= 383042.219\ngini = 0.32\nsamples = 5\nvalue = [0, 4, 0, 1]\nclass = detached", fillcolor="#75ec6a"] ;
299 -> 307 ;
308 [label="Sgl_det <= 147.5\ngini = 0.5\nsamples = 2\nvalue = [0, 1, 0, 1]\nclass = detached", fillcolor="#ffffff"] ;
307 -> 308 ;
309 [label="gini = 0.0\nsamples = 1\nvalue = [0, 1, 0, 0]\nclass = detached", fillcolor="#47e539"] ;
308 -> 309 ;
310 [label="gini = 0.0\nsamples = 1\nvalue = [0, 0, 0, 1]\nclass = other", fillcolor="#d739e5"] ;
308 -> 310 ;
311 [label="gini = 0.0\nsamples = 3\nvalue = [0, 3, 0, 0]\nclass = detached", fillcolor="#47e539"] ;
307 -> 311 ;
312 [label="Jobs <= 2054.0\ngini = 0.319\nsamples = 716\nvalue = [0, 575, 5, 136]\nclass = detached", fillcolor="#74eb69"] ;
210 -> 312 ;
313 [label="Cars <= 5914.5\ngini = 0.209\nsamples = 538\nvalue = [0, 475, 5, 58]\nclass = detached", fillcolor="#5fe853"] ;
312 -> 313 ;
314 [label="xy_price_cum_sum <= 83079.5\ngini = 0.178\nsamples = 511\nvalue = [0, 461, 5, 45]\nclass = detached", fillcolor="#5be84e"] ;
313 -> 314 ;
315 [label="Cars <= 2168.5\ngini = 0.497\nsamples = 13\nvalue = [0, 6, 0, 7]\nclass = other", fillcolor="#f9e3fb"] ;
314 -> 315 ;
316 [label="med_price_xy <= 207800.023\ngini = 0.278\nsamples = 6\nvalue = [0, 5, 0, 1]\nclass = detached", fillcolor="#6cea61"] ;
315 -> 316 ;
317 [label="gini = 0.0\nsamples = 5\nvalue = [0, 5, 0, 0]\nclass = detached", fillcolor="#47e539"] ;
316 -> 317 ;
318 [label="gini = 0.0\nsamples = 1\nvalue = [0, 0, 0, 1]\nclass = other", fillcolor="#d739e5"] ;
316 -> 318 ;
319 [label="Cars <= 3307.0\ngini = 0.245\nsamples = 7\nvalue = [0, 1, 0, 6]\nclass = other", fillcolor="#de5ae9"] ;
315 -> 319 ;
320 [label="gini = 0.0\nsamples = 6\nvalue = [0, 0, 0, 6]\nclass = other", fillcolor="#d739e5"] ;
319 -> 320 ;
321 [label="gini = 0.0\nsamples = 1\nvalue = [0, 1, 0, 0]\nclass = detached", fillcolor="#47e539"] ;
319 -> 321 ;
322 [label="PT <= 11.5\ngini = 0.159\nsamples = 498\nvalue = [0, 455, 5, 38]\nclass = detached", fillcolor="#58e74c"] ;
314 -> 322 ;
323 [label="Sgl_det <= 179.5\ngini = 0.273\nsamples = 207\nvalue = [0, 174, 4, 29]\nclass = detached", fillcolor="#69ea5e"] ;
322 -> 323 ;
324 [label="Sgl_att <= 12.5\ngini = 0.383\nsamples = 115\nvalue = [0, 87, 4, 24]\nclass = detached", fillcolor="#80ed76"] ;
323 -> 324 ;
325 [label="xy_price_cum_sum <= 1160307.5\ngini = 0.153\nsamples = 60\nvalue = [0, 55, 0, 5]\nclass = detached", fillcolor="#58e74b"] ;
324 -> 325 ;
326 [label="PT <= 7.5\ngini = 0.126\nsamples = 59\nvalue = [0, 55, 0, 4]\nclass = detached", fillcolor="#54e747"] ;
325 -> 326 ;
327 [label="gini = 0.098\nsamples = 58\nvalue = [0, 55, 0, 3]\nclass = detached", fillcolor="#51e644"] ;
326 -> 327 ;
328 [label="gini = 0.0\nsamples = 1\nvalue = [0, 0, 0, 1]\nclass = other", fillcolor="#d739e5"] ;
326 -> 328 ;
329 [label="gini = 0.0\nsamples = 1\nvalue = [0, 0, 0, 1]\nclass = other", fillcolor="#d739e5"] ;
325 -> 329 ;
330 [label="xy_years_to_next_sale <= 1.585\ngini = 0.537\nsamples = 55\nvalue = [0, 32, 4, 19]\nclass = detached", fillcolor="#bdf6b8"] ;
324 -> 330 ;
331 [label="med_price_xy <= 276849.953\ngini = 0.278\nsamples = 6\nvalue = [0, 1, 0, 5]\nclass = other", fillcolor="#df61ea"] ;
330 -> 331 ;
332 [label="gini = 0.0\nsamples = 1\nvalue = [0, 1, 0, 0]\nclass = detached", fillcolor="#47e539"] ;
331 -> 332 ;
333 [label="gini = 0.0\nsamples = 5\nvalue = [0, 0, 0, 5]\nclass = other", fillcolor="#d739e5"] ;
331 -> 333 ;
334 [label="Sgl_att <= 32.5\ngini = 0.511\nsamples = 49\nvalue = [0, 31, 4, 14]\nclass = detached", fillcolor="#a6f29f"] ;
330 -> 334 ;
335 [label="gini = 0.584\nsamples = 32\nvalue = [0, 17, 4, 11]\nclass = detached", fillcolor="#caf8c6"] ;
334 -> 335 ;
336 [label="gini = 0.291\nsamples = 17\nvalue = [0, 14, 0, 3]\nclass = detached", fillcolor="#6eeb63"] ;
334 -> 336 ;
337 [label="med_price_xy <= 729476.125\ngini = 0.103\nsamples = 92\nvalue = [0, 87, 0, 5]\nclass = detached", fillcolor="#52e644"] ;
323 -> 337 ;
338 [label="Jobs <= 281.0\ngini = 0.046\nsamples = 84\nvalue = [0, 82, 0, 2]\nclass = detached", fillcolor="#4be63e"] ;
337 -> 338 ;
339 [label="xy_total_sales <= 1.5\ngini = 0.298\nsamples = 11\nvalue = [0, 9, 0, 2]\nclass = detached", fillcolor="#70eb65"] ;
338 -> 339 ;
340 [label="gini = 0.18\nsamples = 10\nvalue = [0, 9, 0, 1]\nclass = detached", fillcolor="#5be84f"] ;
339 -> 340 ;
341 [label="gini = 0.0\nsamples = 1\nvalue = [0, 0, 0, 1]\nclass = other", fillcolor="#d739e5"] ;
339 -> 341 ;
342 [label="gini = 0.0\nsamples = 73\nvalue = [0, 73, 0, 0]\nclass = detached", fillcolor="#47e539"] ;
338 -> 342 ;
343 [label="Sgl_det <= 242.0\ngini = 0.469\nsamples = 8\nvalue = [0, 5, 0, 3]\nclass = detached", fillcolor="#b5f5b0"] ;
337 -> 343 ;
344 [label="gini = 0.0\nsamples = 5\nvalue = [0, 5, 0, 0]\nclass = detached", fillcolor="#47e539"] ;
343 -> 344 ;
345 [label="gini = 0.0\nsamples = 3\nvalue = [0, 0, 0, 3]\nclass = other", fillcolor="#d739e5"] ;
343 -> 345 ;
346 [label="Dwel <= 342.0\ngini = 0.067\nsamples = 291\nvalue = [0, 281, 1, 9]\nclass = detached", fillcolor="#4ee640"] ;
322 -> 346 ;
347 [label="xy_price_cum_sum <= 3352422.375\ngini = 0.06\nsamples = 290\nvalue = [0, 281, 1, 8]\nclass = detached", fillcolor="#4de63f"] ;
346 -> 347 ;
348 [label="Walk <= 22.5\ngini = 0.054\nsamples = 289\nvalue = [0, 281, 1, 7]\nclass = detached", fillcolor="#4ce63f"] ;
347 -> 348 ;
349 [label="xy_price_cum_sum <= 163565.25\ngini = 0.029\nsamples = 269\nvalue = [0, 265, 1, 3]\nclass = detached", fillcolor="#4ae53c"] ;
348 -> 349 ;
350 [label="gini = 0.32\nsamples = 5\nvalue = [0, 4, 0, 1]\nclass = detached", fillcolor="#75ec6a"] ;
349 -> 350 ;
351 [label="gini = 0.023\nsamples = 264\nvalue = [0, 261, 1, 2]\nclass = detached", fillcolor="#49e53b"] ;
349 -> 351 ;
352 [label="xy_price_cum_sum <= 1170524.25\ngini = 0.32\nsamples = 20\nvalue = [0, 16, 0, 4]\nclass = detached", fillcolor="#75ec6a"] ;
348 -> 352 ;
353 [label="gini = 0.111\nsamples = 17\nvalue = [0, 16, 0, 1]\nclass = detached", fillcolor="#52e745"] ;
352 -> 353 ;
354 [label="gini = 0.0\nsamples = 3\nvalue = [0, 0, 0, 3]\nclass = other", fillcolor="#d739e5"] ;
352 -> 354 ;
355 [label="gini = 0.0\nsamples = 1\nvalue = [0, 0, 0, 1]\nclass = other", fillcolor="#d739e5"] ;
347 -> 355 ;
356 [label="gini = 0.0\nsamples = 1\nvalue = [0, 0, 0, 1]\nclass = other", fillcolor="#d739e5"] ;
346 -> 356 ;
357 [label="xy_years_to_next_sale <= 2.952\ngini = 0.499\nsamples = 27\nvalue = [0, 14, 0, 13]\nclass = detached", fillcolor="#f2fdf1"] ;
313 -> 357 ;
358 [label="Jobs <= 1146.5\ngini = 0.133\nsamples = 14\nvalue = [0, 1, 0, 13]\nclass = other", fillcolor="#da48e7"] ;
357 -> 358 ;
359 [label="gini = 0.0\nsamples = 13\nvalue = [0, 0, 0, 13]\nclass = other", fillcolor="#d739e5"] ;
358 -> 359 ;
360 [label="gini = 0.0\nsamples = 1\nvalue = [0, 1, 0, 0]\nclass = detached", fillcolor="#47e539"] ;
358 -> 360 ;
361 [label="gini = 0.0\nsamples = 13\nvalue = [0, 13, 0, 0]\nclass = detached", fillcolor="#47e539"] ;
357 -> 361 ;
362 [label="Cars <= 2013.5\ngini = 0.492\nsamples = 178\nvalue = [0, 100, 0, 78]\nclass = detached", fillcolor="#d7f9d3"] ;
312 -> 362 ;
363 [label="Avg_HHsize <= 2.75\ngini = 0.385\nsamples = 96\nvalue = [0, 25, 0, 71]\nclass = other", fillcolor="#e57fee"] ;
362 -> 363 ;
364 [label="xy_price_cum_sum <= 1032823.438\ngini = 0.492\nsamples = 39\nvalue = [0, 22, 0, 17]\nclass = detached", fillcolor="#d5f9d2"] ;
363 -> 364 ;
365 [label="med_price_xy <= 74564.797\ngini = 0.337\nsamples = 28\nvalue = [0, 22, 0, 6]\nclass = detached", fillcolor="#79ec6f"] ;
364 -> 365 ;
366 [label="gini = 0.0\nsamples = 4\nvalue = [0, 0, 0, 4]\nclass = other", fillcolor="#d739e5"] ;
365 -> 366 ;
367 [label="DwelDens <= 272.599\ngini = 0.153\nsamples = 24\nvalue = [0, 22, 0, 2]\nclass = detached", fillcolor="#58e74b"] ;
365 -> 367 ;
368 [label="gini = 0.0\nsamples = 17\nvalue = [0, 17, 0, 0]\nclass = detached", fillcolor="#47e539"] ;
367 -> 368 ;
369 [label="xy_price_cum_sum <= 711285.922\ngini = 0.408\nsamples = 7\nvalue = [0, 5, 0, 2]\nclass = detached", fillcolor="#91ef88"] ;
367 -> 369 ;
370 [label="xy_price_cum_sum <= 130387.125\ngini = 0.278\nsamples = 6\nvalue = [0, 5, 0, 1]\nclass = detached", fillcolor="#6cea61"] ;
369 -> 370 ;
371 [label="gini = 0.0\nsamples = 3\nvalue = [0, 3, 0, 0]\nclass = detached", fillcolor="#47e539"] ;
370 -> 371 ;
372 [label="gini = 0.444\nsamples = 3\nvalue = [0, 2, 0, 1]\nclass = detached", fillcolor="#a3f29c"] ;
370 -> 372 ;
373 [label="gini = 0.0\nsamples = 1\nvalue = [0, 0, 0, 1]\nclass = other", fillcolor="#d739e5"] ;
369 -> 373 ;
374 [label="gini = 0.0\nsamples = 11\nvalue = [0, 0, 0, 11]\nclass = other", fillcolor="#d739e5"] ;
364 -> 374 ;
375 [label="DwelDens <= 426.963\ngini = 0.1\nsamples = 57\nvalue = [0, 3, 0, 54]\nclass = other", fillcolor="#d944e6"] ;
363 -> 375 ;
376 [label="gini = 0.0\nsamples = 48\nvalue = [0, 0, 0, 48]\nclass = other", fillcolor="#d739e5"] ;
375 -> 376 ;
377 [label="med_price_xy <= 1816035.0\ngini = 0.444\nsamples = 9\nvalue = [0, 3, 0, 6]\nclass = other", fillcolor="#eb9cf2"] ;
375 -> 377 ;
378 [label="xy_price_cum_sum <= 539825.75\ngini = 0.375\nsamples = 4\nvalue = [0, 3, 0, 1]\nclass = detached", fillcolor="#84ee7b"] ;
377 -> 378 ;
379 [label="gini = 0.0\nsamples = 1\nvalue = [0, 0, 0, 1]\nclass = other", fillcolor="#d739e5"] ;
378 -> 379 ;
380 [label="gini = 0.0\nsamples = 3\nvalue = [0, 3, 0, 0]\nclass = detached", fillcolor="#47e539"] ;
378 -> 380 ;
381 [label="gini = 0.0\nsamples = 5\nvalue = [0, 0, 0, 5]\nclass = other", fillcolor="#d739e5"] ;
377 -> 381 ;
382 [label="med_price_xy <= 931371.0\ngini = 0.156\nsamples = 82\nvalue = [0, 75, 0, 7]\nclass = detached", fillcolor="#58e74b"] ;
362 -> 382 ;
383 [label="xy_price_cum_sum <= 157964.797\ngini = 0.057\nsamples = 68\nvalue = [0, 66, 0, 2]\nclass = detached", fillcolor="#4de63f"] ;
382 -> 383 ;
384 [label="med_price_xy <= 246428.398\ngini = 0.5\nsamples = 4\nvalue = [0, 2, 0, 2]\nclass = detached", fillcolor="#ffffff"] ;
383 -> 384 ;
385 [label="gini = 0.0\nsamples = 1\nvalue = [0, 1, 0, 0]\nclass = detached", fillcolor="#47e539"] ;
384 -> 385 ;
386 [label="xy_years_to_next_sale <= 2.545\ngini = 0.444\nsamples = 3\nvalue = [0, 1, 0, 2]\nclass = other", fillcolor="#eb9cf2"] ;
384 -> 386 ;
387 [label="gini = 0.5\nsamples = 2\nvalue = [0, 1, 0, 1]\nclass = detached", fillcolor="#ffffff"] ;
386 -> 387 ;
388 [label="gini = 0.0\nsamples = 1\nvalue = [0, 0, 0, 1]\nclass = other", fillcolor="#d739e5"] ;
386 -> 388 ;
389 [label="gini = 0.0\nsamples = 64\nvalue = [0, 64, 0, 0]\nclass = detached", fillcolor="#47e539"] ;
383 -> 389 ;
390 [label="PT <= 22.5\ngini = 0.459\nsamples = 14\nvalue = [0, 9, 0, 5]\nclass = detached", fillcolor="#adf3a7"] ;
382 -> 390 ;
391 [label="Sgl_det <= 135.0\ngini = 0.494\nsamples = 9\nvalue = [0, 4, 0, 5]\nclass = other", fillcolor="#f7d7fa"] ;
390 -> 391 ;
392 [label="xy_price_cum_sum <= 1233719.0\ngini = 0.49\nsamples = 7\nvalue = [0, 4, 0, 3]\nclass = detached", fillcolor="#d1f8ce"] ;
391 -> 392 ;
393 [label="med_price_xy <= 942346.062\ngini = 0.32\nsamples = 5\nvalue = [0, 4, 0, 1]\nclass = detached", fillcolor="#75ec6a"] ;
392 -> 393 ;
394 [label="gini = 0.5\nsamples = 2\nvalue = [0, 1, 0, 1]\nclass = detached", fillcolor="#ffffff"] ;
393 -> 394 ;
395 [label="gini = 0.0\nsamples = 3\nvalue = [0, 3, 0, 0]\nclass = detached", fillcolor="#47e539"] ;
393 -> 395 ;
396 [label="gini = 0.0\nsamples = 2\nvalue = [0, 0, 0, 2]\nclass = other", fillcolor="#d739e5"] ;
392 -> 396 ;
397 [label="gini = 0.0\nsamples = 2\nvalue = [0, 0, 0, 2]\nclass = other", fillcolor="#d739e5"] ;
391 -> 397 ;
398 [label="gini = 0.0\nsamples = 5\nvalue = [0, 5, 0, 0]\nclass = detached", fillcolor="#47e539"] ;
390 -> 398 ;
399 [label="Avg_HHsize <= 2.789\ngini = 0.495\nsamples = 1056\nvalue = [3, 376, 28, 649]\nclass = other", fillcolor="#efb0f5"] ;
209 -> 399 ;
400 [label="Cars <= 1616.0\ngini = 0.536\nsamples = 547\nvalue = [3, 272, 18, 254]\nclass = detached", fillcolor="#f4fdf3"] ;
399 -> 400 ;
401 [label="Cars <= 1475.0\ngini = 0.469\nsamples = 284\nvalue = [1, 81, 12, 190]\nclass = other", fillcolor="#ea95f1"] ;
400 -> 401 ;
402 [label="Cars <= 119.0\ngini = 0.568\nsamples = 155\nvalue = [0, 72, 12, 71]\nclass = detached", fillcolor="#fdfffd"] ;
401 -> 402 ;
403 [label="gini = 0.0\nsamples = 26\nvalue = [0, 0, 0, 26]\nclass = other", fillcolor="#d739e5"] ;
402 -> 403 ;
404 [label="Avg_rent <= 1038.611\ngini = 0.558\nsamples = 129\nvalue = [0, 72, 12, 45]\nclass = detached", fillcolor="#c4f7bf"] ;
402 -> 404 ;
405 [label="Sgl_att <= 176.0\ngini = 0.401\nsamples = 82\nvalue = [0, 61, 4, 17]\nclass = detached", fillcolor="#82ed79"] ;
404 -> 405 ;
406 [label="xy_price_cum_sum <= 689882.406\ngini = 0.282\nsamples = 73\nvalue = [0, 61, 2, 10]\nclass = detached", fillcolor="#6aea5f"] ;
405 -> 406 ;
407 [label="med_price_xy <= 471140.172\ngini = 0.154\nsamples = 61\nvalue = [0, 56, 2, 3]\nclass = detached", fillcolor="#57e74a"] ;
406 -> 407 ;
408 [label="DwelDens <= 164.936\ngini = 0.108\nsamples = 53\nvalue = [0, 50, 2, 1]\nclass = detached", fillcolor="#52e745"] ;
407 -> 408 ;
409 [label="gini = 0.32\nsamples = 16\nvalue = [0, 13, 2, 1]\nclass = detached", fillcolor="#6eeb63"] ;
408 -> 409 ;
410 [label="gini = 0.0\nsamples = 37\nvalue = [0, 37, 0, 0]\nclass = detached", fillcolor="#47e539"] ;
408 -> 410 ;
411 [label="DwelDens <= 418.96\ngini = 0.375\nsamples = 8\nvalue = [0, 6, 0, 2]\nclass = detached", fillcolor="#84ee7b"] ;
407 -> 411 ;
412 [label="gini = 0.0\nsamples = 6\nvalue = [0, 6, 0, 0]\nclass = detached", fillcolor="#47e539"] ;
411 -> 412 ;
413 [label="gini = 0.0\nsamples = 2\nvalue = [0, 0, 0, 2]\nclass = other", fillcolor="#d739e5"] ;
411 -> 413 ;
414 [label="Avg_rent <= 928.5\ngini = 0.486\nsamples = 12\nvalue = [0, 5, 0, 7]\nclass = other", fillcolor="#f4c6f8"] ;
406 -> 414 ;
415 [label="gini = 0.0\nsamples = 7\nvalue = [0, 0, 0, 7]\nclass = other", fillcolor="#d739e5"] ;
414 -> 415 ;
416 [label="gini = 0.0\nsamples = 5\nvalue = [0, 5, 0, 0]\nclass = detached", fillcolor="#47e539"] ;
414 -> 416 ;
417 [label="PT <= 8.0\ngini = 0.346\nsamples = 9\nvalue = [0, 0, 2, 7]\nclass = other", fillcolor="#e272ec"] ;
405 -> 417 ;
418 [label="xy_price_cum_sum <= 1537664.0\ngini = 0.444\nsamples = 3\nvalue = [0, 0, 2, 1]\nclass = duplex_townhouse", fillcolor="#9ccef2"] ;
417 -> 418 ;
419 [label="gini = 0.0\nsamples = 2\nvalue = [0, 0, 2, 0]\nclass = duplex_townhouse", fillcolor="#399de5"] ;
418 -> 419 ;
420 [label="gini = 0.0\nsamples = 1\nvalue = [0, 0, 0, 1]\nclass = other", fillcolor="#d739e5"] ;
418 -> 420 ;
421 [label="gini = 0.0\nsamples = 6\nvalue = [0, 0, 0, 6]\nclass = other", fillcolor="#d739e5"] ;
417 -> 421 ;
422 [label="xy_price_cum_sum <= 157440.0\ngini = 0.561\nsamples = 47\nvalue = [0, 11, 8, 28]\nclass = other", fillcolor="#eca2f3"] ;
404 -> 422 ;
423 [label="gini = 0.0\nsamples = 17\nvalue = [0, 0, 0, 17]\nclass = other", fillcolor="#d739e5"] ;
422 -> 423 ;
424 [label="Sgl_det <= 94.5\ngini = 0.66\nsamples = 30\nvalue = [0, 11, 8, 11]\nclass = detached", fillcolor="#ffffff"] ;
422 -> 424 ;
425 [label="med_price_xy <= 6348966.0\ngini = 0.245\nsamples = 7\nvalue = [0, 0, 6, 1]\nclass = duplex_townhouse", fillcolor="#5aade9"] ;
424 -> 425 ;
426 [label="gini = 0.0\nsamples = 6\nvalue = [0, 0, 6, 0]\nclass = duplex_townhouse", fillcolor="#399de5"] ;
425 -> 426 ;
427 [label="gini = 0.0\nsamples = 1\nvalue = [0, 0, 0, 1]\nclass = other", fillcolor="#d739e5"] ;
425 -> 427 ;
428 [label="med_price_xy <= 796977.25\ngini = 0.575\nsamples = 23\nvalue = [0, 11, 2, 10]\nclass = detached", fillcolor="#f1fdf0"] ;
424 -> 428 ;
429 [label="Avg_HHsize <= 2.3\ngini = 0.537\nsamples = 18\nvalue = [0, 11, 2, 5]\nclass = detached", fillcolor="#aaf3a4"] ;
428 -> 429 ;
430 [label="gini = 0.64\nsamples = 10\nvalue = [0, 4, 2, 4]\nclass = detached", fillcolor="#ffffff"] ;
429 -> 430 ;
431 [label="gini = 0.219\nsamples = 8\nvalue = [0, 7, 0, 1]\nclass = detached", fillcolor="#61e955"] ;
429 -> 431 ;
432 [label="gini = 0.0\nsamples = 5\nvalue = [0, 0, 0, 5]\nclass = other", fillcolor="#d739e5"] ;
428 -> 432 ;
433 [label="med_price_xy <= 242390.797\ngini = 0.144\nsamples = 129\nvalue = [1, 9, 0, 119]\nclass = other", fillcolor="#da4ae7"] ;
401 -> 433 ;
434 [label="med_price_xy <= 162614.531\ngini = 0.494\nsamples = 9\nvalue = [0, 4, 0, 5]\nclass = other", fillcolor="#f7d7fa"] ;
433 -> 434 ;
435 [label="gini = 0.0\nsamples = 4\nvalue = [0, 0, 0, 4]\nclass = other", fillcolor="#d739e5"] ;
434 -> 435 ;
436 [label="xy_price_cum_sum <= 189977.602\ngini = 0.32\nsamples = 5\nvalue = [0, 4, 0, 1]\nclass = detached", fillcolor="#75ec6a"] ;
434 -> 436 ;
437 [label="gini = 0.0\nsamples = 2\nvalue = [0, 2, 0, 0]\nclass = detached", fillcolor="#47e539"] ;
436 -> 437 ;
438 [label="med_price_xy <= 212240.102\ngini = 0.444\nsamples = 3\nvalue = [0, 2, 0, 1]\nclass = detached", fillcolor="#a3f29c"] ;
436 -> 438 ;
439 [label="gini = 0.0\nsamples = 1\nvalue = [0, 0, 0, 1]\nclass = other", fillcolor="#d739e5"] ;
438 -> 439 ;
440 [label="gini = 0.0\nsamples = 2\nvalue = [0, 2, 0, 0]\nclass = detached", fillcolor="#47e539"] ;
438 -> 440 ;
441 [label="xy_years_to_next_sale <= 0.418\ngini = 0.096\nsamples = 120\nvalue = [1, 5, 0, 114]\nclass = other", fillcolor="#d943e6"] ;
433 -> 441 ;
442 [label="Jobs <= 1043.0\ngini = 0.5\nsamples = 2\nvalue = [0, 1, 0, 1]\nclass = detached", fillcolor="#ffffff"] ;
441 -> 442 ;
443 [label="gini = 0.0\nsamples = 1\nvalue = [0, 1, 0, 0]\nclass = detached", fillcolor="#47e539"] ;
442 -> 443 ;
444 [label="gini = 0.0\nsamples = 1\nvalue = [0, 0, 0, 1]\nclass = other", fillcolor="#d739e5"] ;
442 -> 444 ;
445 [label="xy_years_to_next_sale <= 3.429\ngini = 0.082\nsamples = 118\nvalue = [1, 4, 0, 113]\nclass = other", fillcolor="#d942e6"] ;
441 -> 445 ;
446 [label="gini = 0.0\nsamples = 58\nvalue = [0, 0, 0, 58]\nclass = other", fillcolor="#d739e5"] ;
445 -> 446 ;
447 [label="Jobs <= 318.0\ngini = 0.155\nsamples = 60\nvalue = [1, 4, 0, 55]\nclass = other", fillcolor="#db4be7"] ;
445 -> 447 ;
448 [label="xy_years_to_next_sale <= 4.086\ngini = 0.444\nsamples = 3\nvalue = [0, 2, 0, 1]\nclass = detached", fillcolor="#a3f29c"] ;
447 -> 448 ;
449 [label="gini = 0.0\nsamples = 1\nvalue = [0, 0, 0, 1]\nclass = other", fillcolor="#d739e5"] ;
448 -> 449 ;
450 [label="gini = 0.0\nsamples = 2\nvalue = [0, 2, 0, 0]\nclass = detached", fillcolor="#47e539"] ;
448 -> 450 ;
451 [label="xy_years_to_next_sale <= 3.782\ngini = 0.101\nsamples = 57\nvalue = [1, 2, 0, 54]\nclass = other", fillcolor="#d944e6"] ;
447 -> 451 ;
452 [label="gini = 0.0\nsamples = 1\nvalue = [0, 1, 0, 0]\nclass = detached", fillcolor="#47e539"] ;
451 -> 452 ;
453 [label="DwelDens <= 549.7\ngini = 0.07\nsamples = 56\nvalue = [1, 1, 0, 54]\nclass = other", fillcolor="#d840e6"] ;
451 -> 453 ;
454 [label="gini = 0.0\nsamples = 36\nvalue = [0, 0, 0, 36]\nclass = other", fillcolor="#d739e5"] ;
453 -> 454 ;
455 [label="gini = 0.185\nsamples = 20\nvalue = [1, 1, 0, 18]\nclass = other", fillcolor="#db4ee8"] ;
453 -> 455 ;
456 [label="xy_price_cum_sum <= 1185042.75\ngini = 0.413\nsamples = 263\nvalue = [2, 191, 6, 64]\nclass = detached", fillcolor="#8aee81"] ;
400 -> 456 ;
457 [label="med_price_xy <= 94354.223\ngini = 0.363\nsamples = 239\nvalue = [2, 185, 6, 46]\nclass = detached", fillcolor="#7aec70"] ;
456 -> 457 ;
458 [label="xy_sale_next_6m <= 0.5\ngini = 0.153\nsamples = 12\nvalue = [0, 1, 0, 11]\nclass = other", fillcolor="#db4be7"] ;
457 -> 458 ;
459 [label="gini = 0.0\nsamples = 11\nvalue = [0, 0, 0, 11]\nclass = other", fillcolor="#d739e5"] ;
458 -> 459 ;
460 [label="gini = 0.0\nsamples = 1\nvalue = [0, 1, 0, 0]\nclass = detached", fillcolor="#47e539"] ;
458 -> 460 ;
461 [label="Cars <= 7413.0\ngini = 0.318\nsamples = 227\nvalue = [2, 184, 6, 35]\nclass = detached", fillcolor="#70eb65"] ;
457 -> 461 ;
462 [label="Avg_rent <= 574.25\ngini = 0.294\nsamples = 221\nvalue = [2, 183, 5, 31]\nclass = detached", fillcolor="#6cea61"] ;
461 -> 462 ;
463 [label="Cars <= 5537.5\ngini = 0.03\nsamples = 65\nvalue = [0, 64, 1, 0]\nclass = detached", fillcolor="#4ae53c"] ;
462 -> 463 ;
464 [label="gini = 0.0\nsamples = 64\nvalue = [0, 64, 0, 0]\nclass = detached", fillcolor="#47e539"] ;
463 -> 464 ;
465 [label="gini = 0.0\nsamples = 1\nvalue = [0, 0, 1, 0]\nclass = duplex_townhouse", fillcolor="#399de5"] ;
463 -> 465 ;
466 [label="PT <= 20.5\ngini = 0.378\nsamples = 156\nvalue = [2, 119, 4, 31]\nclass = detached", fillcolor="#7ded74"] ;
462 -> 466 ;
467 [label="Dwel <= 217.5\ngini = 0.44\nsamples = 79\nvalue = [0, 54, 1, 24]\nclass = detached", fillcolor="#9bf193"] ;
466 -> 467 ;
468 [label="Dwel <= 184.5\ngini = 0.185\nsamples = 29\nvalue = [0, 26, 0, 3]\nclass = detached", fillcolor="#5ce850"] ;
467 -> 468 ;
469 [label="gini = 0.48\nsamples = 5\nvalue = [0, 3, 0, 2]\nclass = detached", fillcolor="#c2f6bd"] ;
468 -> 469 ;
470 [label="gini = 0.08\nsamples = 24\nvalue = [0, 23, 0, 1]\nclass = detached", fillcolor="#4fe642"] ;
468 -> 470 ;
471 [label="med_price_xy <= 867507.031\ngini = 0.51\nsamples = 50\nvalue = [0, 28, 1, 21]\nclass = detached", fillcolor="#d3f9cf"] ;
467 -> 471 ;
472 [label="gini = 0.519\nsamples = 46\nvalue = [0, 24, 1, 21]\nclass = detached", fillcolor="#e9fce7"] ;
471 -> 472 ;
473 [label="gini = 0.0\nsamples = 4\nvalue = [0, 4, 0, 0]\nclass = detached", fillcolor="#47e539"] ;
471 -> 473 ;
474 [label="Dwel <= 187.5\ngini = 0.277\nsamples = 77\nvalue = [2, 65, 3, 7]\nclass = detached", fillcolor="#67e95b"] ;
466 -> 474 ;
475 [label="xy_price_cum_sum <= 429988.5\ngini = 0.543\nsamples = 19\nvalue = [1, 12, 2, 4]\nclass = detached", fillcolor="#9df195"] ;
474 -> 475 ;
476 [label="gini = 0.5\nsamples = 4\nvalue = [0, 0, 2, 2]\nclass = duplex_townhouse", fillcolor="#ffffff"] ;
475 -> 476 ;
477 [label="gini = 0.338\nsamples = 15\nvalue = [1, 12, 0, 2]\nclass = detached", fillcolor="#71eb67"] ;
475 -> 477 ;
478 [label="Jobs <= 516.0\ngini = 0.162\nsamples = 58\nvalue = [1, 53, 1, 3]\nclass = detached", fillcolor="#58e74b"] ;
474 -> 478 ;
479 [label="gini = 0.5\nsamples = 6\nvalue = [1, 4, 0, 1]\nclass = detached", fillcolor="#91ef88"] ;
478 -> 479 ;
480 [label="gini = 0.11\nsamples = 52\nvalue = [0, 49, 1, 2]\nclass = detached", fillcolor="#52e745"] ;
478 -> 480 ;
481 [label="DwelDens <= 394.13\ngini = 0.5\nsamples = 6\nvalue = [0, 1, 1, 4]\nclass = other", fillcolor="#e788ef"] ;
461 -> 481 ;
482 [label="xy_price_cum_sum <= 623529.25\ngini = 0.32\nsamples = 5\nvalue = [0, 1, 0, 4]\nclass = other", fillcolor="#e16aec"] ;
481 -> 482 ;
483 [label="gini = 0.0\nsamples = 3\nvalue = [0, 0, 0, 3]\nclass = other", fillcolor="#d739e5"] ;
482 -> 483 ;
484 [label="Cars <= 8759.0\ngini = 0.5\nsamples = 2\nvalue = [0, 1, 0, 1]\nclass = detached", fillcolor="#ffffff"] ;
482 -> 484 ;
485 [label="gini = 0.0\nsamples = 1\nvalue = [0, 1, 0, 0]\nclass = detached", fillcolor="#47e539"] ;
484 -> 485 ;
486 [label="gini = 0.0\nsamples = 1\nvalue = [0, 0, 0, 1]\nclass = other", fillcolor="#d739e5"] ;
484 -> 486 ;
487 [label="gini = 0.0\nsamples = 1\nvalue = [0, 0, 1, 0]\nclass = duplex_townhouse", fillcolor="#399de5"] ;
481 -> 487 ;
488 [label="PopDens <= 1118.64\ngini = 0.375\nsamples = 24\nvalue = [0, 6, 0, 18]\nclass = other", fillcolor="#e47bee"] ;
456 -> 488 ;
489 [label="Avg_rent <= 1131.5\ngini = 0.198\nsamples = 18\nvalue = [0, 2, 0, 16]\nclass = other", fillcolor="#dc52e8"] ;
488 -> 489 ;
490 [label="DwelDens <= 92.94\ngini = 0.117\nsamples = 16\nvalue = [0, 1, 0, 15]\nclass = other", fillcolor="#da46e7"] ;
489 -> 490 ;
491 [label="Sgl_det <= 182.5\ngini = 0.444\nsamples = 3\nvalue = [0, 1, 0, 2]\nclass = other", fillcolor="#eb9cf2"] ;
490 -> 491 ;
492 [label="gini = 0.0\nsamples = 1\nvalue = [0, 0, 0, 1]\nclass = other", fillcolor="#d739e5"] ;
491 -> 492 ;
493 [label="gini = 0.5\nsamples = 2\nvalue = [0, 1, 0, 1]\nclass = detached", fillcolor="#ffffff"] ;
491 -> 493 ;
494 [label="gini = 0.0\nsamples = 13\nvalue = [0, 0, 0, 13]\nclass = other", fillcolor="#d739e5"] ;
490 -> 494 ;
495 [label="PT <= 37.5\ngini = 0.5\nsamples = 2\nvalue = [0, 1, 0, 1]\nclass = detached", fillcolor="#ffffff"] ;
489 -> 495 ;
496 [label="gini = 0.0\nsamples = 1\nvalue = [0, 0, 0, 1]\nclass = other", fillcolor="#d739e5"] ;
495 -> 496 ;
497 [label="gini = 0.0\nsamples = 1\nvalue = [0, 1, 0, 0]\nclass = detached", fillcolor="#47e539"] ;
495 -> 497 ;
498 [label="med_price_xy <= 2598480.0\ngini = 0.444\nsamples = 6\nvalue = [0, 4, 0, 2]\nclass = detached", fillcolor="#a3f29c"] ;
488 -> 498 ;
499 [label="gini = 0.0\nsamples = 4\nvalue = [0, 4, 0, 0]\nclass = detached", fillcolor="#47e539"] ;
498 -> 499 ;
500 [label="gini = 0.0\nsamples = 2\nvalue = [0, 0, 0, 2]\nclass = other", fillcolor="#d739e5"] ;
498 -> 500 ;
501 [label="PT <= 34.5\ngini = 0.356\nsamples = 509\nvalue = [0, 104, 10, 395]\nclass = other", fillcolor="#e271ec"] ;
399 -> 501 ;
502 [label="PopDens <= 489.634\ngini = 0.179\nsamples = 418\nvalue = [0, 37, 4, 377]\nclass = other", fillcolor="#db4ee8"] ;
501 -> 502 ;
503 [label="Cars <= 1687.5\ngini = 0.497\nsamples = 54\nvalue = [0, 21, 1, 32]\nclass = other", fillcolor="#f2bdf6"] ;
502 -> 503 ;
504 [label="xy_price_cum_sum <= 287412.281\ngini = 0.381\nsamples = 39\nvalue = [0, 10, 0, 29]\nclass = other", fillcolor="#e57dee"] ;
503 -> 504 ;
505 [label="xy_price_cum_sum <= 44439.224\ngini = 0.463\nsamples = 11\nvalue = [0, 7, 0, 4]\nclass = detached", fillcolor="#b0f4aa"] ;
504 -> 505 ;
506 [label="gini = 0.0\nsamples = 2\nvalue = [0, 0, 0, 2]\nclass = other", fillcolor="#d739e5"] ;
505 -> 506 ;
507 [label="Jobs <= 294.0\ngini = 0.346\nsamples = 9\nvalue = [0, 7, 0, 2]\nclass = detached", fillcolor="#7cec72"] ;
505 -> 507 ;
508 [label="xy_price_cum_sum <= 82877.602\ngini = 0.5\nsamples = 2\nvalue = [0, 1, 0, 1]\nclass = detached", fillcolor="#ffffff"] ;
507 -> 508 ;
509 [label="gini = 0.0\nsamples = 1\nvalue = [0, 1, 0, 0]\nclass = detached", fillcolor="#47e539"] ;
508 -> 509 ;
510 [label="gini = 0.0\nsamples = 1\nvalue = [0, 0, 0, 1]\nclass = other", fillcolor="#d739e5"] ;
508 -> 510 ;
511 [label="xy_price_cum_sum <= 277123.25\ngini = 0.245\nsamples = 7\nvalue = [0, 6, 0, 1]\nclass = detached", fillcolor="#66e95a"] ;
507 -> 511 ;
512 [label="gini = 0.0\nsamples = 5\nvalue = [0, 5, 0, 0]\nclass = detached", fillcolor="#47e539"] ;
511 -> 512 ;
513 [label="gini = 0.5\nsamples = 2\nvalue = [0, 1, 0, 1]\nclass = detached", fillcolor="#ffffff"] ;
511 -> 513 ;
514 [label="Sgl_att <= 48.0\ngini = 0.191\nsamples = 28\nvalue = [0, 3, 0, 25]\nclass = other", fillcolor="#dc51e8"] ;
504 -> 514 ;
515 [label="med_price_xy <= 576704.812\ngini = 0.48\nsamples = 5\nvalue = [0, 2, 0, 3]\nclass = other", fillcolor="#f2bdf6"] ;
514 -> 515 ;
516 [label="gini = 0.0\nsamples = 2\nvalue = [0, 2, 0, 0]\nclass = detached", fillcolor="#47e539"] ;
515 -> 516 ;
517 [label="gini = 0.0\nsamples = 3\nvalue = [0, 0, 0, 3]\nclass = other", fillcolor="#d739e5"] ;
515 -> 517 ;
518 [label="PopDens <= 52.357\ngini = 0.083\nsamples = 23\nvalue = [0, 1, 0, 22]\nclass = other", fillcolor="#d942e6"] ;
514 -> 518 ;
519 [label="Cars <= 145.5\ngini = 0.278\nsamples = 6\nvalue = [0, 1, 0, 5]\nclass = other", fillcolor="#df61ea"] ;
518 -> 519 ;
520 [label="xy_price_cum_sum <= 812971.5\ngini = 0.5\nsamples = 2\nvalue = [0, 1, 0, 1]\nclass = detached", fillcolor="#ffffff"] ;
519 -> 520 ;
521 [label="gini = 0.0\nsamples = 1\nvalue = [0, 0, 0, 1]\nclass = other", fillcolor="#d739e5"] ;
520 -> 521 ;
522 [label="gini = 0.0\nsamples = 1\nvalue = [0, 1, 0, 0]\nclass = detached", fillcolor="#47e539"] ;
520 -> 522 ;
523 [label="gini = 0.0\nsamples = 4\nvalue = [0, 0, 0, 4]\nclass = other", fillcolor="#d739e5"] ;
519 -> 523 ;
524 [label="gini = 0.0\nsamples = 17\nvalue = [0, 0, 0, 17]\nclass = other", fillcolor="#d739e5"] ;
518 -> 524 ;
525 [label="xy_price_cum_sum <= 685592.781\ngini = 0.418\nsamples = 15\nvalue = [0, 11, 1, 3]\nclass = detached", fillcolor="#84ee7b"] ;
503 -> 525 ;
526 [label="Jobs <= 1382.5\ngini = 0.198\nsamples = 9\nvalue = [0, 8, 1, 0]\nclass = detached", fillcolor="#5ee852"] ;
525 -> 526 ;
527 [label="gini = 0.0\nsamples = 8\nvalue = [0, 8, 0, 0]\nclass = detached", fillcolor="#47e539"] ;
526 -> 527 ;
528 [label="gini = 0.0\nsamples = 1\nvalue = [0, 0, 1, 0]\nclass = duplex_townhouse", fillcolor="#399de5"] ;
526 -> 528 ;
529 [label="xy_total_sales <= 1.5\ngini = 0.5\nsamples = 6\nvalue = [0, 3, 0, 3]\nclass = detached", fillcolor="#ffffff"] ;
525 -> 529 ;
530 [label="Cars <= 2714.0\ngini = 0.375\nsamples = 4\nvalue = [0, 1, 0, 3]\nclass = other", fillcolor="#e47bee"] ;
529 -> 530 ;
531 [label="gini = 0.0\nsamples = 2\nvalue = [0, 0, 0, 2]\nclass = other", fillcolor="#d739e5"] ;
530 -> 531 ;
532 [label="xy_price_cum_sum <= 807451.25\ngini = 0.5\nsamples = 2\nvalue = [0, 1, 0, 1]\nclass = detached", fillcolor="#ffffff"] ;
530 -> 532 ;
533 [label="gini = 0.0\nsamples = 1\nvalue = [0, 0, 0, 1]\nclass = other", fillcolor="#d739e5"] ;
532 -> 533 ;
534 [label="gini = 0.0\nsamples = 1\nvalue = [0, 1, 0, 0]\nclass = detached", fillcolor="#47e539"] ;
532 -> 534 ;
535 [label="gini = 0.0\nsamples = 2\nvalue = [0, 2, 0, 0]\nclass = detached", fillcolor="#47e539"] ;
529 -> 535 ;
536 [label="xy_price_cum_sum <= 564822.812\ngini = 0.1\nsamples = 364\nvalue = [0, 16, 3, 345]\nclass = other", fillcolor="#d944e6"] ;
502 -> 536 ;
537 [label="Cars <= 4885.5\ngini = 0.055\nsamples = 353\nvalue = [0, 8, 2, 343]\nclass = other", fillcolor="#d83fe6"] ;
536 -> 537 ;
538 [label="Cars <= 1487.0\ngini = 0.039\nsamples = 350\nvalue = [0, 6, 1, 343]\nclass = other", fillcolor="#d83de6"] ;
537 -> 538 ;
539 [label="Cars <= 1137.0\ngini = 0.625\nsamples = 4\nvalue = [0, 2, 1, 1]\nclass = detached", fillcolor="#c2f6bd"] ;
538 -> 539 ;
540 [label="gini = 0.0\nsamples = 1\nvalue = [0, 0, 1, 0]\nclass = duplex_townhouse", fillcolor="#399de5"] ;
539 -> 540 ;
541 [label="xy_price_cum_sum <= 364548.594\ngini = 0.444\nsamples = 3\nvalue = [0, 2, 0, 1]\nclass = detached", fillcolor="#a3f29c"] ;
539 -> 541 ;
542 [label="gini = 0.0\nsamples = 2\nvalue = [0, 2, 0, 0]\nclass = detached", fillcolor="#47e539"] ;
541 -> 542 ;
543 [label="gini = 0.0\nsamples = 1\nvalue = [0, 0, 0, 1]\nclass = other", fillcolor="#d739e5"] ;
541 -> 543 ;
544 [label="Cars <= 3216.0\ngini = 0.023\nsamples = 346\nvalue = [0, 4, 0, 342]\nclass = other", fillcolor="#d73be5"] ;
538 -> 544 ;
545 [label="Cars <= 2359.5\ngini = 0.068\nsamples = 114\nvalue = [0, 4, 0, 110]\nclass = other", fillcolor="#d840e6"] ;
544 -> 545 ;
546 [label="xy_price_cum_sum <= 332297.234\ngini = 0.019\nsamples = 106\nvalue = [0, 1, 0, 105]\nclass = other", fillcolor="#d73be5"] ;
545 -> 546 ;
547 [label="gini = 0.5\nsamples = 2\nvalue = [0, 1, 0, 1]\nclass = detached", fillcolor="#ffffff"] ;
546 -> 547 ;
548 [label="gini = 0.0\nsamples = 104\nvalue = [0, 0, 0, 104]\nclass = other", fillcolor="#d739e5"] ;
546 -> 548 ;
549 [label="med_price_xy <= 531507.375\ngini = 0.469\nsamples = 8\nvalue = [0, 3, 0, 5]\nclass = other", fillcolor="#efb0f5"] ;
545 -> 549 ;
550 [label="gini = 0.0\nsamples = 3\nvalue = [0, 3, 0, 0]\nclass = detached", fillcolor="#47e539"] ;
549 -> 550 ;
551 [label="gini = 0.0\nsamples = 5\nvalue = [0, 0, 0, 5]\nclass = other", fillcolor="#d739e5"] ;
549 -> 551 ;
552 [label="gini = 0.0\nsamples = 232\nvalue = [0, 0, 0, 232]\nclass = other", fillcolor="#d739e5"] ;
544 -> 552 ;
553 [label="PopDens <= 1053.816\ngini = 0.444\nsamples = 3\nvalue = [0, 2, 1, 0]\nclass = detached", fillcolor="#a3f29c"] ;
537 -> 553 ;
554 [label="gini = 0.0\nsamples = 1\nvalue = [0, 0, 1, 0]\nclass = duplex_townhouse", fillcolor="#399de5"] ;
553 -> 554 ;
555 [label="gini = 0.0\nsamples = 2\nvalue = [0, 2, 0, 0]\nclass = detached", fillcolor="#47e539"] ;
553 -> 555 ;
556 [label="Cars <= 1278.0\ngini = 0.43\nsamples = 11\nvalue = [0, 8, 1, 2]\nclass = detached", fillcolor="#84ee7b"] ;
536 -> 556 ;
557 [label="gini = 0.0\nsamples = 2\nvalue = [0, 0, 0, 2]\nclass = other", fillcolor="#d739e5"] ;
556 -> 557 ;
558 [label="Jobs <= 617.0\ngini = 0.198\nsamples = 9\nvalue = [0, 8, 1, 0]\nclass = detached", fillcolor="#5ee852"] ;
556 -> 558 ;
559 [label="xy_price_cum_sum <= 862918.25\ngini = 0.375\nsamples = 4\nvalue = [0, 3, 1, 0]\nclass = detached", fillcolor="#84ee7b"] ;
558 -> 559 ;
560 [label="xy_price_cum_sum <= 836678.25\ngini = 0.5\nsamples = 2\nvalue = [0, 1, 1, 0]\nclass = detached", fillcolor="#ffffff"] ;
559 -> 560 ;
561 [label="gini = 0.0\nsamples = 1\nvalue = [0, 1, 0, 0]\nclass = detached", fillcolor="#47e539"] ;
560 -> 561 ;
562 [label="gini = 0.0\nsamples = 1\nvalue = [0, 0, 1, 0]\nclass = duplex_townhouse", fillcolor="#399de5"] ;
560 -> 562 ;
563 [label="gini = 0.0\nsamples = 2\nvalue = [0, 2, 0, 0]\nclass = detached", fillcolor="#47e539"] ;
559 -> 563 ;
564 [label="gini = 0.0\nsamples = 5\nvalue = [0, 5, 0, 0]\nclass = detached", fillcolor="#47e539"] ;
558 -> 564 ;
565 [label="med_price_xy <= 1758198.25\ngini = 0.414\nsamples = 91\nvalue = [0, 67, 6, 18]\nclass = detached", fillcolor="#83ee7a"] ;
501 -> 565 ;
566 [label="med_price_xy <= 441667.203\ngini = 0.255\nsamples = 77\nvalue = [0, 66, 6, 5]\nclass = detached", fillcolor="#64e958"] ;
565 -> 566 ;
567 [label="Sgl_att <= 127.5\ngini = 0.568\nsamples = 13\nvalue = [0, 6, 6, 1]\nclass = detached", fillcolor="#ffffff"] ;
566 -> 567 ;
568 [label="Cars <= 864.0\ngini = 0.245\nsamples = 7\nvalue = [0, 6, 0, 1]\nclass = detached", fillcolor="#66e95a"] ;
567 -> 568 ;
569 [label="gini = 0.0\nsamples = 1\nvalue = [0, 0, 0, 1]\nclass = other", fillcolor="#d739e5"] ;
568 -> 569 ;
570 [label="gini = 0.0\nsamples = 6\nvalue = [0, 6, 0, 0]\nclass = detached", fillcolor="#47e539"] ;
568 -> 570 ;
571 [label="gini = 0.0\nsamples = 6\nvalue = [0, 0, 6, 0]\nclass = duplex_townhouse", fillcolor="#399de5"] ;
567 -> 571 ;
572 [label="DwelDens <= 125.096\ngini = 0.117\nsamples = 64\nvalue = [0, 60, 0, 4]\nclass = detached", fillcolor="#53e746"] ;
566 -> 572 ;
573 [label="xy_price_cum_sum <= 964272.906\ngini = 0.444\nsamples = 3\nvalue = [0, 1, 0, 2]\nclass = other", fillcolor="#eb9cf2"] ;
572 -> 573 ;
574 [label="gini = 0.0\nsamples = 1\nvalue = [0, 1, 0, 0]\nclass = detached", fillcolor="#47e539"] ;
573 -> 574 ;
575 [label="gini = 0.0\nsamples = 2\nvalue = [0, 0, 0, 2]\nclass = other", fillcolor="#d739e5"] ;
573 -> 575 ;
576 [label="Cars <= 5272.5\ngini = 0.063\nsamples = 61\nvalue = [0, 59, 0, 2]\nclass = detached", fillcolor="#4de640"] ;
572 -> 576 ;
577 [label="Cars <= 1160.0\ngini = 0.034\nsamples = 58\nvalue = [0, 57, 0, 1]\nclass = detached", fillcolor="#4ae53c"] ;
576 -> 577 ;
578 [label="xy_price_cum_sum <= 853299.5\ngini = 0.278\nsamples = 6\nvalue = [0, 5, 0, 1]\nclass = detached", fillcolor="#6cea61"] ;
577 -> 578 ;
579 [label="gini = 0.0\nsamples = 5\nvalue = [0, 5, 0, 0]\nclass = detached", fillcolor="#47e539"] ;
578 -> 579 ;
580 [label="gini = 0.0\nsamples = 1\nvalue = [0, 0, 0, 1]\nclass = other", fillcolor="#d739e5"] ;
578 -> 580 ;
581 [label="gini = 0.0\nsamples = 52\nvalue = [0, 52, 0, 0]\nclass = detached", fillcolor="#47e539"] ;
577 -> 581 ;
582 [label="xy_price_cum_sum <= 674179.5\ngini = 0.444\nsamples = 3\nvalue = [0, 2, 0, 1]\nclass = detached", fillcolor="#a3f29c"] ;
576 -> 582 ;
583 [label="gini = 0.0\nsamples = 2\nvalue = [0, 2, 0, 0]\nclass = detached", fillcolor="#47e539"] ;
582 -> 583 ;
584 [label="gini = 0.0\nsamples = 1\nvalue = [0, 0, 0, 1]\nclass = other", fillcolor="#d739e5"] ;
582 -> 584 ;
585 [label="Sgl_det <= 242.5\ngini = 0.133\nsamples = 14\nvalue = [0, 1, 0, 13]\nclass = other", fillcolor="#da48e7"] ;
565 -> 585 ;
586 [label="gini = 0.0\nsamples = 13\nvalue = [0, 0, 0, 13]\nclass = other", fillcolor="#d739e5"] ;
585 -> 586 ;
587 [label="gini = 0.0\nsamples = 1\nvalue = [0, 1, 0, 0]\nclass = detached", fillcolor="#47e539"] ;
585 -> 587 ;
588 [label="xy_price_cum_sum <= 676277.969\ngini = 0.293\nsamples = 6576\nvalue = [0, 1135, 29, 5412]\nclass = other", fillcolor="#e063eb"] ;
4 -> 588 ;
589 [label="DwelDens <= 13.621\ngini = 0.211\nsamples = 5237\nvalue = [0, 595, 29, 4613]\nclass = other", fillcolor="#dc54e8"] ;
588 -> 589 ;
590 [label="med_price_xy <= 211130.0\ngini = 0.506\nsamples = 163\nvalue = [0, 81, 1, 81]\nclass = detached", fillcolor="#ffffff"] ;
589 -> 590 ;
591 [label="DwelDens <= 13.037\ngini = 0.17\nsamples = 32\nvalue = [0, 3, 0, 29]\nclass = other", fillcolor="#db4de8"] ;
590 -> 591 ;
592 [label="Cars <= 1338.5\ngini = 0.121\nsamples = 31\nvalue = [0, 2, 0, 29]\nclass = other", fillcolor="#da47e7"] ;
591 -> 592 ;
593 [label="PT <= 8.5\ngini = 0.069\nsamples = 28\nvalue = [0, 1, 0, 27]\nclass = other", fillcolor="#d840e6"] ;
592 -> 593 ;
594 [label="gini = 0.0\nsamples = 24\nvalue = [0, 0, 0, 24]\nclass = other", fillcolor="#d739e5"] ;
593 -> 594 ;
595 [label="Avg_HHsize <= 3.21\ngini = 0.375\nsamples = 4\nvalue = [0, 1, 0, 3]\nclass = other", fillcolor="#e47bee"] ;
593 -> 595 ;
596 [label="xy_price_cum_sum <= 141842.055\ngini = 0.5\nsamples = 2\nvalue = [0, 1, 0, 1]\nclass = detached", fillcolor="#ffffff"] ;
595 -> 596 ;
597 [label="gini = 0.0\nsamples = 1\nvalue = [0, 1, 0, 0]\nclass = detached", fillcolor="#47e539"] ;
596 -> 597 ;
598 [label="gini = 0.0\nsamples = 1\nvalue = [0, 0, 0, 1]\nclass = other", fillcolor="#d739e5"] ;
596 -> 598 ;
599 [label="gini = 0.0\nsamples = 2\nvalue = [0, 0, 0, 2]\nclass = other", fillcolor="#d739e5"] ;
595 -> 599 ;
600 [label="Sgl_att <= 2.5\ngini = 0.444\nsamples = 3\nvalue = [0, 1, 0, 2]\nclass = other", fillcolor="#eb9cf2"] ;
592 -> 600 ;
601 [label="gini = 0.0\nsamples = 2\nvalue = [0, 0, 0, 2]\nclass = other", fillcolor="#d739e5"] ;
600 -> 601 ;
602 [label="gini = 0.0\nsamples = 1\nvalue = [0, 1, 0, 0]\nclass = detached", fillcolor="#47e539"] ;
600 -> 602 ;
603 [label="gini = 0.0\nsamples = 1\nvalue = [0, 1, 0, 0]\nclass = detached", fillcolor="#47e539"] ;
591 -> 603 ;
604 [label="DwelDens <= 9.774\ngini = 0.488\nsamples = 131\nvalue = [0, 78, 1, 52]\nclass = detached", fillcolor="#c2f6be"] ;
590 -> 604 ;
605 [label="DwelDens <= 9.574\ngini = 0.512\nsamples = 77\nvalue = [0, 37, 1, 39]\nclass = other", fillcolor="#fdf5fe"] ;
604 -> 605 ;
606 [label="Jobs <= 728.5\ngini = 0.512\nsamples = 71\nvalue = [0, 37, 1, 33]\nclass = detached", fillcolor="#ecfcea"] ;
605 -> 606 ;
607 [label="Sgl_att <= 2.5\ngini = 0.457\nsamples = 48\nvalue = [0, 31, 0, 17]\nclass = detached", fillcolor="#acf3a6"] ;
606 -> 607 ;
608 [label="xy_years_to_next_sale <= 3.547\ngini = 0.494\nsamples = 18\nvalue = [0, 8, 0, 10]\nclass = other", fillcolor="#f7d7fa"] ;
607 -> 608 ;
609 [label="gini = 0.0\nsamples = 4\nvalue = [0, 4, 0, 0]\nclass = detached", fillcolor="#47e539"] ;
608 -> 609 ;
610 [label="xy_price_cum_sum <= 591073.25\ngini = 0.408\nsamples = 14\nvalue = [0, 4, 0, 10]\nclass = other", fillcolor="#e788ef"] ;
608 -> 610 ;
611 [label="Cars <= 1907.0\ngini = 0.165\nsamples = 11\nvalue = [0, 1, 0, 10]\nclass = other", fillcolor="#db4de8"] ;
610 -> 611 ;
612 [label="gini = 0.0\nsamples = 10\nvalue = [0, 0, 0, 10]\nclass = other", fillcolor="#d739e5"] ;
611 -> 612 ;
613 [label="gini = 0.0\nsamples = 1\nvalue = [0, 1, 0, 0]\nclass = detached", fillcolor="#47e539"] ;
611 -> 613 ;
614 [label="gini = 0.0\nsamples = 3\nvalue = [0, 3, 0, 0]\nclass = detached", fillcolor="#47e539"] ;
610 -> 614 ;
615 [label="Avg_rent <= 1086.5\ngini = 0.358\nsamples = 30\nvalue = [0, 23, 0, 7]\nclass = detached", fillcolor="#7fed75"] ;
607 -> 615 ;
616 [label="Jobs <= 249.0\ngini = 0.293\nsamples = 28\nvalue = [0, 23, 0, 5]\nclass = detached", fillcolor="#6feb64"] ;
615 -> 616 ;
617 [label="med_price_xy <= 573367.5\ngini = 0.494\nsamples = 9\nvalue = [0, 5, 0, 4]\nclass = detached", fillcolor="#dafad7"] ;
616 -> 617 ;
618 [label="Cars <= 755.0\ngini = 0.278\nsamples = 6\nvalue = [0, 5, 0, 1]\nclass = detached", fillcolor="#6cea61"] ;
617 -> 618 ;
619 [label="gini = 0.0\nsamples = 5\nvalue = [0, 5, 0, 0]\nclass = detached", fillcolor="#47e539"] ;
618 -> 619 ;
620 [label="gini = 0.0\nsamples = 1\nvalue = [0, 0, 0, 1]\nclass = other", fillcolor="#d739e5"] ;
618 -> 620 ;
621 [label="gini = 0.0\nsamples = 3\nvalue = [0, 0, 0, 3]\nclass = other", fillcolor="#d739e5"] ;
617 -> 621 ;
622 [label="Jobs <= 694.5\ngini = 0.1\nsamples = 19\nvalue = [0, 18, 0, 1]\nclass = detached", fillcolor="#51e644"] ;
616 -> 622 ;
623 [label="gini = 0.0\nsamples = 17\nvalue = [0, 17, 0, 0]\nclass = detached", fillcolor="#47e539"] ;
622 -> 623 ;
624 [label="med_price_xy <= 581232.594\ngini = 0.5\nsamples = 2\nvalue = [0, 1, 0, 1]\nclass = detached", fillcolor="#ffffff"] ;
622 -> 624 ;
625 [label="gini = 0.0\nsamples = 1\nvalue = [0, 0, 0, 1]\nclass = other", fillcolor="#d739e5"] ;
624 -> 625 ;
626 [label="gini = 0.0\nsamples = 1\nvalue = [0, 1, 0, 0]\nclass = detached", fillcolor="#47e539"] ;
624 -> 626 ;
627 [label="gini = 0.0\nsamples = 2\nvalue = [0, 0, 0, 2]\nclass = other", fillcolor="#d739e5"] ;
615 -> 627 ;
628 [label="Avg_rent <= 69.0\ngini = 0.446\nsamples = 23\nvalue = [0, 6, 1, 16]\nclass = other", fillcolor="#e78bf0"] ;
606 -> 628 ;
629 [label="xy_price_cum_sum <= 485417.5\ngini = 0.56\nsamples = 5\nvalue = [0, 3, 1, 1]\nclass = detached", fillcolor="#a3f29c"] ;
628 -> 629 ;
630 [label="Sgl_att <= 7.5\ngini = 0.375\nsamples = 4\nvalue = [0, 3, 0, 1]\nclass = detached", fillcolor="#84ee7b"] ;
629 -> 630 ;
631 [label="gini = 0.0\nsamples = 2\nvalue = [0, 2, 0, 0]\nclass = detached", fillcolor="#47e539"] ;
630 -> 631 ;
632 [label="xy_price_cum_sum <= 421283.188\ngini = 0.5\nsamples = 2\nvalue = [0, 1, 0, 1]\nclass = detached", fillcolor="#ffffff"] ;
630 -> 632 ;
633 [label="gini = 0.0\nsamples = 1\nvalue = [0, 1, 0, 0]\nclass = detached", fillcolor="#47e539"] ;
632 -> 633 ;
634 [label="gini = 0.0\nsamples = 1\nvalue = [0, 0, 0, 1]\nclass = other", fillcolor="#d739e5"] ;
632 -> 634 ;
635 [label="gini = 0.0\nsamples = 1\nvalue = [0, 0, 1, 0]\nclass = duplex_townhouse", fillcolor="#399de5"] ;
629 -> 635 ;
636 [label="Avg_rent <= 1394.0\ngini = 0.278\nsamples = 18\nvalue = [0, 3, 0, 15]\nclass = other", fillcolor="#df61ea"] ;
628 -> 636 ;
637 [label="xy_price_cum_sum <= 610342.406\ngini = 0.124\nsamples = 15\nvalue = [0, 1, 0, 14]\nclass = other", fillcolor="#da47e7"] ;
636 -> 637 ;
638 [label="gini = 0.0\nsamples = 12\nvalue = [0, 0, 0, 12]\nclass = other", fillcolor="#d739e5"] ;
637 -> 638 ;
639 [label="gini = 0.444\nsamples = 3\nvalue = [0, 1, 0, 2]\nclass = other", fillcolor="#eb9cf2"] ;
637 -> 639 ;
640 [label="med_price_xy <= 312192.938\ngini = 0.444\nsamples = 3\nvalue = [0, 2, 0, 1]\nclass = detached", fillcolor="#a3f29c"] ;
636 -> 640 ;
641 [label="gini = 0.0\nsamples = 1\nvalue = [0, 0, 0, 1]\nclass = other", fillcolor="#d739e5"] ;
640 -> 641 ;
642 [label="gini = 0.0\nsamples = 2\nvalue = [0, 2, 0, 0]\nclass = detached", fillcolor="#47e539"] ;
640 -> 642 ;
643 [label="gini = 0.0\nsamples = 6\nvalue = [0, 0, 0, 6]\nclass = other", fillcolor="#d739e5"] ;
605 -> 643 ;
644 [label="xy_price_cum_sum <= 636014.0\ngini = 0.366\nsamples = 54\nvalue = [0, 41, 0, 13]\nclass = detached", fillcolor="#81ed78"] ;
604 -> 644 ;
645 [label="Sgl_det <= 187.5\ngini = 0.295\nsamples = 50\nvalue = [0, 41, 0, 9]\nclass = detached", fillcolor="#6feb64"] ;
644 -> 645 ;
646 [label="Sgl_det <= 175.0\ngini = 0.389\nsamples = 34\nvalue = [0, 25, 0, 9]\nclass = detached", fillcolor="#89ee80"] ;
645 -> 646 ;
647 [label="Cars <= 1158.5\ngini = 0.219\nsamples = 24\nvalue = [0, 21, 0, 3]\nclass = detached", fillcolor="#61e955"] ;
646 -> 647 ;
648 [label="gini = 0.0\nsamples = 12\nvalue = [0, 12, 0, 0]\nclass = detached", fillcolor="#47e539"] ;
647 -> 648 ;
649 [label="xy_years_to_next_sale <= 6.328\ngini = 0.375\nsamples = 12\nvalue = [0, 9, 0, 3]\nclass = detached", fillcolor="#84ee7b"] ;
647 -> 649 ;
650 [label="gini = 0.0\nsamples = 4\nvalue = [0, 4, 0, 0]\nclass = detached", fillcolor="#47e539"] ;
649 -> 650 ;
651 [label="Avg_HHsize <= 2.97\ngini = 0.469\nsamples = 8\nvalue = [0, 5, 0, 3]\nclass = detached", fillcolor="#b5f5b0"] ;
649 -> 651 ;
652 [label="gini = 0.0\nsamples = 1\nvalue = [0, 1, 0, 0]\nclass = detached", fillcolor="#47e539"] ;
651 -> 652 ;
653 [label="med_price_xy <= 361454.25\ngini = 0.49\nsamples = 7\nvalue = [0, 4, 0, 3]\nclass = detached", fillcolor="#d1f8ce"] ;
651 -> 653 ;
654 [label="gini = 0.0\nsamples = 1\nvalue = [0, 0, 0, 1]\nclass = other", fillcolor="#d739e5"] ;
653 -> 654 ;
655 [label="gini = 0.444\nsamples = 6\nvalue = [0, 4, 0, 2]\nclass = detached", fillcolor="#a3f29c"] ;
653 -> 655 ;
656 [label="med_price_xy <= 540945.0\ngini = 0.48\nsamples = 10\nvalue = [0, 4, 0, 6]\nclass = other", fillcolor="#f2bdf6"] ;
646 -> 656 ;
657 [label="gini = 0.0\nsamples = 4\nvalue = [0, 0, 0, 4]\nclass = other", fillcolor="#d739e5"] ;
656 -> 657 ;
658 [label="Dwel <= 182.5\ngini = 0.444\nsamples = 6\nvalue = [0, 4, 0, 2]\nclass = detached", fillcolor="#a3f29c"] ;
656 -> 658 ;
659 [label="xy_price_cum_sum <= 630735.75\ngini = 0.444\nsamples = 3\nvalue = [0, 1, 0, 2]\nclass = other", fillcolor="#eb9cf2"] ;
658 -> 659 ;
660 [label="gini = 0.0\nsamples = 2\nvalue = [0, 0, 0, 2]\nclass = other", fillcolor="#d739e5"] ;
659 -> 660 ;
661 [label="gini = 0.0\nsamples = 1\nvalue = [0, 1, 0, 0]\nclass = detached", fillcolor="#47e539"] ;
659 -> 661 ;
662 [label="gini = 0.0\nsamples = 3\nvalue = [0, 3, 0, 0]\nclass = detached", fillcolor="#47e539"] ;
658 -> 662 ;
663 [label="gini = 0.0\nsamples = 16\nvalue = [0, 16, 0, 0]\nclass = detached", fillcolor="#47e539"] ;
645 -> 663 ;
664 [label="gini = 0.0\nsamples = 4\nvalue = [0, 0, 0, 4]\nclass = other", fillcolor="#d739e5"] ;
644 -> 664 ;
665 [label="Jobs <= 1326.5\ngini = 0.192\nsamples = 5074\nvalue = [0, 514, 28, 4532]\nclass = other", fillcolor="#dc51e8"] ;
589 -> 665 ;
666 [label="DwelDens <= 440.022\ngini = 0.152\nsamples = 4432\nvalue = [0, 339, 25, 4068]\nclass = other", fillcolor="#db4be7"] ;
665 -> 666 ;
667 [label="Sgl_att <= 5.5\ngini = 0.11\nsamples = 3957\nvalue = [0, 220, 11, 3726]\nclass = other", fillcolor="#d945e7"] ;
666 -> 667 ;
668 [label="xy_years_to_next_sale <= 4.105\ngini = 0.276\nsamples = 598\nvalue = [0, 99, 0, 499]\nclass = other", fillcolor="#df60ea"] ;
667 -> 668 ;
669 [label="Cars <= 1257.5\ngini = 0.106\nsamples = 429\nvalue = [0, 24, 0, 405]\nclass = other", fillcolor="#d945e7"] ;
668 -> 669 ;
670 [label="xy_price_cum_sum <= 163816.32\ngini = 0.042\nsamples = 371\nvalue = [0, 8, 0, 363]\nclass = other", fillcolor="#d83de6"] ;
669 -> 670 ;
671 [label="xy_years_to_next_sale <= 0.738\ngini = 0.444\nsamples = 3\nvalue = [0, 2, 0, 1]\nclass = detached", fillcolor="#a3f29c"] ;
670 -> 671 ;
672 [label="gini = 0.0\nsamples = 1\nvalue = [0, 0, 0, 1]\nclass = other", fillcolor="#d739e5"] ;
671 -> 672 ;
673 [label="gini = 0.0\nsamples = 2\nvalue = [0, 2, 0, 0]\nclass = detached", fillcolor="#47e539"] ;
671 -> 673 ;
674 [label="Avg_rent <= 851.25\ngini = 0.032\nsamples = 368\nvalue = [0, 6, 0, 362]\nclass = other", fillcolor="#d83ce5"] ;
670 -> 674 ;
675 [label="PopDens <= 45.071\ngini = 0.027\nsamples = 367\nvalue = [0, 5, 0, 362]\nclass = other", fillcolor="#d83ce5"] ;
674 -> 675 ;
676 [label="gini = 0.0\nsamples = 1\nvalue = [0, 1, 0, 0]\nclass = detached", fillcolor="#47e539"] ;
675 -> 676 ;
677 [label="med_price_xy <= 310827.297\ngini = 0.022\nsamples = 366\nvalue = [0, 4, 0, 362]\nclass = other", fillcolor="#d73be5"] ;
675 -> 677 ;
678 [label="gini = 0.444\nsamples = 9\nvalue = [0, 3, 0, 6]\nclass = other", fillcolor="#eb9cf2"] ;
677 -> 678 ;
679 [label="gini = 0.006\nsamples = 357\nvalue = [0, 1, 0, 356]\nclass = other", fillcolor="#d73ae5"] ;
677 -> 679 ;
680 [label="gini = 0.0\nsamples = 1\nvalue = [0, 1, 0, 0]\nclass = detached", fillcolor="#47e539"] ;
674 -> 680 ;
681 [label="Walk <= 5.0\ngini = 0.4\nsamples = 58\nvalue = [0, 16, 0, 42]\nclass = other", fillcolor="#e684ef"] ;
669 -> 681 ;
682 [label="Dwel <= 238.0\ngini = 0.469\nsamples = 16\nvalue = [0, 10, 0, 6]\nclass = detached", fillcolor="#b5f5b0"] ;
681 -> 682 ;
683 [label="Sgl_det <= 160.0\ngini = 0.48\nsamples = 10\nvalue = [0, 4, 0, 6]\nclass = other", fillcolor="#f2bdf6"] ;
682 -> 683 ;
684 [label="Cars <= 1406.0\ngini = 0.375\nsamples = 4\nvalue = [0, 3, 0, 1]\nclass = detached", fillcolor="#84ee7b"] ;
683 -> 684 ;
685 [label="gini = 0.5\nsamples = 2\nvalue = [0, 1, 0, 1]\nclass = detached", fillcolor="#ffffff"] ;
684 -> 685 ;
686 [label="gini = 0.0\nsamples = 2\nvalue = [0, 2, 0, 0]\nclass = detached", fillcolor="#47e539"] ;
684 -> 686 ;
687 [label="xy_price_cum_sum <= 603701.0\ngini = 0.278\nsamples = 6\nvalue = [0, 1, 0, 5]\nclass = other", fillcolor="#df61ea"] ;
683 -> 687 ;
688 [label="gini = 0.0\nsamples = 5\nvalue = [0, 0, 0, 5]\nclass = other", fillcolor="#d739e5"] ;
687 -> 688 ;
689 [label="gini = 0.0\nsamples = 1\nvalue = [0, 1, 0, 0]\nclass = detached", fillcolor="#47e539"] ;
687 -> 689 ;
690 [label="gini = 0.0\nsamples = 6\nvalue = [0, 6, 0, 0]\nclass = detached", fillcolor="#47e539"] ;
682 -> 690 ;
691 [label="med_price_xy <= 420643.547\ngini = 0.245\nsamples = 42\nvalue = [0, 6, 0, 36]\nclass = other", fillcolor="#de5ae9"] ;
681 -> 691 ;
692 [label="xy_price_cum_sum <= 338266.953\ngini = 0.469\nsamples = 8\nvalue = [0, 5, 0, 3]\nclass = detached", fillcolor="#b5f5b0"] ;
691 -> 692 ;
693 [label="gini = 0.0\nsamples = 5\nvalue = [0, 5, 0, 0]\nclass = detached", fillcolor="#47e539"] ;
692 -> 693 ;
694 [label="gini = 0.0\nsamples = 3\nvalue = [0, 0, 0, 3]\nclass = other", fillcolor="#d739e5"] ;
692 -> 694 ;
695 [label="xy_years_to_next_sale <= 3.008\ngini = 0.057\nsamples = 34\nvalue = [0, 1, 0, 33]\nclass = other", fillcolor="#d83fe6"] ;
691 -> 695 ;
696 [label="gini = 0.0\nsamples = 28\nvalue = [0, 0, 0, 28]\nclass = other", fillcolor="#d739e5"] ;
695 -> 696 ;
697 [label="xy_years_to_next_sale <= 3.274\ngini = 0.278\nsamples = 6\nvalue = [0, 1, 0, 5]\nclass = other", fillcolor="#df61ea"] ;
695 -> 697 ;
698 [label="gini = 0.0\nsamples = 1\nvalue = [0, 1, 0, 0]\nclass = detached", fillcolor="#47e539"] ;
697 -> 698 ;
699 [label="gini = 0.0\nsamples = 5\nvalue = [0, 0, 0, 5]\nclass = other", fillcolor="#d739e5"] ;
697 -> 699 ;
700 [label="Walk <= 5.0\ngini = 0.494\nsamples = 169\nvalue = [0, 75, 0, 94]\nclass = other", fillcolor="#f7d7fa"] ;
668 -> 700 ;
701 [label="Sgl_det <= 125.0\ngini = 0.469\nsamples = 112\nvalue = [0, 70, 0, 42]\nclass = detached", fillcolor="#b5f5b0"] ;
700 -> 701 ;
702 [label="Jobs <= 161.0\ngini = 0.32\nsamples = 20\nvalue = [0, 4, 0, 16]\nclass = other", fillcolor="#e16aec"] ;
701 -> 702 ;
703 [label="gini = 0.0\nsamples = 16\nvalue = [0, 0, 0, 16]\nclass = other", fillcolor="#d739e5"] ;
702 -> 703 ;
704 [label="gini = 0.0\nsamples = 4\nvalue = [0, 4, 0, 0]\nclass = detached", fillcolor="#47e539"] ;
702 -> 704 ;
705 [label="Sgl_det <= 172.5\ngini = 0.405\nsamples = 92\nvalue = [0, 66, 0, 26]\nclass = detached", fillcolor="#8fef87"] ;
701 -> 705 ;
706 [label="Cars <= 5436.5\ngini = 0.153\nsamples = 36\nvalue = [0, 33, 0, 3]\nclass = detached", fillcolor="#58e74b"] ;
705 -> 706 ;
707 [label="Avg_HHsize <= 3.35\ngini = 0.108\nsamples = 35\nvalue = [0, 33, 0, 2]\nclass = detached", fillcolor="#52e745"] ;
706 -> 707 ;
708 [label="gini = 0.059\nsamples = 33\nvalue = [0, 32, 0, 1]\nclass = detached", fillcolor="#4de63f"] ;
707 -> 708 ;
709 [label="gini = 0.5\nsamples = 2\nvalue = [0, 1, 0, 1]\nclass = detached", fillcolor="#ffffff"] ;
707 -> 709 ;
710 [label="gini = 0.0\nsamples = 1\nvalue = [0, 0, 0, 1]\nclass = other", fillcolor="#d739e5"] ;
706 -> 710 ;
711 [label="xy_price_cum_sum <= 210948.5\ngini = 0.484\nsamples = 56\nvalue = [0, 33, 0, 23]\nclass = detached", fillcolor="#c7f7c3"] ;
705 -> 711 ;
712 [label="gini = 0.0\nsamples = 4\nvalue = [0, 0, 0, 4]\nclass = other", fillcolor="#d739e5"] ;
711 -> 712 ;
713 [label="xy_price_cum_sum <= 485876.531\ngini = 0.464\nsamples = 52\nvalue = [0, 33, 0, 19]\nclass = detached", fillcolor="#b1f4ab"] ;
711 -> 713 ;
714 [label="gini = 0.346\nsamples = 27\nvalue = [0, 21, 0, 6]\nclass = detached", fillcolor="#7cec72"] ;
713 -> 714 ;
715 [label="gini = 0.499\nsamples = 25\nvalue = [0, 12, 0, 13]\nclass = other", fillcolor="#fcf0fd"] ;
713 -> 715 ;
716 [label="xy_price_cum_sum <= 360975.344\ngini = 0.16\nsamples = 57\nvalue = [0, 5, 0, 52]\nclass = other", fillcolor="#db4ce8"] ;
700 -> 716 ;
717 [label="med_price_xy <= 323393.812\ngini = 0.486\nsamples = 12\nvalue = [0, 5, 0, 7]\nclass = other", fillcolor="#f4c6f8"] ;
716 -> 717 ;
718 [label="gini = 0.0\nsamples = 4\nvalue = [0, 0, 0, 4]\nclass = other", fillcolor="#d739e5"] ;
717 -> 718 ;
719 [label="xy_price_cum_sum <= 341928.188\ngini = 0.469\nsamples = 8\nvalue = [0, 5, 0, 3]\nclass = detached", fillcolor="#b5f5b0"] ;
717 -> 719 ;
720 [label="gini = 0.0\nsamples = 4\nvalue = [0, 4, 0, 0]\nclass = detached", fillcolor="#47e539"] ;
719 -> 720 ;
721 [label="DwelDens <= 119.397\ngini = 0.375\nsamples = 4\nvalue = [0, 1, 0, 3]\nclass = other", fillcolor="#e47bee"] ;
719 -> 721 ;
722 [label="gini = 0.0\nsamples = 1\nvalue = [0, 1, 0, 0]\nclass = detached", fillcolor="#47e539"] ;
721 -> 722 ;
723 [label="gini = 0.0\nsamples = 3\nvalue = [0, 0, 0, 3]\nclass = other", fillcolor="#d739e5"] ;
721 -> 723 ;
724 [label="gini = 0.0\nsamples = 45\nvalue = [0, 0, 0, 45]\nclass = other", fillcolor="#d739e5"] ;
716 -> 724 ;
725 [label="Dwel <= 355.5\ngini = 0.076\nsamples = 3359\nvalue = [0, 121, 11, 3227]\nclass = other", fillcolor="#d941e6"] ;
667 -> 725 ;
726 [label="Cars <= 2981.0\ngini = 0.073\nsamples = 3353\nvalue = [0, 116, 10, 3227]\nclass = other", fillcolor="#d941e6"] ;
725 -> 726 ;
727 [label="PopDens <= 1114.074\ngini = 0.149\nsamples = 1180\nvalue = [0, 89, 6, 1085]\nclass = other", fillcolor="#da4ae7"] ;
726 -> 727 ;
728 [label="Avg_HHsize <= 2.958\ngini = 0.123\nsamples = 1156\nvalue = [0, 70, 6, 1080]\nclass = other", fillcolor="#da47e7"] ;
727 -> 728 ;
729 [label="Avg_rent <= 581.625\ngini = 0.521\nsamples = 13\nvalue = [0, 8, 1, 4]\nclass = detached", fillcolor="#adf3a7"] ;
728 -> 729 ;
730 [label="gini = 0.0\nsamples = 6\nvalue = [0, 6, 0, 0]\nclass = detached", fillcolor="#47e539"] ;
729 -> 730 ;
731 [label="xy_price_cum_sum <= 216106.523\ngini = 0.571\nsamples = 7\nvalue = [0, 2, 1, 4]\nclass = other", fillcolor="#efb0f5"] ;
729 -> 731 ;
732 [label="gini = 0.0\nsamples = 3\nvalue = [0, 0, 0, 3]\nclass = other", fillcolor="#d739e5"] ;
731 -> 732 ;
733 [label="gini = 0.625\nsamples = 4\nvalue = [0, 2, 1, 1]\nclass = detached", fillcolor="#c2f6bd"] ;
731 -> 733 ;
734 [label="DwelDens <= 185.267\ngini = 0.111\nsamples = 1143\nvalue = [0, 62, 5, 1076]\nclass = other", fillcolor="#d945e7"] ;
728 -> 734 ;
735 [label="Cars <= 2909.5\ngini = 0.074\nsamples = 1018\nvalue = [0, 35, 4, 979]\nclass = other", fillcolor="#d941e6"] ;
734 -> 735 ;
736 [label="gini = 0.07\nsamples = 1016\nvalue = [0, 33, 4, 979]\nclass = other", fillcolor="#d940e6"] ;
735 -> 736 ;
737 [label="gini = 0.0\nsamples = 2\nvalue = [0, 2, 0, 0]\nclass = detached", fillcolor="#47e539"] ;
735 -> 737 ;
738 [label="PopDens <= 987.158\ngini = 0.351\nsamples = 125\nvalue = [0, 27, 1, 97]\nclass = other", fillcolor="#e272ec"] ;
734 -> 738 ;
739 [label="gini = 0.469\nsamples = 35\nvalue = [0, 23, 1, 11]\nclass = detached", fillcolor="#a3f29c"] ;
738 -> 739 ;
740 [label="gini = 0.085\nsamples = 90\nvalue = [0, 4, 0, 86]\nclass = other", fillcolor="#d942e6"] ;
738 -> 740 ;
741 [label="Dwel <= 344.5\ngini = 0.33\nsamples = 24\nvalue = [0, 19, 0, 5]\nclass = detached", fillcolor="#77ec6d"] ;
727 -> 741 ;
742 [label="med_price_xy <= 363579.172\ngini = 0.105\nsamples = 18\nvalue = [0, 17, 0, 1]\nclass = detached", fillcolor="#52e745"] ;
741 -> 742 ;
743 [label="med_price_xy <= 278858.75\ngini = 0.375\nsamples = 4\nvalue = [0, 3, 0, 1]\nclass = detached", fillcolor="#84ee7b"] ;
742 -> 743 ;
744 [label="gini = 0.0\nsamples = 3\nvalue = [0, 3, 0, 0]\nclass = detached", fillcolor="#47e539"] ;
743 -> 744 ;
745 [label="gini = 0.0\nsamples = 1\nvalue = [0, 0, 0, 1]\nclass = other", fillcolor="#d739e5"] ;
743 -> 745 ;
746 [label="gini = 0.0\nsamples = 14\nvalue = [0, 14, 0, 0]\nclass = detached", fillcolor="#47e539"] ;
742 -> 746 ;
747 [label="xy_price_cum_sum <= 528549.703\ngini = 0.444\nsamples = 6\nvalue = [0, 2, 0, 4]\nclass = other", fillcolor="#eb9cf2"] ;
741 -> 747 ;
748 [label="xy_price_cum_sum <= 278696.25\ngini = 0.32\nsamples = 5\nvalue = [0, 1, 0, 4]\nclass = other", fillcolor="#e16aec"] ;
747 -> 748 ;
749 [label="gini = 0.444\nsamples = 3\nvalue = [0, 1, 0, 2]\nclass = other", fillcolor="#eb9cf2"] ;
748 -> 749 ;
750 [label="gini = 0.0\nsamples = 2\nvalue = [0, 0, 0, 2]\nclass = other", fillcolor="#d739e5"] ;
748 -> 750 ;
751 [label="gini = 0.0\nsamples = 1\nvalue = [0, 1, 0, 0]\nclass = detached", fillcolor="#47e539"] ;
747 -> 751 ;
752 [label="PT <= 82.5\ngini = 0.028\nsamples = 2173\nvalue = [0, 27, 4, 2142]\nclass = other", fillcolor="#d83ce5"] ;
726 -> 752 ;
753 [label="DwelDens <= 26.502\ngini = 0.024\nsamples = 2167\nvalue = [0, 22, 4, 2141]\nclass = other", fillcolor="#d73be5"] ;
752 -> 753 ;
754 [label="med_price_xy <= 510388.297\ngini = 0.444\nsamples = 3\nvalue = [0, 2, 0, 1]\nclass = detached", fillcolor="#a3f29c"] ;
753 -> 754 ;
755 [label="gini = 0.0\nsamples = 2\nvalue = [0, 2, 0, 0]\nclass = detached", fillcolor="#47e539"] ;
754 -> 755 ;
756 [label="gini = 0.0\nsamples = 1\nvalue = [0, 0, 0, 1]\nclass = other", fillcolor="#d739e5"] ;
754 -> 756 ;
757 [label="med_price_xy <= 189986.258\ngini = 0.022\nsamples = 2164\nvalue = [0, 20, 4, 2140]\nclass = other", fillcolor="#d73be5"] ;
753 -> 757 ;
758 [label="xy_price_cum_sum <= 81797.75\ngini = 0.191\nsamples = 28\nvalue = [0, 3, 0, 25]\nclass = other", fillcolor="#dc51e8"] ;
757 -> 758 ;
759 [label="gini = 0.0\nsamples = 22\nvalue = [0, 0, 0, 22]\nclass = other", fillcolor="#d739e5"] ;
758 -> 759 ;
760 [label="gini = 0.5\nsamples = 6\nvalue = [0, 3, 0, 3]\nclass = detached", fillcolor="#ffffff"] ;
758 -> 760 ;
761 [label="Avg_rent <= 376.125\ngini = 0.019\nsamples = 2136\nvalue = [0, 17, 4, 2115]\nclass = other", fillcolor="#d73be5"] ;
757 -> 761 ;
762 [label="gini = 0.054\nsamples = 582\nvalue = [0, 14, 2, 566]\nclass = other", fillcolor="#d83fe6"] ;
761 -> 762 ;
763 [label="gini = 0.006\nsamples = 1554\nvalue = [0, 3, 2, 1549]\nclass = other", fillcolor="#d73ae5"] ;
761 -> 763 ;
764 [label="xy_price_cum_sum <= 285802.734\ngini = 0.278\nsamples = 6\nvalue = [0, 5, 0, 1]\nclass = detached", fillcolor="#6cea61"] ;
752 -> 764 ;
765 [label="gini = 0.5\nsamples = 2\nvalue = [0, 1, 0, 1]\nclass = detached", fillcolor="#ffffff"] ;
764 -> 765 ;
766 [label="gini = 0.0\nsamples = 4\nvalue = [0, 4, 0, 0]\nclass = detached", fillcolor="#47e539"] ;
764 -> 766 ;
767 [label="med_price_xy <= 298337.703\ngini = 0.278\nsamples = 6\nvalue = [0, 5, 1, 0]\nclass = detached", fillcolor="#6cea61"] ;
725 -> 767 ;
768 [label="gini = 0.0\nsamples = 1\nvalue = [0, 0, 1, 0]\nclass = duplex_townhouse", fillcolor="#399de5"] ;
767 -> 768 ;
769 [label="gini = 0.0\nsamples = 5\nvalue = [0, 5, 0, 0]\nclass = detached", fillcolor="#47e539"] ;
767 -> 769 ;
770 [label="Dwel <= 264.0\ngini = 0.418\nsamples = 475\nvalue = [0, 119, 14, 342]\nclass = other", fillcolor="#e683ef"] ;
666 -> 770 ;
771 [label="xy_price_cum_sum <= 390560.25\ngini = 0.318\nsamples = 92\nvalue = [0, 75, 8, 9]\nclass = detached", fillcolor="#6dea62"] ;
770 -> 771 ;
772 [label="Avg_HHsize <= 3.75\ngini = 0.642\nsamples = 26\nvalue = [0, 12, 7, 7]\nclass = detached", fillcolor="#cff8cb"] ;
771 -> 772 ;
773 [label="xy_price_cum_sum <= 187248.641\ngini = 0.526\nsamples = 19\nvalue = [0, 11, 1, 7]\nclass = detached", fillcolor="#c2f6bd"] ;
772 -> 773 ;
774 [label="Jobs <= 807.5\ngini = 0.408\nsamples = 7\nvalue = [0, 2, 0, 5]\nclass = other", fillcolor="#e788ef"] ;
773 -> 774 ;
775 [label="gini = 0.0\nsamples = 5\nvalue = [0, 0, 0, 5]\nclass = other", fillcolor="#d739e5"] ;
774 -> 775 ;
776 [label="gini = 0.0\nsamples = 2\nvalue = [0, 2, 0, 0]\nclass = detached", fillcolor="#47e539"] ;
774 -> 776 ;
777 [label="Jobs <= 803.0\ngini = 0.403\nsamples = 12\nvalue = [0, 9, 1, 2]\nclass = detached", fillcolor="#7eed74"] ;
773 -> 777 ;
778 [label="Cars <= 3723.0\ngini = 0.314\nsamples = 11\nvalue = [0, 9, 1, 1]\nclass = detached", fillcolor="#6cea61"] ;
777 -> 778 ;
779 [label="gini = 0.0\nsamples = 8\nvalue = [0, 8, 0, 0]\nclass = detached", fillcolor="#47e539"] ;
778 -> 779 ;
780 [label="Cars <= 4495.5\ngini = 0.667\nsamples = 3\nvalue = [0, 1, 1, 1]\nclass = detached", fillcolor="#ffffff"] ;
778 -> 780 ;
781 [label="gini = 0.0\nsamples = 1\nvalue = [0, 0, 1, 0]\nclass = duplex_townhouse", fillcolor="#399de5"] ;
780 -> 781 ;
782 [label="gini = 0.5\nsamples = 2\nvalue = [0, 1, 0, 1]\nclass = detached", fillcolor="#ffffff"] ;
780 -> 782 ;
783 [label="gini = 0.0\nsamples = 1\nvalue = [0, 0, 0, 1]\nclass = other", fillcolor="#d739e5"] ;
777 -> 783 ;
784 [label="xy_price_cum_sum <= 199424.0\ngini = 0.245\nsamples = 7\nvalue = [0, 1, 6, 0]\nclass = duplex_townhouse", fillcolor="#5aade9"] ;
772 -> 784 ;
785 [label="gini = 0.0\nsamples = 1\nvalue = [0, 1, 0, 0]\nclass = detached", fillcolor="#47e539"] ;
784 -> 785 ;
786 [label="gini = 0.0\nsamples = 6\nvalue = [0, 0, 6, 0]\nclass = duplex_townhouse", fillcolor="#399de5"] ;
784 -> 786 ;
787 [label="PopDens <= 2092.171\ngini = 0.088\nsamples = 66\nvalue = [0, 63, 1, 2]\nclass = detached", fillcolor="#50e642"] ;
771 -> 787 ;
788 [label="xy_price_cum_sum <= 397606.656\ngini = 0.033\nsamples = 60\nvalue = [0, 59, 1, 0]\nclass = detached", fillcolor="#4ae53c"] ;
787 -> 788 ;
