digraph Tree {
node [shape=box, style="filled, rounded", color="black", fontname=helvetica] ;
edge [fontname=helvetica] ;
0 [label="xy_total_sales <= 11.5\ngini = 0.708\nsamples = 96610\nvalue = [29116, 35274, 8573, 23647]\nclass = detached", fillcolor="#eefded"] ;
1 [label="pin_years_since_last_sale <= 1.884\ngini = 0.488\nsamples = 51871\nvalue = [263, 35270, 8571, 7767]\nclass = detached", fillcolor="#8eef85"] ;
0 -> 1 [labeldistance=2.5, labelangle=45, headlabel="True"] ;
2 [label="pin_prev_sales <= 1.5\ngini = 0.578\nsamples = 8667\nvalue = [22, 3532, 803, 4310]\nclass = other", fillcolor="#f9e1fb"] ;
1 -> 2 ;
3 [label="DwelDens <= 810.665\ngini = 0.304\nsamples = 4337\nvalue = [6, 713, 72, 3546]\nclass = other", fillcolor="#e064eb"] ;
2 -> 3 ;
4 [label="CarTrVan_d <= 258.5\ngini = 0.117\nsamples = 3407\nvalue = [1, 204, 7, 3195]\nclass = other", fillcolor="#da46e7"] ;
3 -> 4 ;
5 [label="DwelDens <= 192.525\ngini = 0.326\nsamples = 690\nvalue = [1, 136, 3, 550]\nclass = other", fillcolor="#e16bec"] ;
4 -> 5 ;
6 [label="CarTrVan_d <= 248.5\ngini = 0.093\nsamples = 474\nvalue = [0, 22, 1, 451]\nclass = other", fillcolor="#d943e6"] ;
5 -> 6 ;
7 [label="pin_years_since_last_sale <= 1.64\ngini = 0.078\nsamples = 470\nvalue = [0, 19, 0, 451]\nclass = other", fillcolor="#d941e6"] ;
6 -> 7 ;
8 [label="DwelDens <= 14.502\ngini = 0.064\nsamples = 450\nvalue = [0, 15, 0, 435]\nclass = other", fillcolor="#d840e6"] ;
7 -> 8 ;
9 [label="CarTrVan_d <= 165.0\ngini = 0.194\nsamples = 55\nvalue = [0, 6, 0, 49]\nclass = other", fillcolor="#dc51e8"] ;
8 -> 9 ;
10 [label="pin_years_since_last_sale <= 0.004\ngini = 0.043\nsamples = 46\nvalue = [0, 1, 0, 45]\nclass = other", fillcolor="#d83de6"] ;
9 -> 10 ;
11 [label="Sgl_det <= 118.0\ngini = 0.5\nsamples = 2\nvalue = [0, 1, 0, 1]\nclass = detached", fillcolor="#ffffff"] ;
10 -> 11 ;
12 [label="gini = 0.0\nsamples = 1\nvalue = [0, 0, 0, 1]\nclass = other", fillcolor="#d739e5"] ;
11 -> 12 ;
13 [label="gini = 0.0\nsamples = 1\nvalue = [0, 1, 0, 0]\nclass = detached", fillcolor="#47e539"] ;
11 -> 13 ;
14 [label="gini = 0.0\nsamples = 44\nvalue = [0, 0, 0, 44]\nclass = other", fillcolor="#d739e5"] ;
10 -> 14 ;
15 [label="Pop_y <= 633.0\ngini = 0.494\nsamples = 9\nvalue = [0, 5, 0, 4]\nclass = detached", fillcolor="#dafad7"] ;
9 -> 15 ;
16 [label="gini = 0.0\nsamples = 3\nvalue = [0, 0, 0, 3]\nclass = other", fillcolor="#d739e5"] ;
15 -> 16 ;
17 [label="Sgl_det <= 187.5\ngini = 0.278\nsamples = 6\nvalue = [0, 5, 0, 1]\nclass = detached", fillcolor="#6cea61"] ;
15 -> 17 ;
18 [label="gini = 0.0\nsamples = 4\nvalue = [0, 4, 0, 0]\nclass = detached", fillcolor="#47e539"] ;
17 -> 18 ;
19 [label="xy_total_sales <= 2.5\ngini = 0.5\nsamples = 2\nvalue = [0, 1, 0, 1]\nclass = detached", fillcolor="#ffffff"] ;
17 -> 19 ;
20 [label="gini = 0.0\nsamples = 1\nvalue = [0, 1, 0, 0]\nclass = detached", fillcolor="#47e539"] ;
19 -> 20 ;
21 [label="gini = 0.0\nsamples = 1\nvalue = [0, 0, 0, 1]\nclass = other", fillcolor="#d739e5"] ;
19 -> 21 ;
22 [label="Avg_HHsize <= 3.475\ngini = 0.045\nsamples = 395\nvalue = [0, 9, 0, 386]\nclass = other", fillcolor="#d83ee6"] ;
8 -> 22 ;
23 [label="Avg_HHsize <= 2.833\ngini = 0.036\nsamples = 386\nvalue = [0, 7, 0, 379]\nclass = other", fillcolor="#d83de5"] ;
22 -> 23 ;
24 [label="Pop_y <= 3413.0\ngini = 0.236\nsamples = 22\nvalue = [0, 3, 0, 19]\nclass = other", fillcolor="#dd58e9"] ;
23 -> 24 ;
25 [label="pin_years_since_last_sale <= 0.44\ngini = 0.095\nsamples = 20\nvalue = [0, 1, 0, 19]\nclass = other", fillcolor="#d943e6"] ;
24 -> 25 ;
26 [label="CarTrVan_d <= 196.5\ngini = 0.375\nsamples = 4\nvalue = [0, 1, 0, 3]\nclass = other", fillcolor="#e47bee"] ;
25 -> 26 ;
27 [label="gini = 0.0\nsamples = 3\nvalue = [0, 0, 0, 3]\nclass = other", fillcolor="#d739e5"] ;
26 -> 27 ;
28 [label="gini = 0.0\nsamples = 1\nvalue = [0, 1, 0, 0]\nclass = detached", fillcolor="#47e539"] ;
26 -> 28 ;
29 [label="gini = 0.0\nsamples = 16\nvalue = [0, 0, 0, 16]\nclass = other", fillcolor="#d739e5"] ;
25 -> 29 ;
30 [label="gini = 0.0\nsamples = 2\nvalue = [0, 2, 0, 0]\nclass = detached", fillcolor="#47e539"] ;
24 -> 30 ;
31 [label="CarTrVan_d <= 230.0\ngini = 0.022\nsamples = 364\nvalue = [0, 4, 0, 360]\nclass = other", fillcolor="#d73be5"] ;
23 -> 31 ;
32 [label="CarTrVan_d <= 175.5\ngini = 0.012\nsamples = 331\nvalue = [0, 2, 0, 329]\nclass = other", fillcolor="#d73ae5"] ;
31 -> 32 ;
33 [label="DwelDens <= 52.298\ngini = 0.043\nsamples = 90\nvalue = [0, 2, 0, 88]\nclass = other", fillcolor="#d83de6"] ;
32 -> 33 ;
34 [label="gini = 0.0\nsamples = 2\nvalue = [0, 2, 0, 0]\nclass = detached", fillcolor="#47e539"] ;
33 -> 34 ;
35 [label="gini = 0.0\nsamples = 88\nvalue = [0, 0, 0, 88]\nclass = other", fillcolor="#d739e5"] ;
33 -> 35 ;
36 [label="gini = 0.0\nsamples = 241\nvalue = [0, 0, 0, 241]\nclass = other", fillcolor="#d739e5"] ;
32 -> 36 ;
37 [label="DwelDens <= 92.511\ngini = 0.114\nsamples = 33\nvalue = [0, 2, 0, 31]\nclass = other", fillcolor="#da46e7"] ;
31 -> 37 ;
38 [label="pin_years_since_last_sale <= 1.064\ngini = 0.061\nsamples = 32\nvalue = [0, 1, 0, 31]\nclass = other", fillcolor="#d83fe6"] ;
37 -> 38 ;
39 [label="gini = 0.0\nsamples = 29\nvalue = [0, 0, 0, 29]\nclass = other", fillcolor="#d739e5"] ;
38 -> 39 ;
40 [label="Pop_y <= 1502.5\ngini = 0.444\nsamples = 3\nvalue = [0, 1, 0, 2]\nclass = other", fillcolor="#eb9cf2"] ;
38 -> 40 ;
41 [label="gini = 0.0\nsamples = 1\nvalue = [0, 1, 0, 0]\nclass = detached", fillcolor="#47e539"] ;
40 -> 41 ;
42 [label="gini = 0.0\nsamples = 2\nvalue = [0, 0, 0, 2]\nclass = other", fillcolor="#d739e5"] ;
40 -> 42 ;
43 [label="gini = 0.0\nsamples = 1\nvalue = [0, 1, 0, 0]\nclass = detached", fillcolor="#47e539"] ;
37 -> 43 ;
44 [label="Avg_HHsize <= 3.672\ngini = 0.346\nsamples = 9\nvalue = [0, 2, 0, 7]\nclass = other", fillcolor="#e272ec"] ;
22 -> 44 ;
45 [label="med_price_xy <= 1521805.875\ngini = 0.444\nsamples = 3\nvalue = [0, 2, 0, 1]\nclass = detached", fillcolor="#a3f29c"] ;
44 -> 45 ;
46 [label="gini = 0.0\nsamples = 2\nvalue = [0, 2, 0, 0]\nclass = detached", fillcolor="#47e539"] ;
45 -> 46 ;
47 [label="gini = 0.0\nsamples = 1\nvalue = [0, 0, 0, 1]\nclass = other", fillcolor="#d739e5"] ;
45 -> 47 ;
48 [label="gini = 0.0\nsamples = 6\nvalue = [0, 0, 0, 6]\nclass = other", fillcolor="#d739e5"] ;
44 -> 48 ;
49 [label="Pop_y <= 2053.5\ngini = 0.32\nsamples = 20\nvalue = [0, 4, 0, 16]\nclass = other", fillcolor="#e16aec"] ;
7 -> 49 ;
50 [label="gini = 0.0\nsamples = 4\nvalue = [0, 4, 0, 0]\nclass = detached", fillcolor="#47e539"] ;
49 -> 50 ;
51 [label="gini = 0.0\nsamples = 16\nvalue = [0, 0, 0, 16]\nclass = other", fillcolor="#d739e5"] ;
49 -> 51 ;
52 [label="Sgl_det <= 115.0\ngini = 0.375\nsamples = 4\nvalue = [0, 3, 1, 0]\nclass = detached", fillcolor="#84ee7b"] ;
6 -> 52 ;
53 [label="gini = 0.0\nsamples = 1\nvalue = [0, 0, 1, 0]\nclass = duplex_townhouse", fillcolor="#399de5"] ;
52 -> 53 ;
54 [label="gini = 0.0\nsamples = 3\nvalue = [0, 3, 0, 0]\nclass = detached", fillcolor="#47e539"] ;
52 -> 54 ;
55 [label="Avg_HHsize <= 3.425\ngini = 0.511\nsamples = 216\nvalue = [1, 114, 2, 99]\nclass = detached", fillcolor="#e7fce6"] ;
5 -> 55 ;
56 [label="Pop_y <= 10014.0\ngini = 0.321\nsamples = 134\nvalue = [1, 108, 2, 23]\nclass = detached", fillcolor="#72eb67"] ;
55 -> 56 ;
57 [label="med_price_xy <= 2832322.0\ngini = 0.21\nsamples = 112\nvalue = [1, 99, 2, 10]\nclass = detached", fillcolor="#5ee852"] ;
56 -> 57 ;
58 [label="Pop_y <= 1920.0\ngini = 0.184\nsamples = 110\nvalue = [1, 99, 2, 8]\nclass = detached", fillcolor="#5be84e"] ;
57 -> 58 ;
59 [label="xy_total_sales <= 3.5\ngini = 0.48\nsamples = 10\nvalue = [0, 6, 0, 4]\nclass = detached", fillcolor="#c2f6bd"] ;
58 -> 59 ;
60 [label="Avg_HHsize <= 2.275\ngini = 0.245\nsamples = 7\nvalue = [0, 6, 0, 1]\nclass = detached", fillcolor="#66e95a"] ;
59 -> 60 ;
61 [label="DwelDens <= 394.754\ngini = 0.5\nsamples = 2\nvalue = [0, 1, 0, 1]\nclass = detached", fillcolor="#ffffff"] ;
60 -> 61 ;
62 [label="gini = 0.0\nsamples = 1\nvalue = [0, 1, 0, 0]\nclass = detached", fillcolor="#47e539"] ;
61 -> 62 ;
63 [label="gini = 0.0\nsamples = 1\nvalue = [0, 0, 0, 1]\nclass = other", fillcolor="#d739e5"] ;
61 -> 63 ;
64 [label="gini = 0.0\nsamples = 5\nvalue = [0, 5, 0, 0]\nclass = detached", fillcolor="#47e539"] ;
60 -> 64 ;
65 [label="gini = 0.0\nsamples = 3\nvalue = [0, 0, 0, 3]\nclass = other", fillcolor="#d739e5"] ;
59 -> 65 ;
66 [label="Sgl_det <= 99.5\ngini = 0.133\nsamples = 100\nvalue = [1, 93, 2, 4]\nclass = detached", fillcolor="#54e747"] ;
58 -> 66 ;
67 [label="pin_years_since_last_sale <= 0.375\ngini = 0.529\nsamples = 11\nvalue = [0, 7, 2, 2]\nclass = detached", fillcolor="#99f191"] ;
66 -> 67 ;
68 [label="xy_total_sales <= 2.5\ngini = 0.444\nsamples = 3\nvalue = [0, 0, 1, 2]\nclass = other", fillcolor="#eb9cf2"] ;
67 -> 68 ;
69 [label="gini = 0.0\nsamples = 2\nvalue = [0, 0, 0, 2]\nclass = other", fillcolor="#d739e5"] ;
68 -> 69 ;
70 [label="gini = 0.0\nsamples = 1\nvalue = [0, 0, 1, 0]\nclass = duplex_townhouse", fillcolor="#399de5"] ;
68 -> 70 ;
71 [label="pin_years_since_last_sale <= 0.619\ngini = 0.219\nsamples = 8\nvalue = [0, 7, 1, 0]\nclass = detached", fillcolor="#61e955"] ;
67 -> 71 ;
72 [label="pin_years_since_last_sale <= 0.492\ngini = 0.5\nsamples = 2\nvalue = [0, 1, 1, 0]\nclass = detached", fillcolor="#ffffff"] ;
71 -> 72 ;
73 [label="gini = 0.0\nsamples = 1\nvalue = [0, 1, 0, 0]\nclass = detached", fillcolor="#47e539"] ;
72 -> 73 ;
74 [label="gini = 0.0\nsamples = 1\nvalue = [0, 0, 1, 0]\nclass = duplex_townhouse", fillcolor="#399de5"] ;
72 -> 74 ;
75 [label="gini = 0.0\nsamples = 6\nvalue = [0, 6, 0, 0]\nclass = detached", fillcolor="#47e539"] ;
71 -> 75 ;
76 [label="Avg_HHsize <= 3.194\ngini = 0.066\nsamples = 89\nvalue = [1, 86, 0, 2]\nclass = detached", fillcolor="#4de640"] ;
66 -> 76 ;
77 [label="Sgl_det <= 203.0\ngini = 0.025\nsamples = 78\nvalue = [1, 77, 0, 0]\nclass = detached", fillcolor="#49e53c"] ;
76 -> 77 ;
78 [label="gini = 0.0\nsamples = 70\nvalue = [0, 70, 0, 0]\nclass = detached", fillcolor="#47e539"] ;
77 -> 78 ;
79 [label="Sgl_det <= 210.0\ngini = 0.219\nsamples = 8\nvalue = [1, 7, 0, 0]\nclass = detached", fillcolor="#61e955"] ;
77 -> 79 ;
80 [label="gini = 0.0\nsamples = 1\nvalue = [1, 0, 0, 0]\nclass = condo", fillcolor="#e58139"] ;
79 -> 80 ;
81 [label="gini = 0.0\nsamples = 7\nvalue = [0, 7, 0, 0]\nclass = detached", fillcolor="#47e539"] ;
79 -> 81 ;
82 [label="pin_years_since_last_sale <= 0.452\ngini = 0.298\nsamples = 11\nvalue = [0, 9, 0, 2]\nclass = detached", fillcolor="#70eb65"] ;
76 -> 82 ;
83 [label="gini = 0.0\nsamples = 1\nvalue = [0, 0, 0, 1]\nclass = other", fillcolor="#d739e5"] ;
82 -> 83 ;
84 [label="DwelDens <= 432.475\ngini = 0.18\nsamples = 10\nvalue = [0, 9, 0, 1]\nclass = detached", fillcolor="#5be84f"] ;
82 -> 84 ;
85 [label="Pop_y <= 4669.5\ngini = 0.444\nsamples = 3\nvalue = [0, 2, 0, 1]\nclass = detached", fillcolor="#a3f29c"] ;
84 -> 85 ;
86 [label="gini = 0.0\nsamples = 2\nvalue = [0, 2, 0, 0]\nclass = detached", fillcolor="#47e539"] ;
85 -> 86 ;
87 [label="gini = 0.0\nsamples = 1\nvalue = [0, 0, 0, 1]\nclass = other", fillcolor="#d739e5"] ;
85 -> 87 ;
88 [label="gini = 0.0\nsamples = 7\nvalue = [0, 7, 0, 0]\nclass = detached", fillcolor="#47e539"] ;
84 -> 88 ;
89 [label="gini = 0.0\nsamples = 2\nvalue = [0, 0, 0, 2]\nclass = other", fillcolor="#d739e5"] ;
57 -> 89 ;
90 [label="Pop_y <= 12270.5\ngini = 0.483\nsamples = 22\nvalue = [0, 9, 0, 13]\nclass = other", fillcolor="#f3c2f7"] ;
56 -> 90 ;
91 [label="Pop_y <= 11157.0\ngini = 0.375\nsamples = 16\nvalue = [0, 4, 0, 12]\nclass = other", fillcolor="#e47bee"] ;
90 -> 91 ;
92 [label="med_price_xy <= 446561.844\ngini = 0.5\nsamples = 8\nvalue = [0, 4, 0, 4]\nclass = detached", fillcolor="#ffffff"] ;
91 -> 92 ;
93 [label="Avg_HHsize <= 2.938\ngini = 0.444\nsamples = 6\nvalue = [0, 4, 0, 2]\nclass = detached", fillcolor="#a3f29c"] ;
92 -> 93 ;
94 [label="gini = 0.0\nsamples = 2\nvalue = [0, 0, 0, 2]\nclass = other", fillcolor="#d739e5"] ;
93 -> 94 ;
95 [label="gini = 0.0\nsamples = 4\nvalue = [0, 4, 0, 0]\nclass = detached", fillcolor="#47e539"] ;
93 -> 95 ;
96 [label="gini = 0.0\nsamples = 2\nvalue = [0, 0, 0, 2]\nclass = other", fillcolor="#d739e5"] ;
92 -> 96 ;
97 [label="gini = 0.0\nsamples = 8\nvalue = [0, 0, 0, 8]\nclass = other", fillcolor="#d739e5"] ;
91 -> 97 ;
98 [label="CarTrVan_d <= 232.0\ngini = 0.278\nsamples = 6\nvalue = [0, 5, 0, 1]\nclass = detached", fillcolor="#6cea61"] ;
90 -> 98 ;
99 [label="gini = 0.0\nsamples = 5\nvalue = [0, 5, 0, 0]\nclass = detached", fillcolor="#47e539"] ;
98 -> 99 ;
100 [label="gini = 0.0\nsamples = 1\nvalue = [0, 0, 0, 1]\nclass = other", fillcolor="#d739e5"] ;
98 -> 100 ;
101 [label="med_price_xy <= 249926.305\ngini = 0.136\nsamples = 82\nvalue = [0, 6, 0, 76]\nclass = other", fillcolor="#da49e7"] ;
55 -> 101 ;
102 [label="med_price_xy <= 221099.766\ngini = 0.48\nsamples = 10\nvalue = [0, 4, 0, 6]\nclass = other", fillcolor="#f2bdf6"] ;
101 -> 102 ;
103 [label="gini = 0.0\nsamples = 3\nvalue = [0, 0, 0, 3]\nclass = other", fillcolor="#d739e5"] ;
102 -> 103 ;
104 [label="pin_years_since_last_sale <= 0.308\ngini = 0.49\nsamples = 7\nvalue = [0, 4, 0, 3]\nclass = detached", fillcolor="#d1f8ce"] ;
102 -> 104 ;
105 [label="Avg_HHsize <= 3.625\ngini = 0.375\nsamples = 4\nvalue = [0, 1, 0, 3]\nclass = other", fillcolor="#e47bee"] ;
104 -> 105 ;
106 [label="gini = 0.0\nsamples = 1\nvalue = [0, 1, 0, 0]\nclass = detached", fillcolor="#47e539"] ;
105 -> 106 ;
107 [label="gini = 0.0\nsamples = 3\nvalue = [0, 0, 0, 3]\nclass = other", fillcolor="#d739e5"] ;
105 -> 107 ;
108 [label="gini = 0.0\nsamples = 3\nvalue = [0, 3, 0, 0]\nclass = detached", fillcolor="#47e539"] ;
104 -> 108 ;
109 [label="med_price_xy <= 1347443.75\ngini = 0.054\nsamples = 72\nvalue = [0, 2, 0, 70]\nclass = other", fillcolor="#d83fe6"] ;
101 -> 109 ;
110 [label="pin_years_since_last_sale <= 1.756\ngini = 0.028\nsamples = 71\nvalue = [0, 1, 0, 70]\nclass = other", fillcolor="#d83ce5"] ;
109 -> 110 ;
111 [label="gini = 0.0\nsamples = 70\nvalue = [0, 0, 0, 70]\nclass = other", fillcolor="#d739e5"] ;
110 -> 111 ;
112 [label="gini = 0.0\nsamples = 1\nvalue = [0, 1, 0, 0]\nclass = detached", fillcolor="#47e539"] ;
110 -> 112 ;
113 [label="gini = 0.0\nsamples = 1\nvalue = [0, 1, 0, 0]\nclass = detached", fillcolor="#47e539"] ;
109 -> 113 ;
114 [label="Avg_HHsize <= 2.539\ngini = 0.052\nsamples = 2717\nvalue = [0, 68, 4, 2645]\nclass = other", fillcolor="#d83ee6"] ;
4 -> 114 ;
115 [label="DwelDens <= 485.737\ngini = 0.541\nsamples = 22\nvalue = [0, 10, 1, 11]\nclass = other", fillcolor="#fceefd"] ;
114 -> 115 ;
116 [label="med_price_xy <= 242889.281\ngini = 0.439\nsamples = 14\nvalue = [0, 10, 1, 3]\nclass = detached", fillcolor="#8aee81"] ;
115 -> 116 ;
117 [label="gini = 0.0\nsamples = 6\nvalue = [0, 6, 0, 0]\nclass = detached", fillcolor="#47e539"] ;
116 -> 117 ;
118 [label="pin_years_since_last_sale <= 0.714\ngini = 0.594\nsamples = 8\nvalue = [0, 4, 1, 3]\nclass = detached", fillcolor="#dafad7"] ;
116 -> 118 ;
119 [label="gini = 0.0\nsamples = 1\nvalue = [0, 0, 1, 0]\nclass = duplex_townhouse", fillcolor="#399de5"] ;
118 -> 119 ;
120 [label="Pop_y <= 2355.0\ngini = 0.49\nsamples = 7\nvalue = [0, 4, 0, 3]\nclass = detached", fillcolor="#d1f8ce"] ;
118 -> 120 ;
121 [label="CarTrVan_d <= 347.0\ngini = 0.48\nsamples = 5\nvalue = [0, 2, 0, 3]\nclass = other", fillcolor="#f2bdf6"] ;
120 -> 121 ;
122 [label="med_price_xy <= 589243.5\ngini = 0.444\nsamples = 3\nvalue = [0, 2, 0, 1]\nclass = detached", fillcolor="#a3f29c"] ;
121 -> 122 ;
123 [label="gini = 0.0\nsamples = 2\nvalue = [0, 2, 0, 0]\nclass = detached", fillcolor="#47e539"] ;
122 -> 123 ;
124 [label="gini = 0.0\nsamples = 1\nvalue = [0, 0, 0, 1]\nclass = other", fillcolor="#d739e5"] ;
122 -> 124 ;
125 [label="gini = 0.0\nsamples = 2\nvalue = [0, 0, 0, 2]\nclass = other", fillcolor="#d739e5"] ;
121 -> 125 ;
126 [label="gini = 0.0\nsamples = 2\nvalue = [0, 2, 0, 0]\nclass = detached", fillcolor="#47e539"] ;
120 -> 126 ;
127 [label="gini = 0.0\nsamples = 8\nvalue = [0, 0, 0, 8]\nclass = other", fillcolor="#d739e5"] ;
115 -> 127 ;
128 [label="Sgl_det <= 48.0\ngini = 0.044\nsamples = 2695\nvalue = [0, 58, 3, 2634]\nclass = other", fillcolor="#d83ee6"] ;
114 -> 128 ;
129 [label="gini = 0.0\nsamples = 1\nvalue = [0, 0, 1, 0]\nclass = duplex_townhouse", fillcolor="#399de5"] ;
128 -> 129 ;
130 [label="Avg_HHsize <= 2.736\ngini = 0.044\nsamples = 2694\nvalue = [0, 58, 2, 2634]\nclass = other", fillcolor="#d83ee6"] ;
128 -> 130 ;
131 [label="Sgl_det <= 506.0\ngini = 0.252\nsamples = 69\nvalue = [0, 9, 1, 59]\nclass = other", fillcolor="#de5ae9"] ;
130 -> 131 ;
132 [label="DwelDens <= 348.993\ngini = 0.192\nsamples = 66\nvalue = [0, 6, 1, 59]\nclass = other", fillcolor="#dc50e8"] ;
131 -> 132 ;
133 [label="Pop_y <= 587.5\ngini = 0.144\nsamples = 64\nvalue = [0, 5, 0, 59]\nclass = other", fillcolor="#da4ae7"] ;
132 -> 133 ;
134 [label="gini = 0.0\nsamples = 1\nvalue = [0, 1, 0, 0]\nclass = detached", fillcolor="#47e539"] ;
133 -> 134 ;
135 [label="Sgl_det <= 358.0\ngini = 0.119\nsamples = 63\nvalue = [0, 4, 0, 59]\nclass = other", fillcolor="#da46e7"] ;
133 -> 135 ;
136 [label="med_price_xy <= 494812.797\ngini = 0.07\nsamples = 55\nvalue = [0, 2, 0, 53]\nclass = other", fillcolor="#d940e6"] ;
135 -> 136 ;
137 [label="DwelDens <= 53.154\ngini = 0.038\nsamples = 52\nvalue = [0, 1, 0, 51]\nclass = other", fillcolor="#d83de6"] ;
136 -> 137 ;
138 [label="Avg_HHsize <= 2.63\ngini = 0.5\nsamples = 2\nvalue = [0, 1, 0, 1]\nclass = detached", fillcolor="#ffffff"] ;
137 -> 138 ;
139 [label="gini = 0.0\nsamples = 1\nvalue = [0, 0, 0, 1]\nclass = other", fillcolor="#d739e5"] ;
138 -> 139 ;
140 [label="gini = 0.0\nsamples = 1\nvalue = [0, 1, 0, 0]\nclass = detached", fillcolor="#47e539"] ;
138 -> 140 ;
141 [label="gini = 0.0\nsamples = 50\nvalue = [0, 0, 0, 50]\nclass = other", fillcolor="#d739e5"] ;
137 -> 141 ;
142 [label="Sgl_det <= 245.0\ngini = 0.444\nsamples = 3\nvalue = [0, 1, 0, 2]\nclass = other", fillcolor="#eb9cf2"] ;
136 -> 142 ;
143 [label="gini = 0.0\nsamples = 2\nvalue = [0, 0, 0, 2]\nclass = other", fillcolor="#d739e5"] ;
142 -> 143 ;
144 [label="gini = 0.0\nsamples = 1\nvalue = [0, 1, 0, 0]\nclass = detached", fillcolor="#47e539"] ;
142 -> 144 ;
145 [label="DwelDens <= 97.546\ngini = 0.375\nsamples = 8\nvalue = [0, 2, 0, 6]\nclass = other", fillcolor="#e47bee"] ;
135 -> 145 ;
146 [label="gini = 0.0\nsamples = 2\nvalue = [0, 2, 0, 0]\nclass = detached", fillcolor="#47e539"] ;
145 -> 146 ;
147 [label="gini = 0.0\nsamples = 6\nvalue = [0, 0, 0, 6]\nclass = other", fillcolor="#d739e5"] ;
145 -> 147 ;
148 [label="med_price_xy <= 205046.332\ngini = 0.5\nsamples = 2\nvalue = [0, 1, 1, 0]\nclass = detached", fillcolor="#ffffff"] ;
132 -> 148 ;
149 [label="gini = 0.0\nsamples = 1\nvalue = [0, 1, 0, 0]\nclass = detached", fillcolor="#47e539"] ;
148 -> 149 ;
150 [label="gini = 0.0\nsamples = 1\nvalue = [0, 0, 1, 0]\nclass = duplex_townhouse", fillcolor="#399de5"] ;
148 -> 150 ;
151 [label="gini = 0.0\nsamples = 3\nvalue = [0, 3, 0, 0]\nclass = detached", fillcolor="#47e539"] ;
131 -> 151 ;
152 [label="CarTrVan_d <= 514.5\ngini = 0.037\nsamples = 2625\nvalue = [0, 49, 1, 2575]\nclass = other", fillcolor="#d83de6"] ;
130 -> 152 ;
153 [label="CarTrVan_d <= 506.5\ngini = 0.09\nsamples = 738\nvalue = [0, 34, 1, 703]\nclass = other", fillcolor="#d943e6"] ;
152 -> 153 ;
154 [label="Sgl_det <= 412.5\ngini = 0.088\nsamples = 737\nvalue = [0, 33, 1, 703]\nclass = other", fillcolor="#d943e6"] ;
153 -> 154 ;
155 [label="DwelDens <= 453.324\ngini = 0.086\nsamples = 736\nvalue = [0, 32, 1, 703]\nclass = other", fillcolor="#d942e6"] ;
154 -> 155 ;
156 [label="DwelDens <= 46.45\ngini = 0.055\nsamples = 599\nvalue = [0, 17, 0, 582]\nclass = other", fillcolor="#d83fe6"] ;
155 -> 156 ;
157 [label="DwelDens <= 36.646\ngini = 0.168\nsamples = 54\nvalue = [0, 5, 0, 49]\nclass = other", fillcolor="#db4de8"] ;
156 -> 157 ;
158 [label="pin_years_since_last_sale <= 1.762\ngini = 0.075\nsamples = 51\nvalue = [0, 2, 0, 49]\nclass = other", fillcolor="#d941e6"] ;
157 -> 158 ;
159 [label="pin_years_since_last_sale <= 1.237\ngini = 0.039\nsamples = 50\nvalue = [0, 1, 0, 49]\nclass = other", fillcolor="#d83de6"] ;
158 -> 159 ;
160 [label="gini = 0.0\nsamples = 46\nvalue = [0, 0, 0, 46]\nclass = other", fillcolor="#d739e5"] ;
159 -> 160 ;
161 [label="Avg_HHsize <= 3.07\ngini = 0.375\nsamples = 4\nvalue = [0, 1, 0, 3]\nclass = other", fillcolor="#e47bee"] ;
159 -> 161 ;
162 [label="gini = 0.0\nsamples = 3\nvalue = [0, 0, 0, 3]\nclass = other", fillcolor="#d739e5"] ;
161 -> 162 ;
163 [label="gini = 0.0\nsamples = 1\nvalue = [0, 1, 0, 0]\nclass = detached", fillcolor="#47e539"] ;
161 -> 163 ;
164 [label="gini = 0.0\nsamples = 1\nvalue = [0, 1, 0, 0]\nclass = detached", fillcolor="#47e539"] ;
158 -> 164 ;
165 [label="gini = 0.0\nsamples = 3\nvalue = [0, 3, 0, 0]\nclass = detached", fillcolor="#47e539"] ;
157 -> 165 ;
166 [label="DwelDens <= 170.709\ngini = 0.043\nsamples = 545\nvalue = [0, 12, 0, 533]\nclass = other", fillcolor="#d83de6"] ;
156 -> 166 ;
167 [label="Sgl_det <= 306.5\ngini = 0.017\nsamples = 353\nvalue = [0, 3, 0, 350]\nclass = other", fillcolor="#d73be5"] ;
166 -> 167 ;
168 [label="Pop_y <= 1010.0\ngini = 0.011\nsamples = 348\nvalue = [0, 2, 0, 346]\nclass = other", fillcolor="#d73ae5"] ;
167 -> 168 ;
169 [label="xy_total_sales <= 3.5\ngini = 0.278\nsamples = 6\nvalue = [0, 1, 0, 5]\nclass = other", fillcolor="#df61ea"] ;
168 -> 169 ;
170 [label="gini = 0.0\nsamples = 5\nvalue = [0, 0, 0, 5]\nclass = other", fillcolor="#d739e5"] ;
169 -> 170 ;
171 [label="gini = 0.0\nsamples = 1\nvalue = [0, 1, 0, 0]\nclass = detached", fillcolor="#47e539"] ;
169 -> 171 ;
172 [label="pin_years_since_last_sale <= 1.753\ngini = 0.006\nsamples = 342\nvalue = [0, 1, 0, 341]\nclass = other", fillcolor="#d73ae5"] ;
168 -> 172 ;
173 [label="gini = 0.0\nsamples = 330\nvalue = [0, 0, 0, 330]\nclass = other", fillcolor="#d739e5"] ;
172 -> 173 ;
174 [label="Pop_y <= 1245.0\ngini = 0.153\nsamples = 12\nvalue = [0, 1, 0, 11]\nclass = other", fillcolor="#db4be7"] ;
172 -> 174 ;
175 [label="gini = 0.0\nsamples = 1\nvalue = [0, 1, 0, 0]\nclass = detached", fillcolor="#47e539"] ;
174 -> 175 ;
176 [label="gini = 0.0\nsamples = 11\nvalue = [0, 0, 0, 11]\nclass = other", fillcolor="#d739e5"] ;
174 -> 176 ;
177 [label="med_price_xy <= 303394.797\ngini = 0.32\nsamples = 5\nvalue = [0, 1, 0, 4]\nclass = other", fillcolor="#e16aec"] ;
167 -> 177 ;
178 [label="gini = 0.0\nsamples = 4\nvalue = [0, 0, 0, 4]\nclass = other", fillcolor="#d739e5"] ;
177 -> 178 ;
179 [label="gini = 0.0\nsamples = 1\nvalue = [0, 1, 0, 0]\nclass = detached", fillcolor="#47e539"] ;
177 -> 179 ;
180 [label="DwelDens <= 188.673\ngini = 0.089\nsamples = 192\nvalue = [0, 9, 0, 183]\nclass = other", fillcolor="#d943e6"] ;
166 -> 180 ;
181 [label="gini = 0.0\nsamples = 2\nvalue = [0, 2, 0, 0]\nclass = detached", fillcolor="#47e539"] ;
180 -> 181 ;
182 [label="CarTrVan_d <= 277.5\ngini = 0.071\nsamples = 190\nvalue = [0, 7, 0, 183]\nclass = other", fillcolor="#d941e6"] ;
180 -> 182 ;
183 [label="xy_total_sales <= 2.5\ngini = 0.444\nsamples = 3\nvalue = [0, 2, 0, 1]\nclass = detached", fillcolor="#a3f29c"] ;
182 -> 183 ;
184 [label="gini = 0.0\nsamples = 2\nvalue = [0, 2, 0, 0]\nclass = detached", fillcolor="#47e539"] ;
183 -> 184 ;
185 [label="gini = 0.0\nsamples = 1\nvalue = [0, 0, 0, 1]\nclass = other", fillcolor="#d739e5"] ;
183 -> 185 ;
186 [label="DwelDens <= 220.838\ngini = 0.052\nsamples = 187\nvalue = [0, 5, 0, 182]\nclass = other", fillcolor="#d83ee6"] ;
182 -> 186 ;
187 [label="pin_years_since_last_sale <= 0.705\ngini = 0.188\nsamples = 19\nvalue = [0, 2, 0, 17]\nclass = other", fillcolor="#dc50e8"] ;
186 -> 187 ;
188 [label="gini = 0.0\nsamples = 17\nvalue = [0, 0, 0, 17]\nclass = other", fillcolor="#d739e5"] ;
187 -> 188 ;
189 [label="gini = 0.0\nsamples = 2\nvalue = [0, 2, 0, 0]\nclass = detached", fillcolor="#47e539"] ;
187 -> 189 ;
190 [label="pin_years_since_last_sale <= 0.049\ngini = 0.035\nsamples = 168\nvalue = [0, 3, 0, 165]\nclass = other", fillcolor="#d83de5"] ;
186 -> 190 ;
191 [label="gini = 0.0\nsamples = 1\nvalue = [0, 1, 0, 0]\nclass = detached", fillcolor="#47e539"] ;
190 -> 191 ;
192 [label="pin_years_since_last_sale <= 0.305\ngini = 0.024\nsamples = 167\nvalue = [0, 2, 0, 165]\nclass = other", fillcolor="#d73be5"] ;
190 -> 192 ;
193 [label="pin_years_since_last_sale <= 0.249\ngini = 0.198\nsamples = 9\nvalue = [0, 1, 0, 8]\nclass = other", fillcolor="#dc52e8"] ;
192 -> 193 ;
194 [label="gini = 0.0\nsamples = 8\nvalue = [0, 0, 0, 8]\nclass = other", fillcolor="#d739e5"] ;
193 -> 194 ;
195 [label="gini = 0.0\nsamples = 1\nvalue = [0, 1, 0, 0]\nclass = detached", fillcolor="#47e539"] ;
193 -> 195 ;
196 [label="CarTrVan_d <= 468.0\ngini = 0.013\nsamples = 158\nvalue = [0, 1, 0, 157]\nclass = other", fillcolor="#d73ae5"] ;
192 -> 196 ;
197 [label="gini = 0.0\nsamples = 132\nvalue = [0, 0, 0, 132]\nclass = other", fillcolor="#d739e5"] ;
196 -> 197 ;
198 [label="gini = 0.074\nsamples = 26\nvalue = [0, 1, 0, 25]\nclass = other", fillcolor="#d941e6"] ;
196 -> 198 ;
199 [label="Avg_HHsize <= 3.167\ngini = 0.208\nsamples = 137\nvalue = [0, 15, 1, 121]\nclass = other", fillcolor="#dc53e8"] ;
155 -> 199 ;
200 [label="med_price_xy <= 459470.109\ngini = 0.518\nsamples = 28\nvalue = [0, 11, 1, 16]\nclass = other", fillcolor="#f3c5f7"] ;
199 -> 200 ;
201 [label="CarTrVan_d <= 298.0\ngini = 0.486\nsamples = 25\nvalue = [0, 8, 1, 16]\nclass = other", fillcolor="#eca2f3"] ;
200 -> 201 ;
202 [label="Pop_y <= 11244.5\ngini = 0.444\nsamples = 3\nvalue = [0, 2, 1, 0]\nclass = detached", fillcolor="#a3f29c"] ;
201 -> 202 ;
203 [label="gini = 0.0\nsamples = 1\nvalue = [0, 0, 1, 0]\nclass = duplex_townhouse", fillcolor="#399de5"] ;
202 -> 203 ;
204 [label="gini = 0.0\nsamples = 2\nvalue = [0, 2, 0, 0]\nclass = detached", fillcolor="#47e539"] ;
202 -> 204 ;
205 [label="med_price_xy <= 289459.766\ngini = 0.397\nsamples = 22\nvalue = [0, 6, 0, 16]\nclass = other", fillcolor="#e683ef"] ;
201 -> 205 ;
206 [label="pin_years_since_last_sale <= 0.904\ngini = 0.469\nsamples = 8\nvalue = [0, 5, 0, 3]\nclass = detached", fillcolor="#b5f5b0"] ;
205 -> 206 ;
207 [label="pin_years_since_last_sale <= 0.621\ngini = 0.278\nsamples = 6\nvalue = [0, 5, 0, 1]\nclass = detached", fillcolor="#6cea61"] ;
206 -> 207 ;
208 [label="pin_years_since_last_sale <= 0.453\ngini = 0.444\nsamples = 3\nvalue = [0, 2, 0, 1]\nclass = detached", fillcolor="#a3f29c"] ;
207 -> 208 ;
209 [label="gini = 0.0\nsamples = 2\nvalue = [0, 2, 0, 0]\nclass = detached", fillcolor="#47e539"] ;
208 -> 209 ;
210 [label="gini = 0.0\nsamples = 1\nvalue = [0, 0, 0, 1]\nclass = other", fillcolor="#d739e5"] ;
208 -> 210 ;
211 [label="gini = 0.0\nsamples = 3\nvalue = [0, 3, 0, 0]\nclass = detached", fillcolor="#47e539"] ;
207 -> 211 ;
212 [label="gini = 0.0\nsamples = 2\nvalue = [0, 0, 0, 2]\nclass = other", fillcolor="#d739e5"] ;
206 -> 212 ;
213 [label="med_price_xy <= 448416.422\ngini = 0.133\nsamples = 14\nvalue = [0, 1, 0, 13]\nclass = other", fillcolor="#da48e7"] ;
205 -> 213 ;
214 [label="gini = 0.0\nsamples = 12\nvalue = [0, 0, 0, 12]\nclass = other", fillcolor="#d739e5"] ;
213 -> 214 ;
215 [label="pin_years_since_last_sale <= 0.745\ngini = 0.5\nsamples = 2\nvalue = [0, 1, 0, 1]\nclass = detached", fillcolor="#ffffff"] ;
213 -> 215 ;
216 [label="gini = 0.0\nsamples = 1\nvalue = [0, 1, 0, 0]\nclass = detached", fillcolor="#47e539"] ;
215 -> 216 ;
217 [label="gini = 0.0\nsamples = 1\nvalue = [0, 0, 0, 1]\nclass = other", fillcolor="#d739e5"] ;
215 -> 217 ;
218 [label="gini = 0.0\nsamples = 3\nvalue = [0, 3, 0, 0]\nclass = detached", fillcolor="#47e539"] ;
200 -> 218 ;
219 [label="Avg_HHsize <= 3.489\ngini = 0.071\nsamples = 109\nvalue = [0, 4, 0, 105]\nclass = other", fillcolor="#d941e6"] ;
199 -> 219 ;
220 [label="Pop_y <= 11228.5\ngini = 0.039\nsamples = 100\nvalue = [0, 2, 0, 98]\nclass = other", fillcolor="#d83de6"] ;
219 -> 220 ;
221 [label="DwelDens <= 608.223\ngini = 0.021\nsamples = 95\nvalue = [0, 1, 0, 94]\nclass = other", fillcolor="#d73be5"] ;
220 -> 221 ;
222 [label="DwelDens <= 584.441\ngini = 0.165\nsamples = 11\nvalue = [0, 1, 0, 10]\nclass = other", fillcolor="#db4de8"] ;
221 -> 222 ;
223 [label="gini = 0.0\nsamples = 10\nvalue = [0, 0, 0, 10]\nclass = other", fillcolor="#d739e5"] ;
222 -> 223 ;
224 [label="gini = 0.0\nsamples = 1\nvalue = [0, 1, 0, 0]\nclass = detached", fillcolor="#47e539"] ;
222 -> 224 ;
225 [label="gini = 0.0\nsamples = 84\nvalue = [0, 0, 0, 84]\nclass = other", fillcolor="#d739e5"] ;
221 -> 225 ;
226 [label="Sgl_det <= 268.5\ngini = 0.32\nsamples = 5\nvalue = [0, 1, 0, 4]\nclass = other", fillcolor="#e16aec"] ;
220 -> 226 ;
227 [label="gini = 0.0\nsamples = 4\nvalue = [0, 0, 0, 4]\nclass = other", fillcolor="#d739e5"] ;
226 -> 227 ;
228 [label="gini = 0.0\nsamples = 1\nvalue = [0, 1, 0, 0]\nclass = detached", fillcolor="#47e539"] ;
226 -> 228 ;
229 [label="pin_years_since_last_sale <= 1.295\ngini = 0.346\nsamples = 9\nvalue = [0, 2, 0, 7]\nclass = other", fillcolor="#e272ec"] ;
219 -> 229 ;
230 [label="Avg_HHsize <= 3.581\ngini = 0.219\nsamples = 8\nvalue = [0, 1, 0, 7]\nclass = other", fillcolor="#dd55e9"] ;
229 -> 230 ;
231 [label="gini = 0.0\nsamples = 1\nvalue = [0, 1, 0, 0]\nclass = detached", fillcolor="#47e539"] ;
230 -> 231 ;
232 [label="gini = 0.0\nsamples = 7\nvalue = [0, 0, 0, 7]\nclass = other", fillcolor="#d739e5"] ;
230 -> 232 ;
233 [label="gini = 0.0\nsamples = 1\nvalue = [0, 1, 0, 0]\nclass = detached", fillcolor="#47e539"] ;
229 -> 233 ;
234 [label="gini = 0.0\nsamples = 1\nvalue = [0, 1, 0, 0]\nclass = detached", fillcolor="#47e539"] ;
154 -> 234 ;
235 [label="gini = 0.0\nsamples = 1\nvalue = [0, 1, 0, 0]\nclass = detached", fillcolor="#47e539"] ;
153 -> 235 ;
236 [label="med_price_xy <= 1018721.844\ngini = 0.016\nsamples = 1887\nvalue = [0, 15, 0, 1872]\nclass = other", fillcolor="#d73be5"] ;
152 -> 236 ;
237 [label="Sgl_det <= 1626.0\ngini = 0.012\nsamples = 1829\nvalue = [0, 11, 0, 1818]\nclass = other", fillcolor="#d73ae5"] ;
236 -> 237 ;
238 [label="Pop_y <= 302.5\ngini = 0.01\nsamples = 1786\nvalue = [0, 9, 0, 1777]\nclass = other", fillcolor="#d73ae5"] ;
237 -> 238 ;
239 [label="Pop_y <= 124.0\ngini = 0.1\nsamples = 19\nvalue = [0, 1, 0, 18]\nclass = other", fillcolor="#d944e6"] ;
238 -> 239 ;
240 [label="gini = 0.0\nsamples = 18\nvalue = [0, 0, 0, 18]\nclass = other", fillcolor="#d739e5"] ;
239 -> 240 ;
241 [label="gini = 0.0\nsamples = 1\nvalue = [0, 1, 0, 0]\nclass = detached", fillcolor="#47e539"] ;
239 -> 241 ;
242 [label="pin_years_since_last_sale <= 1.747\ngini = 0.009\nsamples = 1767\nvalue = [0, 8, 0, 1759]\nclass = other", fillcolor="#d73ae5"] ;
238 -> 242 ;
243 [label="Avg_HHsize <= 3.22\ngini = 0.007\nsamples = 1697\nvalue = [0, 6, 0, 1691]\nclass = other", fillcolor="#d73ae5"] ;
242 -> 243 ;
244 [label="pin_years_since_last_sale <= 0.542\ngini = 0.02\nsamples = 488\nvalue = [0, 5, 0, 483]\nclass = other", fillcolor="#d73be5"] ;
243 -> 244 ;
245 [label="Pop_y <= 8225.0\ngini = 0.053\nsamples = 146\nvalue = [0, 4, 0, 142]\nclass = other", fillcolor="#d83fe6"] ;
244 -> 245 ;
246 [label="pin_years_since_last_sale <= 0.532\ngini = 0.041\nsamples = 144\nvalue = [0, 3, 0, 141]\nclass = other", fillcolor="#d83de6"] ;
245 -> 246 ;
247 [label="CarTrVan_d <= 1447.0\ngini = 0.028\nsamples = 142\nvalue = [0, 2, 0, 140]\nclass = other", fillcolor="#d83ce5"] ;
246 -> 247 ;
248 [label="Sgl_det <= 407.5\ngini = 0.015\nsamples = 132\nvalue = [0, 1, 0, 131]\nclass = other", fillcolor="#d73be5"] ;
247 -> 248 ;
249 [label="gini = 0.0\nsamples = 96\nvalue = [0, 0, 0, 96]\nclass = other", fillcolor="#d739e5"] ;
248 -> 249 ;
250 [label="CarTrVan_d <= 602.5\ngini = 0.054\nsamples = 36\nvalue = [0, 1, 0, 35]\nclass = other", fillcolor="#d83fe6"] ;
248 -> 250 ;
251 [label="gini = 0.0\nsamples = 1\nvalue = [0, 1, 0, 0]\nclass = detached", fillcolor="#47e539"] ;
250 -> 251 ;
252 [label="gini = 0.0\nsamples = 35\nvalue = [0, 0, 0, 35]\nclass = other", fillcolor="#d739e5"] ;
250 -> 252 ;
253 [label="Pop_y <= 6050.5\ngini = 0.18\nsamples = 10\nvalue = [0, 1, 0, 9]\nclass = other", fillcolor="#db4fe8"] ;
247 -> 253 ;
254 [label="gini = 0.0\nsamples = 9\nvalue = [0, 0, 0, 9]\nclass = other", fillcolor="#d739e5"] ;
253 -> 254 ;
255 [label="gini = 0.0\nsamples = 1\nvalue = [0, 1, 0, 0]\nclass = detached", fillcolor="#47e539"] ;
253 -> 255 ;
256 [label="med_price_xy <= 519077.328\ngini = 0.5\nsamples = 2\nvalue = [0, 1, 0, 1]\nclass = detached", fillcolor="#ffffff"] ;
246 -> 256 ;
257 [label="gini = 0.0\nsamples = 1\nvalue = [0, 1, 0, 0]\nclass = detached", fillcolor="#47e539"] ;
256 -> 257 ;
258 [label="gini = 0.0\nsamples = 1\nvalue = [0, 0, 0, 1]\nclass = other", fillcolor="#d739e5"] ;
256 -> 258 ;
259 [label="pin_years_since_last_sale <= 0.444\ngini = 0.5\nsamples = 2\nvalue = [0, 1, 0, 1]\nclass = detached", fillcolor="#ffffff"] ;
245 -> 259 ;
260 [label="gini = 0.0\nsamples = 1\nvalue = [0, 0, 0, 1]\nclass = other", fillcolor="#d739e5"] ;
259 -> 260 ;
261 [label="gini = 0.0\nsamples = 1\nvalue = [0, 1, 0, 0]\nclass = detached", fillcolor="#47e539"] ;
259 -> 261 ;
262 [label="CarTrVan_d <= 1839.0\ngini = 0.006\nsamples = 342\nvalue = [0, 1, 0, 341]\nclass = other", fillcolor="#d73ae5"] ;
244 -> 262 ;
263 [label="gini = 0.0\nsamples = 324\nvalue = [0, 0, 0, 324]\nclass = other", fillcolor="#d739e5"] ;
262 -> 263 ;
264 [label="CarTrVan_d <= 2107.5\ngini = 0.105\nsamples = 18\nvalue = [0, 1, 0, 17]\nclass = other", fillcolor="#d945e7"] ;
262 -> 264 ;
265 [label="med_price_xy <= 564955.656\ngini = 0.5\nsamples = 2\nvalue = [0, 1, 0, 1]\nclass = detached", fillcolor="#ffffff"] ;
264 -> 265 ;
266 [label="gini = 0.0\nsamples = 1\nvalue = [0, 1, 0, 0]\nclass = detached", fillcolor="#47e539"] ;
265 -> 266 ;
267 [label="gini = 0.0\nsamples = 1\nvalue = [0, 0, 0, 1]\nclass = other", fillcolor="#d739e5"] ;
265 -> 267 ;
268 [label="gini = 0.0\nsamples = 16\nvalue = [0, 0, 0, 16]\nclass = other", fillcolor="#d739e5"] ;
264 -> 268 ;
269 [label="Sgl_det <= 1493.5\ngini = 0.002\nsamples = 1209\nvalue = [0, 1, 0, 1208]\nclass = other", fillcolor="#d739e5"] ;
243 -> 269 ;
270 [label="gini = 0.0\nsamples = 1167\nvalue = [0, 0, 0, 1167]\nclass = other", fillcolor="#d739e5"] ;
269 -> 270 ;
271 [label="med_price_xy <= 636949.562\ngini = 0.046\nsamples = 42\nvalue = [0, 1, 0, 41]\nclass = other", fillcolor="#d83ee6"] ;
269 -> 271 ;
272 [label="med_price_xy <= 611787.594\ngini = 0.198\nsamples = 9\nvalue = [0, 1, 0, 8]\nclass = other", fillcolor="#dc52e8"] ;
271 -> 272 ;
273 [label="gini = 0.0\nsamples = 8\nvalue = [0, 0, 0, 8]\nclass = other", fillcolor="#d739e5"] ;
272 -> 273 ;
274 [label="gini = 0.0\nsamples = 1\nvalue = [0, 1, 0, 0]\nclass = detached", fillcolor="#47e539"] ;
272 -> 274 ;
275 [label="gini = 0.0\nsamples = 33\nvalue = [0, 0, 0, 33]\nclass = other", fillcolor="#d739e5"] ;
271 -> 275 ;
276 [label="Avg_HHsize <= 3.95\ngini = 0.056\nsamples = 70\nvalue = [0, 2, 0, 68]\nclass = other", fillcolor="#d83fe6"] ;
242 -> 276 ;
277 [label="gini = 0.0\nsamples = 66\nvalue = [0, 0, 0, 66]\nclass = other", fillcolor="#d739e5"] ;
276 -> 277 ;
278 [label="Sgl_det <= 718.0\ngini = 0.5\nsamples = 4\nvalue = [0, 2, 0, 2]\nclass = detached", fillcolor="#ffffff"] ;
276 -> 278 ;
279 [label="gini = 0.0\nsamples = 2\nvalue = [0, 0, 0, 2]\nclass = other", fillcolor="#d739e5"] ;
278 -> 279 ;
280 [label="gini = 0.0\nsamples = 2\nvalue = [0, 2, 0, 0]\nclass = detached", fillcolor="#47e539"] ;
278 -> 280 ;
281 [label="med_price_xy <= 866806.938\ngini = 0.089\nsamples = 43\nvalue = [0, 2, 0, 41]\nclass = other", fillcolor="#d943e6"] ;
237 -> 281 ;
282 [label="med_price_xy <= 493001.469\ngini = 0.049\nsamples = 40\nvalue = [0, 1, 0, 39]\nclass = other", fillcolor="#d83ee6"] ;
281 -> 282 ;
283 [label="med_price_xy <= 487801.766\ngini = 0.219\nsamples = 8\nvalue = [0, 1, 0, 7]\nclass = other", fillcolor="#dd55e9"] ;
282 -> 283 ;
284 [label="gini = 0.0\nsamples = 7\nvalue = [0, 0, 0, 7]\nclass = other", fillcolor="#d739e5"] ;
283 -> 284 ;
285 [label="gini = 0.0\nsamples = 1\nvalue = [0, 1, 0, 0]\nclass = detached", fillcolor="#47e539"] ;
283 -> 285 ;
286 [label="gini = 0.0\nsamples = 32\nvalue = [0, 0, 0, 32]\nclass = other", fillcolor="#d739e5"] ;
282 -> 286 ;
287 [label="med_price_xy <= 894664.344\ngini = 0.444\nsamples = 3\nvalue = [0, 1, 0, 2]\nclass = other", fillcolor="#eb9cf2"] ;
281 -> 287 ;
288 [label="gini = 0.0\nsamples = 1\nvalue = [0, 1, 0, 0]\nclass = detached", fillcolor="#47e539"] ;
287 -> 288 ;
289 [label="gini = 0.0\nsamples = 2\nvalue = [0, 0, 0, 2]\nclass = other", fillcolor="#d739e5"] ;
287 -> 289 ;
290 [label="Pop_y <= 4094.0\ngini = 0.128\nsamples = 58\nvalue = [0, 4, 0, 54]\nclass = other", fillcolor="#da48e7"] ;
236 -> 290 ;
291 [label="DwelDens <= 338.037\ngini = 0.444\nsamples = 12\nvalue = [0, 4, 0, 8]\nclass = other", fillcolor="#eb9cf2"] ;
290 -> 291 ;
292 [label="Sgl_det <= 928.5\ngini = 0.198\nsamples = 9\nvalue = [0, 1, 0, 8]\nclass = other", fillcolor="#dc52e8"] ;
291 -> 292 ;
293 [label="gini = 0.0\nsamples = 8\nvalue = [0, 0, 0, 8]\nclass = other", fillcolor="#d739e5"] ;
292 -> 293 ;
294 [label="gini = 0.0\nsamples = 1\nvalue = [0, 1, 0, 0]\nclass = detached", fillcolor="#47e539"] ;
292 -> 294 ;
295 [label="gini = 0.0\nsamples = 3\nvalue = [0, 3, 0, 0]\nclass = detached", fillcolor="#47e539"] ;
291 -> 295 ;
296 [label="gini = 0.0\nsamples = 46\nvalue = [0, 0, 0, 46]\nclass = other", fillcolor="#d739e5"] ;
290 -> 296 ;
297 [label="CarTrVan_d <= 259.5\ngini = 0.553\nsamples = 930\nvalue = [5, 509, 65, 351]\nclass = detached", fillcolor="#cdf8c9"] ;
3 -> 297 ;
298 [label="Sgl_det <= 54.5\ngini = 0.382\nsamples = 574\nvalue = [5, 442, 53, 74]\nclass = detached", fillcolor="#78ec6d"] ;
297 -> 298 ;
299 [label="pin_years_since_last_sale <= 0.615\ngini = 0.633\nsamples = 113\nvalue = [4, 51, 43, 15]\nclass = detached", fillcolor="#eafce8"] ;
298 -> 299 ;
300 [label="pin_years_since_last_sale <= 0.189\ngini = 0.516\nsamples = 29\nvalue = [1, 6, 19, 3]\nclass = duplex_townhouse", fillcolor="#8fc8f0"] ;
299 -> 300 ;
301 [label="gini = 0.0\nsamples = 2\nvalue = [0, 0, 0, 2]\nclass = other", fillcolor="#d739e5"] ;
300 -> 301 ;
302 [label="CarTrVan_d <= 122.5\ngini = 0.453\nsamples = 27\nvalue = [1, 6, 19, 1]\nclass = duplex_townhouse", fillcolor="#84c2ef"] ;
300 -> 302 ;
303 [label="pin_years_since_last_sale <= 0.508\ngini = 0.539\nsamples = 16\nvalue = [1, 6, 9, 0]\nclass = duplex_townhouse", fillcolor="#c4e2f7"] ;
302 -> 303 ;
304 [label="CarTrVan_d <= 72.5\ngini = 0.568\nsamples = 9\nvalue = [1, 5, 3, 0]\nclass = detached", fillcolor="#c2f6bd"] ;
303 -> 304 ;
305 [label="Avg_HHsize <= 2.35\ngini = 0.375\nsamples = 4\nvalue = [0, 1, 3, 0]\nclass = duplex_townhouse", fillcolor="#7bbeee"] ;
304 -> 305 ;
306 [label="gini = 0.0\nsamples = 1\nvalue = [0, 1, 0, 0]\nclass = detached", fillcolor="#47e539"] ;
305 -> 306 ;
307 [label="gini = 0.0\nsamples = 3\nvalue = [0, 0, 3, 0]\nclass = duplex_townhouse", fillcolor="#399de5"] ;
305 -> 307 ;
308 [label="Sgl_det <= 17.5\ngini = 0.32\nsamples = 5\nvalue = [1, 4, 0, 0]\nclass = detached", fillcolor="#75ec6a"] ;
304 -> 308 ;
309 [label="gini = 0.0\nsamples = 1\nvalue = [1, 0, 0, 0]\nclass = condo", fillcolor="#e58139"] ;
308 -> 309 ;
310 [label="gini = 0.0\nsamples = 4\nvalue = [0, 4, 0, 0]\nclass = detached", fillcolor="#47e539"] ;
308 -> 310 ;
311 [label="CarTrVan_d <= 118.5\ngini = 0.245\nsamples = 7\nvalue = [0, 1, 6, 0]\nclass = duplex_townhouse", fillcolor="#5aade9"] ;
303 -> 311 ;
312 [label="gini = 0.0\nsamples = 6\nvalue = [0, 0, 6, 0]\nclass = duplex_townhouse", fillcolor="#399de5"] ;
311 -> 312 ;
313 [label="gini = 0.0\nsamples = 1\nvalue = [0, 1, 0, 0]\nclass = detached", fillcolor="#47e539"] ;
311 -> 313 ;
314 [label="Sgl_det <= 7.5\ngini = 0.165\nsamples = 11\nvalue = [0, 0, 10, 1]\nclass = duplex_townhouse", fillcolor="#4da7e8"] ;
302 -> 314 ;
315 [label="gini = 0.0\nsamples = 1\nvalue = [0, 0, 0, 1]\nclass = other", fillcolor="#d739e5"] ;
314 -> 315 ;
316 [label="gini = 0.0\nsamples = 10\nvalue = [0, 0, 10, 0]\nclass = duplex_townhouse", fillcolor="#399de5"] ;
314 -> 316 ;
317 [label="CarTrVan_d <= 87.5\ngini = 0.61\nsamples = 84\nvalue = [3, 45, 24, 12]\nclass = detached", fillcolor="#bff6ba"] ;
299 -> 317 ;
318 [label="Avg_HHsize <= 1.25\ngini = 0.402\nsamples = 39\nvalue = [0, 29, 8, 2]\nclass = detached", fillcolor="#82ed79"] ;
317 -> 318 ;
319 [label="gini = 0.0\nsamples = 1\nvalue = [0, 0, 0, 1]\nclass = other", fillcolor="#d739e5"] ;
318 -> 319 ;
320 [label="Pop_y <= 4278.0\ngini = 0.373\nsamples = 38\nvalue = [0, 29, 8, 1]\nclass = detached", fillcolor="#7eed74"] ;
318 -> 320 ;
321 [label="gini = 0.0\nsamples = 12\nvalue = [0, 12, 0, 0]\nclass = detached", fillcolor="#47e539"] ;
320 -> 321 ;
322 [label="Pop_y <= 7512.5\ngini = 0.476\nsamples = 26\nvalue = [0, 17, 8, 1]\nclass = detached", fillcolor="#a3f29c"] ;
320 -> 322 ;
323 [label="Pop_y <= 6834.5\ngini = 0.543\nsamples = 19\nvalue = [0, 10, 8, 1]\nclass = detached", fillcolor="#defadb"] ;
322 -> 323 ;
324 [label="Sgl_det <= 28.0\ngini = 0.439\nsamples = 14\nvalue = [0, 10, 3, 1]\nclass = detached", fillcolor="#8aee81"] ;
323 -> 324 ;
325 [label="DwelDens <= 5440.686\ngini = 0.165\nsamples = 11\nvalue = [0, 10, 1, 0]\nclass = detached", fillcolor="#59e84d"] ;
324 -> 325 ;
326 [label="gini = 0.0\nsamples = 10\nvalue = [0, 10, 0, 0]\nclass = detached", fillcolor="#47e539"] ;
325 -> 326 ;
327 [label="gini = 0.0\nsamples = 1\nvalue = [0, 0, 1, 0]\nclass = duplex_townhouse", fillcolor="#399de5"] ;
325 -> 327 ;
328 [label="Pop_y <= 4534.0\ngini = 0.444\nsamples = 3\nvalue = [0, 0, 2, 1]\nclass = duplex_townhouse", fillcolor="#9ccef2"] ;
324 -> 328 ;
329 [label="gini = 0.0\nsamples = 2\nvalue = [0, 0, 2, 0]\nclass = duplex_townhouse", fillcolor="#399de5"] ;
328 -> 329 ;
330 [label="gini = 0.0\nsamples = 1\nvalue = [0, 0, 0, 1]\nclass = other", fillcolor="#d739e5"] ;
328 -> 330 ;
331 [label="gini = 0.0\nsamples = 5\nvalue = [0, 0, 5, 0]\nclass = duplex_townhouse", fillcolor="#399de5"] ;
323 -> 331 ;
332 [label="gini = 0.0\nsamples = 7\nvalue = [0, 7, 0, 0]\nclass = detached", fillcolor="#47e539"] ;
322 -> 332 ;
333 [label="Avg_HHsize <= 2.85\ngini = 0.693\nsamples = 45\nvalue = [3, 16, 16, 10]\nclass = detached", fillcolor="#ffffff"] ;
317 -> 333 ;
334 [label="pin_years_since_last_sale <= 0.785\ngini = 0.697\nsamples = 34\nvalue = [3, 8, 14, 9]\nclass = duplex_townhouse", fillcolor="#d7ebfa"] ;
333 -> 334 ;
335 [label="gini = 0.0\nsamples = 4\nvalue = [0, 4, 0, 0]\nclass = detached", fillcolor="#47e539"] ;
334 -> 335 ;
336 [label="CarTrVan_d <= 102.5\ngini = 0.664\nsamples = 30\nvalue = [3, 4, 14, 9]\nclass = duplex_townhouse", fillcolor="#d0e8f9"] ;
334 -> 336 ;
337 [label="Sgl_det <= 42.5\ngini = 0.198\nsamples = 9\nvalue = [0, 0, 8, 1]\nclass = duplex_townhouse", fillcolor="#52a9e8"] ;
336 -> 337 ;
338 [label="gini = 0.0\nsamples = 8\nvalue = [0, 0, 8, 0]\nclass = duplex_townhouse", fillcolor="#399de5"] ;
337 -> 338 ;
339 [label="gini = 0.0\nsamples = 1\nvalue = [0, 0, 0, 1]\nclass = other", fillcolor="#d739e5"] ;
337 -> 339 ;
340 [label="Pop_y <= 7073.5\ngini = 0.717\nsamples = 21\nvalue = [3, 4, 6, 8]\nclass = other", fillcolor="#fae5fc"] ;
336 -> 340 ;
341 [label="xy_total_sales <= 2.5\ngini = 0.694\nsamples = 14\nvalue = [2, 4, 6, 2]\nclass = duplex_townhouse", fillcolor="#d7ebfa"] ;
340 -> 341 ;
342 [label="CarTrVan_d <= 112.5\ngini = 0.58\nsamples = 10\nvalue = [1, 1, 6, 2]\nclass = duplex_townhouse", fillcolor="#9ccef2"] ;
341 -> 342 ;
343 [label="pin_years_since_last_sale <= 1.575\ngini = 0.444\nsamples = 3\nvalue = [0, 1, 0, 2]\nclass = other", fillcolor="#eb9cf2"] ;
342 -> 343 ;
344 [label="gini = 0.0\nsamples = 2\nvalue = [0, 0, 0, 2]\nclass = other", fillcolor="#d739e5"] ;
343 -> 344 ;
345 [label="gini = 0.0\nsamples = 1\nvalue = [0, 1, 0, 0]\nclass = detached", fillcolor="#47e539"] ;
343 -> 345 ;
346 [label="Avg_HHsize <= 1.55\ngini = 0.245\nsamples = 7\nvalue = [1, 0, 6, 0]\nclass = duplex_townhouse", fillcolor="#5aade9"] ;
342 -> 346 ;
347 [label="gini = 0.0\nsamples = 1\nvalue = [1, 0, 0, 0]\nclass = condo", fillcolor="#e58139"] ;
346 -> 347 ;
348 [label="gini = 0.0\nsamples = 6\nvalue = [0, 0, 6, 0]\nclass = duplex_townhouse", fillcolor="#399de5"] ;
346 -> 348 ;
349 [label="med_price_xy <= 668046.25\ngini = 0.375\nsamples = 4\nvalue = [1, 3, 0, 0]\nclass = detached", fillcolor="#84ee7b"] ;
341 -> 349 ;
350 [label="gini = 0.0\nsamples = 3\nvalue = [0, 3, 0, 0]\nclass = detached", fillcolor="#47e539"] ;
349 -> 350 ;
351 [label="gini = 0.0\nsamples = 1\nvalue = [1, 0, 0, 0]\nclass = condo", fillcolor="#e58139"] ;
349 -> 351 ;
352 [label="xy_total_sales <= 3.5\ngini = 0.245\nsamples = 7\nvalue = [1, 0, 0, 6]\nclass = other", fillcolor="#de5ae9"] ;
340 -> 352 ;
353 [label="gini = 0.0\nsamples = 5\nvalue = [0, 0, 0, 5]\nclass = other", fillcolor="#d739e5"] ;
352 -> 353 ;
354 [label="xy_total_sales <= 4.5\ngini = 0.5\nsamples = 2\nvalue = [1, 0, 0, 1]\nclass = condo", fillcolor="#ffffff"] ;
352 -> 354 ;
355 [label="gini = 0.0\nsamples = 1\nvalue = [1, 0, 0, 0]\nclass = condo", fillcolor="#e58139"] ;
354 -> 355 ;
356 [label="gini = 0.0\nsamples = 1\nvalue = [0, 0, 0, 1]\nclass = other", fillcolor="#d739e5"] ;
354 -> 356 ;
357 [label="DwelDens <= 1981.722\ngini = 0.43\nsamples = 11\nvalue = [0, 8, 2, 1]\nclass = detached", fillcolor="#84ee7b"] ;
333 -> 357 ;
358 [label="Sgl_det <= 20.0\ngini = 0.625\nsamples = 4\nvalue = [0, 1, 2, 1]\nclass = duplex_townhouse", fillcolor="#bddef6"] ;
357 -> 358 ;
359 [label="med_price_xy <= 438106.969\ngini = 0.5\nsamples = 2\nvalue = [0, 1, 0, 1]\nclass = detached", fillcolor="#ffffff"] ;
358 -> 359 ;
360 [label="gini = 0.0\nsamples = 1\nvalue = [0, 0, 0, 1]\nclass = other", fillcolor="#d739e5"] ;
359 -> 360 ;
361 [label="gini = 0.0\nsamples = 1\nvalue = [0, 1, 0, 0]\nclass = detached", fillcolor="#47e539"] ;
359 -> 361 ;
362 [label="gini = 0.0\nsamples = 2\nvalue = [0, 0, 2, 0]\nclass = duplex_townhouse", fillcolor="#399de5"] ;
358 -> 362 ;
363 [label="gini = 0.0\nsamples = 7\nvalue = [0, 7, 0, 0]\nclass = detached", fillcolor="#47e539"] ;
357 -> 363 ;
364 [label="med_price_xy <= 327802.0\ngini = 0.264\nsamples = 461\nvalue = [1, 391, 10, 59]\nclass = detached", fillcolor="#67ea5b"] ;
298 -> 364 ;
365 [label="Avg_HHsize <= 3.15\ngini = 0.453\nsamples = 97\nvalue = [0, 66, 3, 28]\nclass = detached", fillcolor="#9af192"] ;
364 -> 365 ;
366 [label="Sgl_det <= 122.5\ngini = 0.322\nsamples = 78\nvalue = [0, 63, 3, 12]\nclass = detached", fillcolor="#71eb66"] ;
365 -> 366 ;
367 [label="pin_years_since_last_sale <= 1.584\ngini = 0.486\nsamples = 25\nvalue = [0, 16, 1, 8]\nclass = detached", fillcolor="#a8f3a2"] ;
366 -> 367 ;
368 [label="CarTrVan_d <= 237.0\ngini = 0.417\nsamples = 22\nvalue = [0, 16, 1, 5]\nclass = detached", fillcolor="#88ee7f"] ;
367 -> 368 ;
369 [label="Pop_y <= 7133.0\ngini = 0.335\nsamples = 20\nvalue = [0, 16, 1, 3]\nclass = detached", fillcolor="#72eb68"] ;
368 -> 369 ;
370 [label="Sgl_det <= 57.5\ngini = 0.198\nsamples = 18\nvalue = [0, 16, 0, 2]\nclass = detached", fillcolor="#5ee852"] ;
369 -> 370 ;
371 [label="gini = 0.0\nsamples = 1\nvalue = [0, 0, 0, 1]\nclass = other", fillcolor="#d739e5"] ;
370 -> 371 ;
372 [label="Sgl_det <= 117.5\ngini = 0.111\nsamples = 17\nvalue = [0, 16, 0, 1]\nclass = detached", fillcolor="#52e745"] ;
370 -> 372 ;
373 [label="gini = 0.0\nsamples = 16\nvalue = [0, 16, 0, 0]\nclass = detached", fillcolor="#47e539"] ;
372 -> 373 ;
374 [label="gini = 0.0\nsamples = 1\nvalue = [0, 0, 0, 1]\nclass = other", fillcolor="#d739e5"] ;
372 -> 374 ;
375 [label="CarTrVan_d <= 82.0\ngini = 0.5\nsamples = 2\nvalue = [0, 0, 1, 1]\nclass = duplex_townhouse", fillcolor="#ffffff"] ;
369 -> 375 ;
376 [label="gini = 0.0\nsamples = 1\nvalue = [0, 0, 1, 0]\nclass = duplex_townhouse", fillcolor="#399de5"] ;
375 -> 376 ;
377 [label="gini = 0.0\nsamples = 1\nvalue = [0, 0, 0, 1]\nclass = other", fillcolor="#d739e5"] ;
375 -> 377 ;
378 [label="gini = 0.0\nsamples = 2\nvalue = [0, 0, 0, 2]\nclass = other", fillcolor="#d739e5"] ;
368 -> 378 ;
379 [label="gini = 0.0\nsamples = 3\nvalue = [0, 0, 0, 3]\nclass = other", fillcolor="#d739e5"] ;
367 -> 379 ;
380 [label="med_price_xy <= 120708.113\ngini = 0.206\nsamples = 53\nvalue = [0, 47, 2, 4]\nclass = detached", fillcolor="#5ee851"] ;
366 -> 380 ;
381 [label="gini = 0.0\nsamples = 2\nvalue = [0, 0, 2, 0]\nclass = duplex_townhouse", fillcolor="#399de5"] ;
380 -> 381 ;
382 [label="pin_years_since_last_sale <= 0.005\ngini = 0.145\nsamples = 51\nvalue = [0, 47, 0, 4]\nclass = detached", fillcolor="#57e74a"] ;
380 -> 382 ;
383 [label="gini = 0.0\nsamples = 2\nvalue = [0, 0, 0, 2]\nclass = other", fillcolor="#d739e5"] ;
382 -> 383 ;
384 [label="med_price_xy <= 302698.578\ngini = 0.078\nsamples = 49\nvalue = [0, 47, 0, 2]\nclass = detached", fillcolor="#4fe641"] ;
382 -> 384 ;
385 [label="gini = 0.0\nsamples = 44\nvalue = [0, 44, 0, 0]\nclass = detached", fillcolor="#47e539"] ;
384 -> 385 ;
386 [label="DwelDens <= 1119.402\ngini = 0.48\nsamples = 5\nvalue = [0, 3, 0, 2]\nclass = detached", fillcolor="#c2f6bd"] ;
384 -> 386 ;
387 [label="gini = 0.0\nsamples = 3\nvalue = [0, 3, 0, 0]\nclass = detached", fillcolor="#47e539"] ;
386 -> 387 ;
388 [label="gini = 0.0\nsamples = 2\nvalue = [0, 0, 0, 2]\nclass = other", fillcolor="#d739e5"] ;
386 -> 388 ;
389 [label="pin_years_since_last_sale <= 0.734\ngini = 0.266\nsamples = 19\nvalue = [0, 3, 0, 16]\nclass = other", fillcolor="#de5eea"] ;
365 -> 389 ;
390 [label="gini = 0.0\nsamples = 3\nvalue = [0, 3, 0, 0]\nclass = detached", fillcolor="#47e539"] ;
389 -> 390 ;
391 [label="gini = 0.0\nsamples = 16\nvalue = [0, 0, 0, 16]\nclass = other", fillcolor="#d739e5"] ;
389 -> 391 ;
392 [label="Avg_HHsize <= 1.75\ngini = 0.195\nsamples = 364\nvalue = [1, 325, 7, 31]\nclass = detached", fillcolor="#5de850"] ;
364 -> 392 ;
393 [label="pin_years_since_last_sale <= 1.04\ngini = 0.278\nsamples = 6\nvalue = [0, 1, 0, 5]\nclass = other", fillcolor="#df61ea"] ;
392 -> 393 ;
394 [label="gini = 0.0\nsamples = 1\nvalue = [0, 1, 0, 0]\nclass = detached", fillcolor="#47e539"] ;
393 -> 394 ;
395 [label="gini = 0.0\nsamples = 5\nvalue = [0, 0, 0, 5]\nclass = other", fillcolor="#d739e5"] ;
393 -> 395 ;
396 [label="Sgl_det <= 387.5\ngini = 0.175\nsamples = 358\nvalue = [1, 324, 7, 26]\nclass = detached", fillcolor="#5ae84d"] ;
392 -> 396 ;
397 [label="med_price_xy <= 1904158.938\ngini = 0.167\nsamples = 356\nvalue = [1, 324, 7, 24]\nclass = detached", fillcolor="#59e84c"] ;
396 -> 397 ;
398 [label="CarTrVan_d <= 62.5\ngini = 0.151\nsamples = 348\nvalue = [1, 320, 7, 20]\nclass = detached", fillcolor="#57e74a"] ;
397 -> 398 ;
399 [label="Pop_y <= 13535.5\ngini = 0.537\nsamples = 18\nvalue = [0, 11, 2, 5]\nclass = detached", fillcolor="#aaf3a4"] ;
398 -> 399 ;
400 [label="Avg_HHsize <= 2.15\ngini = 0.26\nsamples = 13\nvalue = [0, 11, 2, 0]\nclass = detached", fillcolor="#68ea5d"] ;
399 -> 400 ;
401 [label="gini = 0.0\nsamples = 1\nvalue = [0, 0, 1, 0]\nclass = duplex_townhouse", fillcolor="#399de5"] ;
400 -> 401 ;
402 [label="CarTrVan_d <= 57.5\ngini = 0.153\nsamples = 12\nvalue = [0, 11, 1, 0]\nclass = detached", fillcolor="#58e74b"] ;
400 -> 402 ;
403 [label="gini = 0.0\nsamples = 9\nvalue = [0, 9, 0, 0]\nclass = detached", fillcolor="#47e539"] ;
402 -> 403 ;
404 [label="DwelDens <= 1840.458\ngini = 0.444\nsamples = 3\nvalue = [0, 2, 1, 0]\nclass = detached", fillcolor="#a3f29c"] ;
402 -> 404 ;
405 [label="gini = 0.0\nsamples = 2\nvalue = [0, 2, 0, 0]\nclass = detached", fillcolor="#47e539"] ;
404 -> 405 ;
406 [label="gini = 0.0\nsamples = 1\nvalue = [0, 0, 1, 0]\nclass = duplex_townhouse", fillcolor="#399de5"] ;
404 -> 406 ;
407 [label="gini = 0.0\nsamples = 5\nvalue = [0, 0, 0, 5]\nclass = other", fillcolor="#d739e5"] ;
399 -> 407 ;
408 [label="Pop_y <= 1565.0\ngini = 0.121\nsamples = 330\nvalue = [1, 309, 5, 15]\nclass = detached", fillcolor="#53e746"] ;
398 -> 408 ;
409 [label="gini = 0.0\nsamples = 1\nvalue = [0, 0, 0, 1]\nclass = other", fillcolor="#d739e5"] ;
408 -> 409 ;
410 [label="CarTrVan_d <= 202.5\ngini = 0.116\nsamples = 329\nvalue = [1, 309, 5, 14]\nclass = detached", fillcolor="#53e746"] ;
408 -> 410 ;
411 [label="Pop_y <= 3152.5\ngini = 0.077\nsamples = 275\nvalue = [0, 264, 3, 8]\nclass = detached", fillcolor="#4fe641"] ;
410 -> 411 ;
412 [label="DwelDens <= 2193.819\ngini = 0.211\nsamples = 25\nvalue = [0, 22, 0, 3]\nclass = detached", fillcolor="#60e954"] ;
411 -> 412 ;
413 [label="pin_years_since_last_sale <= 1.659\ngini = 0.087\nsamples = 22\nvalue = [0, 21, 0, 1]\nclass = detached", fillcolor="#50e642"] ;
412 -> 413 ;
414 [label="gini = 0.0\nsamples = 20\nvalue = [0, 20, 0, 0]\nclass = detached", fillcolor="#47e539"] ;
413 -> 414 ;
415 [label="Sgl_det <= 167.5\ngini = 0.5\nsamples = 2\nvalue = [0, 1, 0, 1]\nclass = detached", fillcolor="#ffffff"] ;
413 -> 415 ;
416 [label="gini = 0.0\nsamples = 1\nvalue = [0, 1, 0, 0]\nclass = detached", fillcolor="#47e539"] ;
415 -> 416 ;
417 [label="gini = 0.0\nsamples = 1\nvalue = [0, 0, 0, 1]\nclass = other", fillcolor="#d739e5"] ;
415 -> 417 ;
418 [label="xy_total_sales <= 2.5\ngini = 0.444\nsamples = 3\nvalue = [0, 1, 0, 2]\nclass = other", fillcolor="#eb9cf2"] ;
412 -> 418 ;
419 [label="gini = 0.0\nsamples = 2\nvalue = [0, 0, 0, 2]\nclass = other", fillcolor="#d739e5"] ;
418 -> 419 ;
420 [label="gini = 0.0\nsamples = 1\nvalue = [0, 1, 0, 0]\nclass = detached", fillcolor="#47e539"] ;
418 -> 420 ;
421 [label="DwelDens <= 3434.956\ngini = 0.062\nsamples = 250\nvalue = [0, 242, 3, 5]\nclass = detached", fillcolor="#4de63f"] ;
411 -> 421 ;
422 [label="med_price_xy <= 1219202.438\ngini = 0.043\nsamples = 228\nvalue = [0, 223, 1, 4]\nclass = detached", fillcolor="#4be63d"] ;
421 -> 422 ;
423 [label="pin_years_since_last_sale <= 1.585\ngini = 0.029\nsamples = 204\nvalue = [0, 201, 1, 2]\nclass = detached", fillcolor="#4ae53c"] ;
422 -> 423 ;
424 [label="med_price_xy <= 351327.828\ngini = 0.011\nsamples = 185\nvalue = [0, 184, 1, 0]\nclass = detached", fillcolor="#48e53a"] ;
423 -> 424 ;
425 [label="med_price_xy <= 348233.781\ngini = 0.198\nsamples = 9\nvalue = [0, 8, 1, 0]\nclass = detached", fillcolor="#5ee852"] ;
424 -> 425 ;
426 [label="gini = 0.0\nsamples = 8\nvalue = [0, 8, 0, 0]\nclass = detached", fillcolor="#47e539"] ;
425 -> 426 ;
427 [label="gini = 0.0\nsamples = 1\nvalue = [0, 0, 1, 0]\nclass = duplex_townhouse", fillcolor="#399de5"] ;
425 -> 427 ;
428 [label="gini = 0.0\nsamples = 176\nvalue = [0, 176, 0, 0]\nclass = detached", fillcolor="#47e539"] ;
424 -> 428 ;
429 [label="pin_years_since_last_sale <= 1.588\ngini = 0.188\nsamples = 19\nvalue = [0, 17, 0, 2]\nclass = detached", fillcolor="#5de850"] ;
423 -> 429 ;
430 [label="gini = 0.0\nsamples = 1\nvalue = [0, 0, 0, 1]\nclass = other", fillcolor="#d739e5"] ;
429 -> 430 ;
431 [label="DwelDens <= 923.271\ngini = 0.105\nsamples = 18\nvalue = [0, 17, 0, 1]\nclass = detached", fillcolor="#52e745"] ;
429 -> 431 ;
432 [label="pin_years_since_last_sale <= 1.682\ngini = 0.444\nsamples = 3\nvalue = [0, 2, 0, 1]\nclass = detached", fillcolor="#a3f29c"] ;
431 -> 432 ;
433 [label="gini = 0.0\nsamples = 1\nvalue = [0, 0, 0, 1]\nclass = other", fillcolor="#d739e5"] ;
432 -> 433 ;
434 [label="gini = 0.0\nsamples = 2\nvalue = [0, 2, 0, 0]\nclass = detached", fillcolor="#47e539"] ;
432 -> 434 ;
435 [label="gini = 0.0\nsamples = 15\nvalue = [0, 15, 0, 0]\nclass = detached", fillcolor="#47e539"] ;
431 -> 435 ;
436 [label="med_price_xy <= 1228856.062\ngini = 0.153\nsamples = 24\nvalue = [0, 22, 0, 2]\nclass = detached", fillcolor="#58e74b"] ;
422 -> 436 ;
437 [label="gini = 0.5\nsamples = 2\nvalue = [0, 1, 0, 1]\nclass = detached", fillcolor="#ffffff"] ;
436 -> 437 ;
438 [label="Avg_HHsize <= 3.25\ngini = 0.087\nsamples = 22\nvalue = [0, 21, 0, 1]\nclass = detached", fillcolor="#50e642"] ;
436 -> 438 ;
439 [label="gini = 0.0\nsamples = 17\nvalue = [0, 17, 0, 0]\nclass = detached", fillcolor="#47e539"] ;
438 -> 439 ;
440 [label="DwelDens <= 1407.658\ngini = 0.32\nsamples = 5\nvalue = [0, 4, 0, 1]\nclass = detached", fillcolor="#75ec6a"] ;
438 -> 440 ;
441 [label="gini = 0.0\nsamples = 4\nvalue = [0, 4, 0, 0]\nclass = detached", fillcolor="#47e539"] ;
440 -> 441 ;
442 [label="gini = 0.0\nsamples = 1\nvalue = [0, 0, 0, 1]\nclass = other", fillcolor="#d739e5"] ;
440 -> 442 ;
443 [label="DwelDens <= 3509.448\ngini = 0.244\nsamples = 22\nvalue = [0, 19, 2, 1]\nclass = detached", fillcolor="#63e957"] ;
421 -> 443 ;
444 [label="med_price_xy <= 689901.594\ngini = 0.5\nsamples = 2\nvalue = [0, 0, 1, 1]\nclass = duplex_townhouse", fillcolor="#ffffff"] ;
443 -> 444 ;
445 [label="gini = 0.0\nsamples = 1\nvalue = [0, 0, 0, 1]\nclass = other", fillcolor="#d739e5"] ;
444 -> 445 ;
446 [label="gini = 0.0\nsamples = 1\nvalue = [0, 0, 1, 0]\nclass = duplex_townhouse", fillcolor="#399de5"] ;
444 -> 446 ;
447 [label="pin_years_since_last_sale <= 0.57\ngini = 0.095\nsamples = 20\nvalue = [0, 19, 1, 0]\nclass = detached", fillcolor="#51e643"] ;
443 -> 447 ;
448 [label="CarTrVan_d <= 122.5\ngini = 0.375\nsamples = 4\nvalue = [0, 3, 1, 0]\nclass = detached", fillcolor="#84ee7b"] ;
447 -> 448 ;
449 [label="gini = 0.0\nsamples = 1\nvalue = [0, 0, 1, 0]\nclass = duplex_townhouse", fillcolor="#399de5"] ;
448 -> 449 ;
450 [label="gini = 0.0\nsamples = 3\nvalue = [0, 3, 0, 0]\nclass = detached", fillcolor="#47e539"] ;
448 -> 450 ;
451 [label="gini = 0.0\nsamples = 16\nvalue = [0, 16, 0, 0]\nclass = detached", fillcolor="#47e539"] ;
447 -> 451 ;
452 [label="med_price_xy <= 769732.5\ngini = 0.291\nsamples = 54\nvalue = [1, 45, 2, 6]\nclass = detached", fillcolor="#69ea5e"] ;
410 -> 452 ;
453 [label="DwelDens <= 2535.061\ngini = 0.182\nsamples = 41\nvalue = [1, 37, 2, 1]\nclass = detached", fillcolor="#5ae84d"] ;
452 -> 453 ;
454 [label="Sgl_det <= 112.5\ngini = 0.142\nsamples = 40\nvalue = [1, 37, 1, 1]\nclass = detached", fillcolor="#55e748"] ;
453 -> 454 ;
455 [label="med_price_xy <= 362250.0\ngini = 0.446\nsamples = 11\nvalue = [1, 8, 1, 1]\nclass = detached", fillcolor="#7eed74"] ;
454 -> 455 ;
456 [label="gini = 0.0\nsamples = 1\nvalue = [0, 0, 1, 0]\nclass = duplex_townhouse", fillcolor="#399de5"] ;
455 -> 456 ;
457 [label="pin_years_since_last_sale <= 1.374\ngini = 0.34\nsamples = 10\nvalue = [1, 8, 0, 1]\nclass = detached", fillcolor="#70eb65"] ;
455 -> 457 ;
458 [label="gini = 0.0\nsamples = 7\nvalue = [0, 7, 0, 0]\nclass = detached", fillcolor="#47e539"] ;
457 -> 458 ;
459 [label="Sgl_det <= 85.0\ngini = 0.667\nsamples = 3\nvalue = [1, 1, 0, 1]\nclass = condo", fillcolor="#ffffff"] ;
457 -> 459 ;
460 [label="gini = 0.0\nsamples = 1\nvalue = [0, 1, 0, 0]\nclass = detached", fillcolor="#47e539"] ;
459 -> 460 ;
461 [label="Sgl_det <= 107.5\ngini = 0.5\nsamples = 2\nvalue = [1, 0, 0, 1]\nclass = condo", fillcolor="#ffffff"] ;
459 -> 461 ;
462 [label="gini = 0.0\nsamples = 1\nvalue = [1, 0, 0, 0]\nclass = condo", fillcolor="#e58139"] ;
461 -> 462 ;
463 [label="gini = 0.0\nsamples = 1\nvalue = [0, 0, 0, 1]\nclass = other", fillcolor="#d739e5"] ;
461 -> 463 ;
464 [label="gini = 0.0\nsamples = 29\nvalue = [0, 29, 0, 0]\nclass = detached", fillcolor="#47e539"] ;
454 -> 464 ;
465 [label="gini = 0.0\nsamples = 1\nvalue = [0, 0, 1, 0]\nclass = duplex_townhouse", fillcolor="#399de5"] ;
453 -> 465 ;
466 [label="CarTrVan_d <= 242.5\ngini = 0.473\nsamples = 13\nvalue = [0, 8, 0, 5]\nclass = detached", fillcolor="#baf5b5"] ;
452 -> 466 ;
467 [label="Avg_HHsize <= 2.75\ngini = 0.469\nsamples = 8\nvalue = [0, 3, 0, 5]\nclass = other", fillcolor="#efb0f5"] ;
466 -> 467 ;
468 [label="gini = 0.0\nsamples = 4\nvalue = [0, 0, 0, 4]\nclass = other", fillcolor="#d739e5"] ;
467 -> 468 ;
469 [label="Avg_HHsize <= 3.292\ngini = 0.375\nsamples = 4\nvalue = [0, 3, 0, 1]\nclass = detached", fillcolor="#84ee7b"] ;
467 -> 469 ;
470 [label="gini = 0.0\nsamples = 3\nvalue = [0, 3, 0, 0]\nclass = detached", fillcolor="#47e539"] ;
469 -> 470 ;
471 [label="gini = 0.0\nsamples = 1\nvalue = [0, 0, 0, 1]\nclass = other", fillcolor="#d739e5"] ;
469 -> 471 ;
472 [label="gini = 0.0\nsamples = 5\nvalue = [0, 5, 0, 0]\nclass = detached", fillcolor="#47e539"] ;
466 -> 472 ;
473 [label="CarTrVan_d <= 195.0\ngini = 0.5\nsamples = 8\nvalue = [0, 4, 0, 4]\nclass = detached", fillcolor="#ffffff"] ;
397 -> 473 ;
474 [label="pin_years_since_last_sale <= 1.768\ngini = 0.32\nsamples = 5\nvalue = [0, 4, 0, 1]\nclass = detached", fillcolor="#75ec6a"] ;
473 -> 474 ;
475 [label="gini = 0.0\nsamples = 4\nvalue = [0, 4, 0, 0]\nclass = detached", fillcolor="#47e539"] ;
474 -> 475 ;
476 [label="gini = 0.0\nsamples = 1\nvalue = [0, 0, 0, 1]\nclass = other", fillcolor="#d739e5"] ;
474 -> 476 ;
477 [label="gini = 0.0\nsamples = 3\nvalue = [0, 0, 0, 3]\nclass = other", fillcolor="#d739e5"] ;
473 -> 477 ;
478 [label="gini = 0.0\nsamples = 2\nvalue = [0, 0, 0, 2]\nclass = other", fillcolor="#d739e5"] ;
396 -> 478 ;
479 [label="Avg_HHsize <= 2.806\ngini = 0.358\nsamples = 356\nvalue = [0, 67, 12, 277]\nclass = other", fillcolor="#e26fec"] ;
297 -> 479 ;
480 [label="Sgl_det <= 57.5\ngini = 0.42\nsamples = 34\nvalue = [0, 25, 3, 6]\nclass = detached", fillcolor="#82ed79"] ;
479 -> 480 ;
481 [label="gini = 0.0\nsamples = 5\nvalue = [0, 0, 0, 5]\nclass = other", fillcolor="#d739e5"] ;
480 -> 481 ;
482 [label="CarTrVan_d <= 441.5\ngini = 0.245\nsamples = 29\nvalue = [0, 25, 3, 1]\nclass = detached", fillcolor="#63e957"] ;
480 -> 482 ;
483 [label="DwelDens <= 945.833\ngini = 0.145\nsamples = 26\nvalue = [0, 24, 1, 1]\nclass = detached", fillcolor="#56e749"] ;
482 -> 483 ;
484 [label="DwelDens <= 888.518\ngini = 0.444\nsamples = 3\nvalue = [0, 2, 0, 1]\nclass = detached", fillcolor="#a3f29c"] ;
483 -> 484 ;
485 [label="gini = 0.0\nsamples = 2\nvalue = [0, 2, 0, 0]\nclass = detached", fillcolor="#47e539"] ;
484 -> 485 ;
486 [label="gini = 0.0\nsamples = 1\nvalue = [0, 0, 0, 1]\nclass = other", fillcolor="#d739e5"] ;
484 -> 486 ;
487 [label="Pop_y <= 2010.0\ngini = 0.083\nsamples = 23\nvalue = [0, 22, 1, 0]\nclass = detached", fillcolor="#4fe642"] ;
483 -> 487 ;
488 [label="pin_years_since_last_sale <= 1.34\ngini = 0.444\nsamples = 3\nvalue = [0, 2, 1, 0]\nclass = detached", fillcolor="#a3f29c"] ;
487 -> 488 ;
489 [label="gini = 0.0\nsamples = 2\nvalue = [0, 2, 0, 0]\nclass = detached", fillcolor="#47e539"] ;
488 -> 489 ;
490 [label="gini = 0.0\nsamples = 1\nvalue = [0, 0, 1, 0]\nclass = duplex_townhouse", fillcolor="#399de5"] ;
488 -> 490 ;
491 [label="gini = 0.0\nsamples = 20\nvalue = [0, 20, 0, 0]\nclass = detached", fillcolor="#47e539"] ;
487 -> 491 ;
492 [label="Pop_y <= 11803.5\ngini = 0.444\nsamples = 3\nvalue = [0, 1, 2, 0]\nclass = duplex_townhouse", fillcolor="#9ccef2"] ;
482 -> 492 ;
493 [label="gini = 0.0\nsamples = 2\nvalue = [0, 0, 2, 0]\nclass = duplex_townhouse", fillcolor="#399de5"] ;
492 -> 493 ;
494 [label="gini = 0.0\nsamples = 1\nvalue = [0, 1, 0, 0]\nclass = detached", fillcolor="#47e539"] ;
492 -> 494 ;
495 [label="CarTrVan_d <= 802.5\ngini = 0.274\nsamples = 322\nvalue = [0, 42, 9, 271]\nclass = other", fillcolor="#de5dea"] ;
479 -> 495 ;
496 [label="Pop_y <= 6476.0\ngini = 0.43\nsamples = 165\nvalue = [0, 39, 8, 118]\nclass = other", fillcolor="#e683ef"] ;
495 -> 496 ;
497 [label="med_price_xy <= 547189.781\ngini = 0.219\nsamples = 82\nvalue = [0, 8, 2, 72]\nclass = other", fillcolor="#dc54e9"] ;
496 -> 497 ;
498 [label="pin_years_since_last_sale <= 0.438\ngini = 0.108\nsamples = 71\nvalue = [0, 2, 2, 67]\nclass = other", fillcolor="#d944e7"] ;
497 -> 498 ;
499 [label="gini = 0.0\nsamples = 2\nvalue = [0, 0, 2, 0]\nclass = duplex_townhouse", fillcolor="#399de5"] ;
498 -> 499 ;
500 [label="DwelDens <= 1866.877\ngini = 0.056\nsamples = 69\nvalue = [0, 2, 0, 67]\nclass = other", fillcolor="#d83fe6"] ;
498 -> 500 ;
501 [label="pin_years_since_last_sale <= 1.827\ngini = 0.029\nsamples = 68\nvalue = [0, 1, 0, 67]\nclass = other", fillcolor="#d83ce5"] ;
500 -> 501 ;
502 [label="gini = 0.0\nsamples = 65\nvalue = [0, 0, 0, 65]\nclass = other", fillcolor="#d739e5"] ;
501 -> 502 ;
503 [label="Pop_y <= 4718.0\ngini = 0.444\nsamples = 3\nvalue = [0, 1, 0, 2]\nclass = other", fillcolor="#eb9cf2"] ;
501 -> 503 ;
504 [label="gini = 0.0\nsamples = 1\nvalue = [0, 1, 0, 0]\nclass = detached", fillcolor="#47e539"] ;
503 -> 504 ;
505 [label="gini = 0.0\nsamples = 2\nvalue = [0, 0, 0, 2]\nclass = other", fillcolor="#d739e5"] ;
503 -> 505 ;
506 [label="gini = 0.0\nsamples = 1\nvalue = [0, 1, 0, 0]\nclass = detached", fillcolor="#47e539"] ;
500 -> 506 ;
507 [label="CarTrVan_d <= 525.0\ngini = 0.496\nsamples = 11\nvalue = [0, 6, 0, 5]\nclass = detached", fillcolor="#e0fbde"] ;
497 -> 507 ;
508 [label="med_price_xy <= 868454.438\ngini = 0.444\nsamples = 9\nvalue = [0, 6, 0, 3]\nclass = detached", fillcolor="#a3f29c"] ;
507 -> 508 ;
509 [label="gini = 0.0\nsamples = 4\nvalue = [0, 4, 0, 0]\nclass = detached", fillcolor="#47e539"] ;
508 -> 509 ;
510 [label="med_price_xy <= 1197707.75\ngini = 0.48\nsamples = 5\nvalue = [0, 2, 0, 3]\nclass = other", fillcolor="#f2bdf6"] ;
508 -> 510 ;
511 [label="gini = 0.0\nsamples = 3\nvalue = [0, 0, 0, 3]\nclass = other", fillcolor="#d739e5"] ;
510 -> 511 ;
512 [label="gini = 0.0\nsamples = 2\nvalue = [0, 2, 0, 0]\nclass = detached", fillcolor="#47e539"] ;
510 -> 512 ;
513 [label="gini = 0.0\nsamples = 2\nvalue = [0, 0, 0, 2]\nclass = other", fillcolor="#d739e5"] ;
507 -> 513 ;
514 [label="Avg_HHsize <= 2.99\ngini = 0.548\nsamples = 83\nvalue = [0, 31, 6, 46]\nclass = other", fillcolor="#f3c6f8"] ;
496 -> 514 ;
515 [label="CarTrVan_d <= 689.5\ngini = 0.368\nsamples = 22\nvalue = [0, 17, 1, 4]\nclass = detached", fillcolor="#7aec70"] ;
514 -> 515 ;
516 [label="Pop_y <= 10097.0\ngini = 0.58\nsamples = 10\nvalue = [0, 5, 1, 4]\nclass = detached", fillcolor="#e0fbde"] ;
515 -> 516 ;
517 [label="CarTrVan_d <= 267.5\ngini = 0.278\nsamples = 6\nvalue = [0, 5, 1, 0]\nclass = detached", fillcolor="#6cea61"] ;
516 -> 517 ;
518 [label="gini = 0.0\nsamples = 1\nvalue = [0, 0, 1, 0]\nclass = duplex_townhouse", fillcolor="#399de5"] ;
517 -> 518 ;
519 [label="gini = 0.0\nsamples = 5\nvalue = [0, 5, 0, 0]\nclass = detached", fillcolor="#47e539"] ;
517 -> 519 ;
520 [label="gini = 0.0\nsamples = 4\nvalue = [0, 0, 0, 4]\nclass = other", fillcolor="#d739e5"] ;
516 -> 520 ;
521 [label="gini = 0.0\nsamples = 12\nvalue = [0, 12, 0, 0]\nclass = detached", fillcolor="#47e539"] ;
515 -> 521 ;
522 [label="Pop_y <= 10077.0\ngini = 0.467\nsamples = 61\nvalue = [0, 14, 5, 42]\nclass = other", fillcolor="#e789f0"] ;
514 -> 522 ;
523 [label="pin_years_since_last_sale <= 1.396\ngini = 0.585\nsamples = 29\nvalue = [0, 12, 3, 14]\nclass = other", fillcolor="#fae8fc"] ;
522 -> 523 ;
524 [label="Sgl_det <= 228.0\ngini = 0.549\nsamples = 18\nvalue = [0, 11, 3, 4]\nclass = detached", fillcolor="#a3f29c"] ;
523 -> 524 ;
525 [label="med_price_xy <= 418043.469\ngini = 0.667\nsamples = 9\nvalue = [0, 3, 3, 3]\nclass = detached", fillcolor="#ffffff"] ;
524 -> 525 ;
526 [label="Avg_HHsize <= 3.368\ngini = 0.375\nsamples = 4\nvalue = [0, 0, 1, 3]\nclass = other", fillcolor="#e47bee"] ;
525 -> 526 ;
527 [label="gini = 0.0\nsamples = 1\nvalue = [0, 0, 1, 0]\nclass = duplex_townhouse", fillcolor="#399de5"] ;
526 -> 527 ;
528 [label="gini = 0.0\nsamples = 3\nvalue = [0, 0, 0, 3]\nclass = other", fillcolor="#d739e5"] ;
526 -> 528 ;
529 [label="CarTrVan_d <= 364.5\ngini = 0.48\nsamples = 5\nvalue = [0, 3, 2, 0]\nclass = detached", fillcolor="#c2f6bd"] ;
525 -> 529 ;
530 [label="gini = 0.0\nsamples = 2\nvalue = [0, 2, 0, 0]\nclass = detached", fillcolor="#47e539"] ;
529 -> 530 ;
531 [label="pin_years_since_last_sale <= 0.519\ngini = 0.444\nsamples = 3\nvalue = [0, 1, 2, 0]\nclass = duplex_townhouse", fillcolor="#9ccef2"] ;
529 -> 531 ;
532 [label="gini = 0.0\nsamples = 1\nvalue = [0, 1, 0, 0]\nclass = detached", fillcolor="#47e539"] ;
531 -> 532 ;
533 [label="gini = 0.0\nsamples = 2\nvalue = [0, 0, 2, 0]\nclass = duplex_townhouse", fillcolor="#399de5"] ;
531 -> 533 ;
534 [label="Sgl_det <= 433.0\ngini = 0.198\nsamples = 9\nvalue = [0, 8, 0, 1]\nclass = detached", fillcolor="#5ee852"] ;
524 -> 534 ;
535 [label="gini = 0.0\nsamples = 7\nvalue = [0, 7, 0, 0]\nclass = detached", fillcolor="#47e539"] ;
534 -> 535 ;
536 [label="med_price_xy <= 374737.0\ngini = 0.5\nsamples = 2\nvalue = [0, 1, 0, 1]\nclass = detached", fillcolor="#ffffff"] ;
534 -> 536 ;
537 [label="gini = 0.0\nsamples = 1\nvalue = [0, 0, 0, 1]\nclass = other", fillcolor="#d739e5"] ;
536 -> 537 ;
538 [label="gini = 0.0\nsamples = 1\nvalue = [0, 1, 0, 0]\nclass = detached", fillcolor="#47e539"] ;
536 -> 538 ;
539 [label="Pop_y <= 8709.0\ngini = 0.165\nsamples = 11\nvalue = [0, 1, 0, 10]\nclass = other", fillcolor="#db4de8"] ;
523 -> 539 ;
540 [label="gini = 0.0\nsamples = 9\nvalue = [0, 0, 0, 9]\nclass = other", fillcolor="#d739e5"] ;
539 -> 540 ;
541 [label="Avg_HHsize <= 3.407\ngini = 0.5\nsamples = 2\nvalue = [0, 1, 0, 1]\nclass = detached", fillcolor="#ffffff"] ;
539 -> 541 ;
542 [label="gini = 0.0\nsamples = 1\nvalue = [0, 1, 0, 0]\nclass = detached", fillcolor="#47e539"] ;
541 -> 542 ;
543 [label="gini = 0.0\nsamples = 1\nvalue = [0, 0, 0, 1]\nclass = other", fillcolor="#d739e5"] ;
541 -> 543 ;
544 [label="CarTrVan_d <= 276.0\ngini = 0.227\nsamples = 32\nvalue = [0, 2, 2, 28]\nclass = other", fillcolor="#dc53e8"] ;
522 -> 544 ;
545 [label="xy_total_sales <= 2.5\ngini = 0.5\nsamples = 2\nvalue = [0, 1, 1, 0]\nclass = detached", fillcolor="#ffffff"] ;
544 -> 545 ;
546 [label="gini = 0.0\nsamples = 1\nvalue = [0, 1, 0, 0]\nclass = detached", fillcolor="#47e539"] ;
545 -> 546 ;
547 [label="gini = 0.0\nsamples = 1\nvalue = [0, 0, 1, 0]\nclass = duplex_townhouse", fillcolor="#399de5"] ;
545 -> 547 ;
548 [label="DwelDens <= 1210.533\ngini = 0.127\nsamples = 30\nvalue = [0, 1, 1, 28]\nclass = other", fillcolor="#da47e7"] ;
544 -> 548 ;
549 [label="gini = 0.0\nsamples = 25\nvalue = [0, 0, 0, 25]\nclass = other", fillcolor="#d739e5"] ;
548 -> 549 ;
550 [label="DwelDens <= 1252.025\ngini = 0.56\nsamples = 5\nvalue = [0, 1, 1, 3]\nclass = other", fillcolor="#eb9cf2"] ;
548 -> 550 ;
551 [label="gini = 0.0\nsamples = 1\nvalue = [0, 0, 1, 0]\nclass = duplex_townhouse", fillcolor="#399de5"] ;
550 -> 551 ;
552 [label="pin_years_since_last_sale <= 1.001\ngini = 0.375\nsamples = 4\nvalue = [0, 1, 0, 3]\nclass = other", fillcolor="#e47bee"] ;
550 -> 552 ;
553 [label="gini = 0.0\nsamples = 1\nvalue = [0, 1, 0, 0]\nclass = detached", fillcolor="#47e539"] ;
552 -> 553 ;
554 [label="gini = 0.0\nsamples = 3\nvalue = [0, 0, 0, 3]\nclass = other", fillcolor="#d739e5"] ;
552 -> 554 ;
555 [label="DwelDens <= 1427.722\ngini = 0.05\nsamples = 157\nvalue = [0, 3, 1, 153]\nclass = other", fillcolor="#d83ee6"] ;
495 -> 555 ;
556 [label="med_price_xy <= 634668.875\ngini = 0.026\nsamples = 154\nvalue = [0, 1, 1, 152]\nclass = other", fillcolor="#d83ce5"] ;
555 -> 556 ;
557 [label="Avg_HHsize <= 3.4\ngini = 0.014\nsamples = 147\nvalue = [0, 0, 1, 146]\nclass = other", fillcolor="#d73ae5"] ;
556 -> 557 ;
558 [label="gini = 0.0\nsamples = 128\nvalue = [0, 0, 0, 128]\nclass = other", fillcolor="#d739e5"] ;
557 -> 558 ;
559 [label="Avg_HHsize <= 3.51\ngini = 0.1\nsamples = 19\nvalue = [0, 0, 1, 18]\nclass = other", fillcolor="#d944e6"] ;
557 -> 559 ;
560 [label="gini = 0.0\nsamples = 1\nvalue = [0, 0, 1, 0]\nclass = duplex_townhouse", fillcolor="#399de5"] ;
559 -> 560 ;
561 [label="gini = 0.0\nsamples = 18\nvalue = [0, 0, 0, 18]\nclass = other", fillcolor="#d739e5"] ;
559 -> 561 ;
562 [label="pin_years_since_last_sale <= 0.234\ngini = 0.245\nsamples = 7\nvalue = [0, 1, 0, 6]\nclass = other", fillcolor="#de5ae9"] ;
556 -> 562 ;
563 [label="gini = 0.0\nsamples = 1\nvalue = [0, 1, 0, 0]\nclass = detached", fillcolor="#47e539"] ;
562 -> 563 ;
564 [label="gini = 0.0\nsamples = 6\nvalue = [0, 0, 0, 6]\nclass = other", fillcolor="#d739e5"] ;
562 -> 564 ;
565 [label="med_price_xy <= 507757.047\ngini = 0.444\nsamples = 3\nvalue = [0, 2, 0, 1]\nclass = detached", fillcolor="#a3f29c"] ;
555 -> 565 ;
566 [label="gini = 0.0\nsamples = 2\nvalue = [0, 2, 0, 0]\nclass = detached", fillcolor="#47e539"] ;
565 -> 566 ;
567 [label="gini = 0.0\nsamples = 1\nvalue = [0, 0, 0, 1]\nclass = other", fillcolor="#d739e5"] ;
565 -> 567 ;
568 [label="DwelDens <= 648.9\ngini = 0.517\nsamples = 4330\nvalue = [16, 2819, 731, 764]\nclass = detached", fillcolor="#95f08d"] ;
2 -> 568 ;
569 [label="pin_prev_sales <= 2.5\ngini = 0.573\nsamples = 1416\nvalue = [2, 736, 133, 545]\nclass = detached", fillcolor="#d7f9d4"] ;
568 -> 569 ;
570 [label="CarTrVan_d <= 295.5\ngini = 0.547\nsamples = 874\nvalue = [1, 326, 61, 486]\nclass = other", fillcolor="#f3c5f7"] ;
569 -> 570 ;
571 [label="Sgl_det <= 46.0\ngini = 0.535\nsamples = 279\nvalue = [0, 164, 21, 94]\nclass = detached", fillcolor="#b9f5b4"] ;
570 -> 571 ;
572 [label="CarTrVan_d <= 27.5\ngini = 0.589\nsamples = 84\nvalue = [0, 20, 17, 47]\nclass = other", fillcolor="#eeabf4"] ;
571 -> 572 ;
573 [label="med_price_xy <= 459057.594\ngini = 0.624\nsamples = 30\nvalue = [0, 13, 12, 5]\nclass = detached", fillcolor="#f5fef4"] ;
572 -> 573 ;
574 [label="pin_years_since_last_sale <= 0.786\ngini = 0.532\nsamples = 19\nvalue = [0, 3, 12, 4]\nclass = duplex_townhouse", fillcolor="#95cbf1"] ;
573 -> 574 ;
575 [label="CarTrVan_d <= 21.5\ngini = 0.48\nsamples = 5\nvalue = [0, 2, 0, 3]\nclass = other", fillcolor="#f2bdf6"] ;
574 -> 575 ;
576 [label="gini = 0.0\nsamples = 3\nvalue = [0, 0, 0, 3]\nclass = other", fillcolor="#d739e5"] ;
575 -> 576 ;
577 [label="gini = 0.0\nsamples = 2\nvalue = [0, 2, 0, 0]\nclass = detached", fillcolor="#47e539"] ;
575 -> 577 ;
578 [label="xy_total_sales <= 4.5\ngini = 0.255\nsamples = 14\nvalue = [0, 1, 12, 1]\nclass = duplex_townhouse", fillcolor="#57ace9"] ;
574 -> 578 ;
579 [label="Avg_HHsize <= 3.15\ngini = 0.142\nsamples = 13\nvalue = [0, 0, 12, 1]\nclass = duplex_townhouse", fillcolor="#49a5e7"] ;
578 -> 579 ;
580 [label="DwelDens <= 100.096\ngini = 0.278\nsamples = 6\nvalue = [0, 0, 5, 1]\nclass = duplex_townhouse", fillcolor="#61b1ea"] ;
579 -> 580 ;
581 [label="gini = 0.0\nsamples = 1\nvalue = [0, 0, 0, 1]\nclass = other", fillcolor="#d739e5"] ;
580 -> 581 ;
582 [label="gini = 0.0\nsamples = 5\nvalue = [0, 0, 5, 0]\nclass = duplex_townhouse", fillcolor="#399de5"] ;
580 -> 582 ;
583 [label="gini = 0.0\nsamples = 7\nvalue = [0, 0, 7, 0]\nclass = duplex_townhouse", fillcolor="#399de5"] ;
579 -> 583 ;
584 [label="gini = 0.0\nsamples = 1\nvalue = [0, 1, 0, 0]\nclass = detached", fillcolor="#47e539"] ;
578 -> 584 ;
585 [label="pin_years_since_last_sale <= 0.14\ngini = 0.165\nsamples = 11\nvalue = [0, 10, 0, 1]\nclass = detached", fillcolor="#59e84d"] ;
573 -> 585 ;
586 [label="gini = 0.0\nsamples = 1\nvalue = [0, 0, 0, 1]\nclass = other", fillcolor="#d739e5"] ;
585 -> 586 ;
587 [label="gini = 0.0\nsamples = 10\nvalue = [0, 10, 0, 0]\nclass = detached", fillcolor="#47e539"] ;
585 -> 587 ;
588 [label="CarTrVan_d <= 206.0\ngini = 0.37\nsamples = 54\nvalue = [0, 7, 5, 42]\nclass = other", fillcolor="#e16cec"] ;
572 -> 588 ;
589 [label="Pop_y <= 10562.5\ngini = 0.253\nsamples = 49\nvalue = [0, 5, 2, 42]\nclass = other", fillcolor="#dd59e9"] ;
588 -> 589 ;
590 [label="pin_years_since_last_sale <= 1.311\ngini = 0.475\nsamples = 22\nvalue = [0, 5, 2, 15]\nclass = other", fillcolor="#e78bf0"] ;
589 -> 590 ;
591 [label="pin_years_since_last_sale <= 1.144\ngini = 0.628\nsamples = 11\nvalue = [0, 4, 2, 5]\nclass = other", fillcolor="#f9e3fb"] ;
590 -> 591 ;
592 [label="pin_years_since_last_sale <= 0.312\ngini = 0.531\nsamples = 8\nvalue = [0, 1, 2, 5]\nclass = other", fillcolor="#eb9cf2"] ;
591 -> 592 ;
593 [label="DwelDens <= 71.83\ngini = 0.5\nsamples = 2\nvalue = [0, 1, 1, 0]\nclass = detached", fillcolor="#ffffff"] ;
592 -> 593 ;
594 [label="gini = 0.0\nsamples = 1\nvalue = [0, 0, 1, 0]\nclass = duplex_townhouse", fillcolor="#399de5"] ;
593 -> 594 ;
595 [label="gini = 0.0\nsamples = 1\nvalue = [0, 1, 0, 0]\nclass = detached", fillcolor="#47e539"] ;
593 -> 595 ;
596 [label="Pop_y <= 8884.0\ngini = 0.278\nsamples = 6\nvalue = [0, 0, 1, 5]\nclass = other", fillcolor="#df61ea"] ;
592 -> 596 ;
597 [label="gini = 0.0\nsamples = 5\nvalue = [0, 0, 0, 5]\nclass = other", fillcolor="#d739e5"] ;
596 -> 597 ;
598 [label="gini = 0.0\nsamples = 1\nvalue = [0, 0, 1, 0]\nclass = duplex_townhouse", fillcolor="#399de5"] ;
596 -> 598 ;
599 [label="gini = 0.0\nsamples = 3\nvalue = [0, 3, 0, 0]\nclass = detached", fillcolor="#47e539"] ;
591 -> 599 ;
600 [label="Avg_HHsize <= 3.667\ngini = 0.165\nsamples = 11\nvalue = [0, 1, 0, 10]\nclass = other", fillcolor="#db4de8"] ;
590 -> 600 ;
601 [label="gini = 0.0\nsamples = 9\nvalue = [0, 0, 0, 9]\nclass = other", fillcolor="#d739e5"] ;
600 -> 601 ;
602 [label="pin_years_since_last_sale <= 1.525\ngini = 0.5\nsamples = 2\nvalue = [0, 1, 0, 1]\nclass = detached", fillcolor="#ffffff"] ;
600 -> 602 ;
603 [label="gini = 0.0\nsamples = 1\nvalue = [0, 0, 0, 1]\nclass = other", fillcolor="#d739e5"] ;
602 -> 603 ;
604 [label="gini = 0.0\nsamples = 1\nvalue = [0, 1, 0, 0]\nclass = detached", fillcolor="#47e539"] ;
602 -> 604 ;
605 [label="gini = 0.0\nsamples = 27\nvalue = [0, 0, 0, 27]\nclass = other", fillcolor="#d739e5"] ;
589 -> 605 ;
606 [label="Avg_HHsize <= 2.836\ngini = 0.48\nsamples = 5\nvalue = [0, 2, 3, 0]\nclass = duplex_townhouse", fillcolor="#bddef6"] ;
588 -> 606 ;
607 [label="gini = 0.0\nsamples = 2\nvalue = [0, 0, 2, 0]\nclass = duplex_townhouse", fillcolor="#399de5"] ;
606 -> 607 ;
608 [label="Avg_HHsize <= 3.55\ngini = 0.444\nsamples = 3\nvalue = [0, 2, 1, 0]\nclass = detached", fillcolor="#a3f29c"] ;
606 -> 608 ;
609 [label="gini = 0.0\nsamples = 2\nvalue = [0, 2, 0, 0]\nclass = detached", fillcolor="#47e539"] ;
608 -> 609 ;
610 [label="gini = 0.0\nsamples = 1\nvalue = [0, 0, 1, 0]\nclass = duplex_townhouse", fillcolor="#399de5"] ;
608 -> 610 ;
611 [label="pin_years_since_last_sale <= 0.433\ngini = 0.396\nsamples = 195\nvalue = [0, 144, 4, 47]\nclass = detached", fillcolor="#86ee7d"] ;
571 -> 611 ;
612 [label="DwelDens <= 267.536\ngini = 0.457\nsamples = 34\nvalue = [0, 12, 0, 22]\nclass = other", fillcolor="#eda5f3"] ;
611 -> 612 ;
613 [label="Pop_y <= 8816.0\ngini = 0.18\nsamples = 20\nvalue = [0, 2, 0, 18]\nclass = other", fillcolor="#db4fe8"] ;
612 -> 613 ;
614 [label="Sgl_det <= 105.0\ngini = 0.1\nsamples = 19\nvalue = [0, 1, 0, 18]\nclass = other", fillcolor="#d944e6"] ;
613 -> 614 ;
615 [label="DwelDens <= 163.035\ngini = 0.5\nsamples = 2\nvalue = [0, 1, 0, 1]\nclass = detached", fillcolor="#ffffff"] ;
614 -> 615 ;
616 [label="gini = 0.0\nsamples = 1\nvalue = [0, 1, 0, 0]\nclass = detached", fillcolor="#47e539"] ;
615 -> 616 ;
617 [label="gini = 0.0\nsamples = 1\nvalue = [0, 0, 0, 1]\nclass = other", fillcolor="#d739e5"] ;
615 -> 617 ;
618 [label="gini = 0.0\nsamples = 17\nvalue = [0, 0, 0, 17]\nclass = other", fillcolor="#d739e5"] ;
614 -> 618 ;
619 [label="gini = 0.0\nsamples = 1\nvalue = [0, 1, 0, 0]\nclass = detached", fillcolor="#47e539"] ;
613 -> 619 ;
620 [label="pin_years_since_last_sale <= 0.01\ngini = 0.408\nsamples = 14\nvalue = [0, 10, 0, 4]\nclass = detached", fillcolor="#91ef88"] ;
612 -> 620 ;
621 [label="DwelDens <= 480.329\ngini = 0.375\nsamples = 4\nvalue = [0, 1, 0, 3]\nclass = other", fillcolor="#e47bee"] ;
620 -> 621 ;
622 [label="gini = 0.0\nsamples = 3\nvalue = [0, 0, 0, 3]\nclass = other", fillcolor="#d739e5"] ;
621 -> 622 ;
623 [label="gini = 0.0\nsamples = 1\nvalue = [0, 1, 0, 0]\nclass = detached", fillcolor="#47e539"] ;
621 -> 623 ;
624 [label="pin_years_since_last_sale <= 0.393\ngini = 0.18\nsamples = 10\nvalue = [0, 9, 0, 1]\nclass = detached", fillcolor="#5be84f"] ;
620 -> 624 ;
625 [label="gini = 0.0\nsamples = 9\nvalue = [0, 9, 0, 0]\nclass = detached", fillcolor="#47e539"] ;
624 -> 625 ;
626 [label="gini = 0.0\nsamples = 1\nvalue = [0, 0, 0, 1]\nclass = other", fillcolor="#d739e5"] ;
624 -> 626 ;
627 [label="DwelDens <= 6.994\ngini = 0.303\nsamples = 161\nvalue = [0, 132, 4, 25]\nclass = detached", fillcolor="#6eeb63"] ;
611 -> 627 ;
628 [label="med_price_xy <= 405204.625\ngini = 0.486\nsamples = 12\nvalue = [0, 5, 0, 7]\nclass = other", fillcolor="#f4c6f8"] ;
627 -> 628 ;
629 [label="med_price_xy <= 115039.359\ngini = 0.278\nsamples = 6\nvalue = [0, 5, 0, 1]\nclass = detached", fillcolor="#6cea61"] ;
628 -> 629 ;
630 [label="pin_years_since_last_sale <= 0.741\ngini = 0.5\nsamples = 2\nvalue = [0, 1, 0, 1]\nclass = detached", fillcolor="#ffffff"] ;
629 -> 630 ;
631 [label="gini = 0.0\nsamples = 1\nvalue = [0, 1, 0, 0]\nclass = detached", fillcolor="#47e539"] ;
630 -> 631 ;
632 [label="gini = 0.0\nsamples = 1\nvalue = [0, 0, 0, 1]\nclass = other", fillcolor="#d739e5"] ;
630 -> 632 ;
633 [label="gini = 0.0\nsamples = 4\nvalue = [0, 4, 0, 0]\nclass = detached", fillcolor="#47e539"] ;
629 -> 633 ;
634 [label="gini = 0.0\nsamples = 6\nvalue = [0, 0, 0, 6]\nclass = other", fillcolor="#d739e5"] ;
628 -> 634 ;
635 [label="Pop_y <= 12584.0\ngini = 0.258\nsamples = 149\nvalue = [0, 127, 4, 18]\nclass = detached", fillcolor="#66e95a"] ;
627 -> 635 ;
636 [label="Sgl_det <= 75.5\ngini = 0.232\nsamples = 146\nvalue = [0, 127, 4, 15]\nclass = detached", fillcolor="#62e956"] ;
635 -> 636 ;
637 [label="Avg_HHsize <= 2.85\ngini = 0.519\nsamples = 17\nvalue = [0, 11, 3, 3]\nclass = detached", fillcolor="#96f08e"] ;
636 -> 637 ;
638 [label="DwelDens <= 556.821\ngini = 0.375\nsamples = 4\nvalue = [0, 1, 3, 0]\nclass = duplex_townhouse", fillcolor="#7bbeee"] ;
637 -> 638 ;
639 [label="gini = 0.0\nsamples = 3\nvalue = [0, 0, 3, 0]\nclass = duplex_townhouse", fillcolor="#399de5"] ;
638 -> 639 ;
640 [label="gini = 0.0\nsamples = 1\nvalue = [0, 1, 0, 0]\nclass = detached", fillcolor="#47e539"] ;
638 -> 640 ;
641 [label="DwelDens <= 453.689\ngini = 0.355\nsamples = 13\nvalue = [0, 10, 0, 3]\nclass = detached", fillcolor="#7eed74"] ;
637 -> 641 ;
642 [label="med_price_xy <= 322475.438\ngini = 0.18\nsamples = 10\nvalue = [0, 9, 0, 1]\nclass = detached", fillcolor="#5be84f"] ;
641 -> 642 ;
643 [label="gini = 0.5\nsamples = 2\nvalue = [0, 1, 0, 1]\nclass = detached", fillcolor="#ffffff"] ;
642 -> 643 ;
644 [label="gini = 0.0\nsamples = 8\nvalue = [0, 8, 0, 0]\nclass = detached", fillcolor="#47e539"] ;
642 -> 644 ;
645 [label="Sgl_det <= 50.5\ngini = 0.444\nsamples = 3\nvalue = [0, 1, 0, 2]\nclass = other", fillcolor="#eb9cf2"] ;
641 -> 645 ;
646 [label="gini = 0.5\nsamples = 2\nvalue = [0, 1, 0, 1]\nclass = detached", fillcolor="#ffffff"] ;
645 -> 646 ;
647 [label="gini = 0.0\nsamples = 1\nvalue = [0, 0, 0, 1]\nclass = other", fillcolor="#d739e5"] ;
645 -> 647 ;
648 [label="DwelDens <= 182.399\ngini = 0.183\nsamples = 129\nvalue = [0, 116, 1, 12]\nclass = detached", fillcolor="#5be84f"] ;
636 -> 648 ;
649 [label="DwelDens <= 180.49\ngini = 0.306\nsamples = 53\nvalue = [0, 43, 0, 10]\nclass = detached", fillcolor="#72eb67"] ;
648 -> 649 ;
650 [label="med_price_xy <= 378626.844\ngini = 0.265\nsamples = 51\nvalue = [0, 43, 0, 8]\nclass = detached", fillcolor="#69ea5e"] ;
649 -> 650 ;
651 [label="gini = 0.0\nsamples = 16\nvalue = [0, 16, 0, 0]\nclass = detached", fillcolor="#47e539"] ;
650 -> 651 ;
652 [label="med_price_xy <= 436193.219\ngini = 0.353\nsamples = 35\nvalue = [0, 27, 0, 8]\nclass = detached", fillcolor="#7eed74"] ;
650 -> 652 ;
653 [label="Avg_HHsize <= 3.2\ngini = 0.375\nsamples = 4\nvalue = [0, 1, 0, 3]\nclass = other", fillcolor="#e47bee"] ;
652 -> 653 ;
654 [label="gini = 0.0\nsamples = 2\nvalue = [0, 0, 0, 2]\nclass = other", fillcolor="#d739e5"] ;
653 -> 654 ;
655 [label="gini = 0.5\nsamples = 2\nvalue = [0, 1, 0, 1]\nclass = detached", fillcolor="#ffffff"] ;
653 -> 655 ;
656 [label="Pop_y <= 542.0\ngini = 0.271\nsamples = 31\nvalue = [0, 26, 0, 5]\nclass = detached", fillcolor="#6aea5f"] ;
652 -> 656 ;
657 [label="gini = 0.0\nsamples = 10\nvalue = [0, 10, 0, 0]\nclass = detached", fillcolor="#47e539"] ;
656 -> 657 ;
658 [label="Sgl_det <= 214.5\ngini = 0.363\nsamples = 21\nvalue = [0, 16, 0, 5]\nclass = detached", fillcolor="#81ed77"] ;
656 -> 658 ;
659 [label="med_price_xy <= 1297430.375\ngini = 0.278\nsamples = 18\nvalue = [0, 15, 0, 3]\nclass = detached", fillcolor="#6cea61"] ;
658 -> 659 ;
660 [label="Sgl_det <= 177.5\ngini = 0.133\nsamples = 14\nvalue = [0, 13, 0, 1]\nclass = detached", fillcolor="#55e748"] ;
659 -> 660 ;
661 [label="gini = 0.0\nsamples = 11\nvalue = [0, 11, 0, 0]\nclass = detached", fillcolor="#47e539"] ;
660 -> 661 ;
662 [label="CarTrVan_d <= 225.0\ngini = 0.444\nsamples = 3\nvalue = [0, 2, 0, 1]\nclass = detached", fillcolor="#a3f29c"] ;
660 -> 662 ;
663 [label="gini = 0.0\nsamples = 1\nvalue = [0, 0, 0, 1]\nclass = other", fillcolor="#d739e5"] ;
662 -> 663 ;
664 [label="gini = 0.0\nsamples = 2\nvalue = [0, 2, 0, 0]\nclass = detached", fillcolor="#47e539"] ;
662 -> 664 ;
665 [label="Avg_HHsize <= 2.95\ngini = 0.5\nsamples = 4\nvalue = [0, 2, 0, 2]\nclass = detached", fillcolor="#ffffff"] ;
659 -> 665 ;
666 [label="gini = 0.0\nsamples = 1\nvalue = [0, 0, 0, 1]\nclass = other", fillcolor="#d739e5"] ;
665 -> 666 ;
667 [label="med_price_xy <= 1399802.375\ngini = 0.444\nsamples = 3\nvalue = [0, 2, 0, 1]\nclass = detached", fillcolor="#a3f29c"] ;
665 -> 667 ;
668 [label="gini = 0.0\nsamples = 1\nvalue = [0, 0, 0, 1]\nclass = other", fillcolor="#d739e5"] ;
667 -> 668 ;
669 [label="gini = 0.0\nsamples = 2\nvalue = [0, 2, 0, 0]\nclass = detached", fillcolor="#47e539"] ;
667 -> 669 ;
670 [label="Sgl_det <= 233.0\ngini = 0.444\nsamples = 3\nvalue = [0, 1, 0, 2]\nclass = other", fillcolor="#eb9cf2"] ;
658 -> 670 ;
671 [label="gini = 0.0\nsamples = 2\nvalue = [0, 0, 0, 2]\nclass = other", fillcolor="#d739e5"] ;
670 -> 671 ;
672 [label="gini = 0.0\nsamples = 1\nvalue = [0, 1, 0, 0]\nclass = detached", fillcolor="#47e539"] ;
670 -> 672 ;
673 [label="gini = 0.0\nsamples = 2\nvalue = [0, 0, 0, 2]\nclass = other", fillcolor="#d739e5"] ;
649 -> 673 ;
674 [label="CarTrVan_d <= 280.0\ngini = 0.077\nsamples = 76\nvalue = [0, 73, 1, 2]\nclass = detached", fillcolor="#4ee641"] ;
648 -> 674 ;
675 [label="Pop_y <= 8790.5\ngini = 0.028\nsamples = 70\nvalue = [0, 69, 0, 1]\nclass = detached", fillcolor="#4ae53c"] ;
674 -> 675 ;
676 [label="gini = 0.0\nsamples = 62\nvalue = [0, 62, 0, 0]\nclass = detached", fillcolor="#47e539"] ;
675 -> 676 ;
677 [label="Pop_y <= 9007.5\ngini = 0.219\nsamples = 8\nvalue = [0, 7, 0, 1]\nclass = detached", fillcolor="#61e955"] ;
675 -> 677 ;
678 [label="med_price_xy <= 1521922.969\ngini = 0.5\nsamples = 2\nvalue = [0, 1, 0, 1]\nclass = detached", fillcolor="#ffffff"] ;
677 -> 678 ;
679 [label="gini = 0.0\nsamples = 1\nvalue = [0, 0, 0, 1]\nclass = other", fillcolor="#d739e5"] ;
678 -> 679 ;
680 [label="gini = 0.0\nsamples = 1\nvalue = [0, 1, 0, 0]\nclass = detached", fillcolor="#47e539"] ;
678 -> 680 ;
681 [label="gini = 0.0\nsamples = 6\nvalue = [0, 6, 0, 0]\nclass = detached", fillcolor="#47e539"] ;
677 -> 681 ;
682 [label="Pop_y <= 5983.0\ngini = 0.5\nsamples = 6\nvalue = [0, 4, 1, 1]\nclass = detached", fillcolor="#91ef88"] ;
674 -> 682 ;
683 [label="pin_years_since_last_sale <= 1.045\ngini = 0.5\nsamples = 2\nvalue = [0, 0, 1, 1]\nclass = duplex_townhouse", fillcolor="#ffffff"] ;
682 -> 683 ;
684 [label="gini = 0.0\nsamples = 1\nvalue = [0, 0, 1, 0]\nclass = duplex_townhouse", fillcolor="#399de5"] ;
683 -> 684 ;
685 [label="gini = 0.0\nsamples = 1\nvalue = [0, 0, 0, 1]\nclass = other", fillcolor="#d739e5"] ;
683 -> 685 ;
686 [label="gini = 0.0\nsamples = 4\nvalue = [0, 4, 0, 0]\nclass = detached", fillcolor="#47e539"] ;
682 -> 686 ;
687 [label="gini = 0.0\nsamples = 3\nvalue = [0, 0, 0, 3]\nclass = other", fillcolor="#d739e5"] ;
635 -> 687 ;
688 [label="pin_years_since_last_sale <= 0.596\ngini = 0.487\nsamples = 595\nvalue = [1, 162, 40, 392]\nclass = other", fillcolor="#ea96f1"] ;
570 -> 688 ;
689 [label="Sgl_det <= 1504.5\ngini = 0.219\nsamples = 187\nvalue = [0, 20, 3, 164]\nclass = other", fillcolor="#dd54e9"] ;
688 -> 689 ;
690 [label="Avg_HHsize <= 3.112\ngini = 0.197\nsamples = 184\nvalue = [0, 17, 3, 164]\nclass = other", fillcolor="#dc51e8"] ;
689 -> 690 ;
691 [label="DwelDens <= 440.153\ngini = 0.509\nsamples = 25\nvalue = [0, 9, 1, 15]\nclass = other", fillcolor="#f0b5f5"] ;
690 -> 691 ;
692 [label="pin_years_since_last_sale <= 0.404\ngini = 0.431\nsamples = 21\nvalue = [0, 5, 1, 15]\nclass = other", fillcolor="#e683ef"] ;
691 -> 692 ;
693 [label="Pop_y <= 8518.0\ngini = 0.24\nsamples = 15\nvalue = [0, 1, 1, 13]\nclass = other", fillcolor="#dd55e9"] ;
692 -> 693 ;
694 [label="Avg_HHsize <= 2.99\ngini = 0.133\nsamples = 14\nvalue = [0, 0, 1, 13]\nclass = other", fillcolor="#da48e7"] ;
693 -> 694 ;
695 [label="gini = 0.0\nsamples = 13\nvalue = [0, 0, 0, 13]\nclass = other", fillcolor="#d739e5"] ;
694 -> 695 ;
696 [label="gini = 0.0\nsamples = 1\nvalue = [0, 0, 1, 0]\nclass = duplex_townhouse", fillcolor="#399de5"] ;
694 -> 696 ;
697 [label="gini = 0.0\nsamples = 1\nvalue = [0, 1, 0, 0]\nclass = detached", fillcolor="#47e539"] ;
693 -> 697 ;
698 [label="Pop_y <= 3486.0\ngini = 0.444\nsamples = 6\nvalue = [0, 4, 0, 2]\nclass = detached", fillcolor="#a3f29c"] ;
692 -> 698 ;
699 [label="gini = 0.0\nsamples = 3\nvalue = [0, 3, 0, 0]\nclass = detached", fillcolor="#47e539"] ;
698 -> 699 ;
700 [label="Avg_HHsize <= 2.675\ngini = 0.444\nsamples = 3\nvalue = [0, 1, 0, 2]\nclass = other", fillcolor="#eb9cf2"] ;
698 -> 700 ;
701 [label="gini = 0.0\nsamples = 1\nvalue = [0, 1, 0, 0]\nclass = detached", fillcolor="#47e539"] ;
700 -> 701 ;
702 [label="gini = 0.0\nsamples = 2\nvalue = [0, 0, 0, 2]\nclass = other", fillcolor="#d739e5"] ;
700 -> 702 ;
703 [label="gini = 0.0\nsamples = 4\nvalue = [0, 4, 0, 0]\nclass = detached", fillcolor="#47e539"] ;
691 -> 703 ;
704 [label="DwelDens <= 137.475\ngini = 0.119\nsamples = 159\nvalue = [0, 8, 2, 149]\nclass = other", fillcolor="#da46e7"] ;
690 -> 704 ;
705 [label="CarTrVan_d <= 662.5\ngini = 0.469\nsamples = 8\nvalue = [0, 3, 0, 5]\nclass = other", fillcolor="#efb0f5"] ;
704 -> 705 ;
706 [label="gini = 0.0\nsamples = 3\nvalue = [0, 3, 0, 0]\nclass = detached", fillcolor="#47e539"] ;
705 -> 706 ;
707 [label="gini = 0.0\nsamples = 5\nvalue = [0, 0, 0, 5]\nclass = other", fillcolor="#d739e5"] ;
705 -> 707 ;
708 [label="med_price_xy <= 835392.812\ngini = 0.089\nsamples = 151\nvalue = [0, 5, 2, 144]\nclass = other", fillcolor="#d942e6"] ;
704 -> 708 ;
709 [label="CarTrVan_d <= 2551.0\ngini = 0.078\nsamples = 150\nvalue = [0, 4, 2, 144]\nclass = other", fillcolor="#d941e6"] ;
708 -> 709 ;
710 [label="Avg_HHsize <= 4.15\ngini = 0.042\nsamples = 139\nvalue = [0, 2, 1, 136]\nclass = other", fillcolor="#d83de6"] ;
709 -> 710 ;
711 [label="CarTrVan_d <= 507.0\ngini = 0.029\nsamples = 138\nvalue = [0, 1, 1, 136]\nclass = other", fillcolor="#d83ce5"] ;
710 -> 711 ;
712 [label="med_price_xy <= 703016.344\ngini = 0.227\nsamples = 16\nvalue = [0, 1, 1, 14]\nclass = other", fillcolor="#dc53e8"] ;
711 -> 712 ;
713 [label="CarTrVan_d <= 471.0\ngini = 0.124\nsamples = 15\nvalue = [0, 0, 1, 14]\nclass = other", fillcolor="#da47e7"] ;
712 -> 713 ;
714 [label="gini = 0.0\nsamples = 14\nvalue = [0, 0, 0, 14]\nclass = other", fillcolor="#d739e5"] ;
713 -> 714 ;
715 [label="gini = 0.0\nsamples = 1\nvalue = [0, 0, 1, 0]\nclass = duplex_townhouse", fillcolor="#399de5"] ;
713 -> 715 ;
716 [label="gini = 0.0\nsamples = 1\nvalue = [0, 1, 0, 0]\nclass = detached", fillcolor="#47e539"] ;
712 -> 716 ;
717 [label="gini = 0.0\nsamples = 122\nvalue = [0, 0, 0, 122]\nclass = other", fillcolor="#d739e5"] ;
711 -> 717 ;
718 [label="gini = 0.0\nsamples = 1\nvalue = [0, 1, 0, 0]\nclass = detached", fillcolor="#47e539"] ;
710 -> 718 ;
719 [label="med_price_xy <= 422854.906\ngini = 0.43\nsamples = 11\nvalue = [0, 2, 1, 8]\nclass = other", fillcolor="#e47bee"] ;
709 -> 719 ;
720 [label="gini = 0.0\nsamples = 1\nvalue = [0, 0, 1, 0]\nclass = duplex_townhouse", fillcolor="#399de5"] ;
719 -> 720 ;
721 [label="pin_years_since_last_sale <= 0.062\ngini = 0.32\nsamples = 10\nvalue = [0, 2, 0, 8]\nclass = other", fillcolor="#e16aec"] ;
719 -> 721 ;
722 [label="gini = 0.0\nsamples = 1\nvalue = [0, 1, 0, 0]\nclass = detached", fillcolor="#47e539"] ;
721 -> 722 ;
723 [label="pin_years_since_last_sale <= 0.427\ngini = 0.198\nsamples = 9\nvalue = [0, 1, 0, 8]\nclass = other", fillcolor="#dc52e8"] ;
721 -> 723 ;
724 [label="gini = 0.0\nsamples = 7\nvalue = [0, 0, 0, 7]\nclass = other", fillcolor="#d739e5"] ;
723 -> 724 ;
725 [label="pin_years_since_last_sale <= 0.466\ngini = 0.5\nsamples = 2\nvalue = [0, 1, 0, 1]\nclass = detached", fillcolor="#ffffff"] ;
723 -> 725 ;
726 [label="gini = 0.0\nsamples = 1\nvalue = [0, 1, 0, 0]\nclass = detached", fillcolor="#47e539"] ;
725 -> 726 ;
727 [label="gini = 0.0\nsamples = 1\nvalue = [0, 0, 0, 1]\nclass = other", fillcolor="#d739e5"] ;
725 -> 727 ;
728 [label="gini = 0.0\nsamples = 1\nvalue = [0, 1, 0, 0]\nclass = detached", fillcolor="#47e539"] ;
708 -> 728 ;
729 [label="gini = 0.0\nsamples = 3\nvalue = [0, 3, 0, 0]\nclass = detached", fillcolor="#47e539"] ;
689 -> 729 ;
730 [label="DwelDens <= 309.051\ngini = 0.558\nsamples = 408\nvalue = [1, 142, 37, 228]\nclass = other", fillcolor="#f2bff7"] ;
688 -> 730 ;
731 [label="Sgl_det <= 200.5\ngini = 0.593\nsamples = 150\nvalue = [1, 75, 17, 57]\nclass = detached", fillcolor="#dbfad9"] ;
730 -> 731 ;
732 [label="Avg_HHsize <= 3.117\ngini = 0.606\nsamples = 29\nvalue = [0, 5, 9, 15]\nclass = other", fillcolor="#f3c4f7"] ;
731 -> 732 ;
733 [label="CarTrVan_d <= 362.0\ngini = 0.544\nsamples = 13\nvalue = [0, 3, 8, 2]\nclass = duplex_townhouse", fillcolor="#9ccef2"] ;
732 -> 733 ;
734 [label="Pop_y <= 1541.5\ngini = 0.611\nsamples = 6\nvalue = [0, 3, 1, 2]\nclass = detached", fillcolor="#d1f8ce"] ;
733 -> 734 ;
735 [label="Avg_HHsize <= 2.906\ngini = 0.48\nsamples = 5\nvalue = [0, 3, 0, 2]\nclass = detached", fillcolor="#c2f6bd"] ;
734 -> 735 ;
736 [label="pin_years_since_last_sale <= 0.686\ngini = 0.444\nsamples = 3\nvalue = [0, 1, 0, 2]\nclass = other", fillcolor="#eb9cf2"] ;
735 -> 736 ;
737 [label="gini = 0.0\nsamples = 1\nvalue = [0, 1, 0, 0]\nclass = detached", fillcolor="#47e539"] ;
736 -> 737 ;
738 [label="gini = 0.0\nsamples = 2\nvalue = [0, 0, 0, 2]\nclass = other", fillcolor="#d739e5"] ;
736 -> 738 ;
739 [label="gini = 0.0\nsamples = 2\nvalue = [0, 2, 0, 0]\nclass = detached", fillcolor="#47e539"] ;
735 -> 739 ;
740 [label="gini = 0.0\nsamples = 1\nvalue = [0, 0, 1, 0]\nclass = duplex_townhouse", fillcolor="#399de5"] ;
734 -> 740 ;
741 [label="gini = 0.0\nsamples = 7\nvalue = [0, 0, 7, 0]\nclass = duplex_townhouse", fillcolor="#399de5"] ;
733 -> 741 ;
742 [label="DwelDens <= 175.615\ngini = 0.32\nsamples = 16\nvalue = [0, 2, 1, 13]\nclass = other", fillcolor="#e063eb"] ;
732 -> 742 ;
743 [label="gini = 0.0\nsamples = 13\nvalue = [0, 0, 0, 13]\nclass = other", fillcolor="#d739e5"] ;
742 -> 743 ;
744 [label="Sgl_det <= 99.0\ngini = 0.444\nsamples = 3\nvalue = [0, 2, 1, 0]\nclass = detached", fillcolor="#a3f29c"] ;
742 -> 744 ;
745 [label="gini = 0.0\nsamples = 1\nvalue = [0, 0, 1, 0]\nclass = duplex_townhouse", fillcolor="#399de5"] ;
744 -> 745 ;
746 [label="gini = 0.0\nsamples = 2\nvalue = [0, 2, 0, 0]\nclass = detached", fillcolor="#47e539"] ;
744 -> 746 ;
747 [label="pin_years_since_last_sale <= 1.745\ngini = 0.54\nsamples = 121\nvalue = [1, 70, 8, 42]\nclass = detached", fillcolor="#bef6b9"] ;
731 -> 747 ;
748 [label="Pop_y <= 11709.5\ngini = 0.494\nsamples = 104\nvalue = [1, 67, 5, 31]\nclass = detached", fillcolor="#a4f29d"] ;
747 -> 748 ;
749 [label="Pop_y <= 1592.0\ngini = 0.479\nsamples = 99\nvalue = [1, 66, 5, 27]\nclass = detached", fillcolor="#9bf194"] ;
748 -> 749 ;
750 [label="Avg_HHsize <= 2.755\ngini = 0.564\nsamples = 28\nvalue = [0, 13, 2, 13]\nclass = detached", fillcolor="#ffffff"] ;
749 -> 750 ;
751 [label="gini = 0.0\nsamples = 6\nvalue = [0, 6, 0, 0]\nclass = detached", fillcolor="#47e539"] ;
750 -> 751 ;
752 [label="Pop_y <= 286.0\ngini = 0.541\nsamples = 22\nvalue = [0, 7, 2, 13]\nclass = other", fillcolor="#efb0f5"] ;
750 -> 752 ;
753 [label="gini = 0.0\nsamples = 3\nvalue = [0, 3, 0, 0]\nclass = detached", fillcolor="#47e539"] ;
752 -> 753 ;
754 [label="xy_total_sales <= 3.5\ngini = 0.476\nsamples = 19\nvalue = [0, 4, 2, 13]\nclass = other", fillcolor="#e788ef"] ;
752 -> 754 ;
755 [label="Avg_HHsize <= 3.215\ngini = 0.26\nsamples = 13\nvalue = [0, 2, 0, 11]\nclass = other", fillcolor="#de5dea"] ;
754 -> 755 ;
756 [label="Sgl_det <= 223.0\ngini = 0.153\nsamples = 12\nvalue = [0, 1, 0, 11]\nclass = other", fillcolor="#db4be7"] ;
755 -> 756 ;
757 [label="gini = 0.0\nsamples = 1\nvalue = [0, 1, 0, 0]\nclass = detached", fillcolor="#47e539"] ;
756 -> 757 ;
758 [label="gini = 0.0\nsamples = 11\nvalue = [0, 0, 0, 11]\nclass = other", fillcolor="#d739e5"] ;
756 -> 758 ;
759 [label="gini = 0.0\nsamples = 1\nvalue = [0, 1, 0, 0]\nclass = detached", fillcolor="#47e539"] ;
755 -> 759 ;
760 [label="Pop_y <= 1312.0\ngini = 0.667\nsamples = 6\nvalue = [0, 2, 2, 2]\nclass = detached", fillcolor="#ffffff"] ;
754 -> 760 ;
761 [label="Avg_HHsize <= 3.09\ngini = 0.5\nsamples = 4\nvalue = [0, 2, 0, 2]\nclass = detached", fillcolor="#ffffff"] ;
760 -> 761 ;
762 [label="gini = 0.0\nsamples = 2\nvalue = [0, 2, 0, 0]\nclass = detached", fillcolor="#47e539"] ;
761 -> 762 ;
763 [label="gini = 0.0\nsamples = 2\nvalue = [0, 0, 0, 2]\nclass = other", fillcolor="#d739e5"] ;
761 -> 763 ;
764 [label="gini = 0.0\nsamples = 2\nvalue = [0, 0, 2, 0]\nclass = duplex_townhouse", fillcolor="#399de5"] ;
760 -> 764 ;
765 [label="xy_total_sales <= 4.5\ngini = 0.402\nsamples = 71\nvalue = [1, 53, 3, 14]\nclass = detached", fillcolor="#81ed78"] ;
749 -> 765 ;
766 [label="DwelDens <= 215.435\ngini = 0.349\nsamples = 66\nvalue = [0, 52, 3, 11]\nclass = detached", fillcolor="#76ec6b"] ;
765 -> 766 ;
767 [label="med_price_xy <= 284101.75\ngini = 0.177\nsamples = 42\nvalue = [0, 38, 2, 2]\nclass = detached", fillcolor="#59e84d"] ;
766 -> 767 ;
768 [label="med_price_xy <= 238871.625\ngini = 0.571\nsamples = 7\nvalue = [0, 4, 1, 2]\nclass = detached", fillcolor="#b5f5b0"] ;
767 -> 768 ;
769 [label="gini = 0.0\nsamples = 4\nvalue = [0, 4, 0, 0]\nclass = detached", fillcolor="#47e539"] ;
768 -> 769 ;
770 [label="DwelDens <= 161.281\ngini = 0.444\nsamples = 3\nvalue = [0, 0, 1, 2]\nclass = other", fillcolor="#eb9cf2"] ;
768 -> 770 ;
771 [label="gini = 0.0\nsamples = 2\nvalue = [0, 0, 0, 2]\nclass = other", fillcolor="#d739e5"] ;
770 -> 771 ;
772 [label="gini = 0.0\nsamples = 1\nvalue = [0, 0, 1, 0]\nclass = duplex_townhouse", fillcolor="#399de5"] ;
770 -> 772 ;
773 [label="DwelDens <= 39.349\ngini = 0.056\nsamples = 35\nvalue = [0, 34, 1, 0]\nclass = detached", fillcolor="#4ce63f"] ;
767 -> 773 ;
774 [label="pin_years_since_last_sale <= 1.066\ngini = 0.375\nsamples = 4\nvalue = [0, 3, 1, 0]\nclass = detached", fillcolor="#84ee7b"] ;
773 -> 774 ;
775 [label="pin_years_since_last_sale <= 0.808\ngini = 0.5\nsamples = 2\nvalue = [0, 1, 1, 0]\nclass = detached", fillcolor="#ffffff"] ;
774 -> 775 ;
776 [label="gini = 0.0\nsamples = 1\nvalue = [0, 1, 0, 0]\nclass = detached", fillcolor="#47e539"] ;
775 -> 776 ;
777 [label="gini = 0.0\nsamples = 1\nvalue = [0, 0, 1, 0]\nclass = duplex_townhouse", fillcolor="#399de5"] ;
775 -> 777 ;
778 [label="gini = 0.0\nsamples = 2\nvalue = [0, 2, 0, 0]\nclass = detached", fillcolor="#47e539"] ;
774 -> 778 ;
779 [label="gini = 0.0\nsamples = 31\nvalue = [0, 31, 0, 0]\nclass = detached", fillcolor="#47e539"] ;
773 -> 779 ;
780 [label="Avg_HHsize <= 2.95\ngini = 0.517\nsamples = 24\nvalue = [0, 14, 1, 9]\nclass = detached", fillcolor="#c2f6bd"] ;
766 -> 780 ;
781 [label="med_price_xy <= 318558.719\ngini = 0.408\nsamples = 7\nvalue = [0, 2, 0, 5]\nclass = other", fillcolor="#e788ef"] ;
780 -> 781 ;
782 [label="gini = 0.0\nsamples = 1\nvalue = [0, 1, 0, 0]\nclass = detached", fillcolor="#47e539"] ;
781 -> 782 ;
783 [label="Sgl_det <= 483.5\ngini = 0.278\nsamples = 6\nvalue = [0, 1, 0, 5]\nclass = other", fillcolor="#df61ea"] ;
781 -> 783 ;
784 [label="gini = 0.0\nsamples = 5\nvalue = [0, 0, 0, 5]\nclass = other", fillcolor="#d739e5"] ;
783 -> 784 ;
